tree
version=v3
num_class=1
num_tree_per_iteration=1
label_index=0
max_feature_idx=9
objective=regression
feature_names=Column_0 Column_1 Column_2 Column_3 Column_4 Column_5 Column_6 Column_7 Column_8 Column_9
feature_infos=[1:18] [1969:2013] [31.75:40.975000000000001] [20.324999999999999:25.25] [31.75:557] [60.75:88] [0.59999999999999998:5.0499999999999998] [2:5.7750000000000004] [4.7999999999999998:8.9499999999999993] [3:63]
tree_sizes=2309 2404 2383 2268 2385 2157 2375 2161 2275 2013 2276 2394 2413 2297 2280 2268 2362 2420 2313 2387 2254 2430 2393 2501 2183 2192 2048 2398 2046 2183 2286 2165 2518 2215 2405 2414 2445 2528 1988

Tree=0
num_leaves=22
num_cat=0
split_feature=9 1 6 8 1 1 2 6 8 3 8 8 7 2 4 6 1 7 3 1 3
split_gain=53.4665 48.4193 14.0253 7.77155 6.99081 6.55972 4.23473 3.06608 2.47778 1.85492 1.72412 1.5301 1.6778 1.41282 1.15869 1.06264 1.00362 0.88586 0.810112 0.529434 0.311784
threshold=3.5000000000000004 1989.5000000000002 1.7875000000000003 6.4500000000000002 1999.5000000000002 1986.5000000000002 36.712500000000013 1.9875000000000003 7.3567857145000009 23.637500000000003 6.8375000000000012 6.2375000000000007 3.6875000000000004 38.612500000000004 247.87500000000003 2.0875000000000008 1995.5000000000002 4.0625000000000009 22.887500000000003 2003.5000000000002 23.462500000000002
decision_type=2 2 2 2 2 2 2 2 2 2 2 2 2 2 2 2 2 2 2 2 2
left_child=-1 2 3 -2 7 15 9 11 10 19 14 -3 -13 20 -5 -4 -14 -17 -12 -6 -8
right_child=1 4 5 8 6 -7 13 -9 -10 -11 18 12 16 -15 -16 17 -18 -19 -20 -21 -22
leaf_value=-0.091862778789895835 -0.068234913549917994 -0.0094596808300396375 0.0052017946861951988 -0.0082766947808887558 0.025239968955916108 0.034902820314990431 0.036635795889910283 0.033748077474933809 -0.0048695590272373676 0.0068564541504167595 -0.029594683139834758 -0.0028698800057000637 0.0098192972056874109 0.063088216348301404 -0.029641480714925186 -0.0048799218815095656 0.027821676803531196 -0.022851281436692236 -0.048380037282815133 0.039681740024046591 0.047884610739117442
leaf_weight=14.999999999999998 11.999999999999998 9.9999999999999982 11.999999999999998 11.000000000000002 15.000000000000002 11.999999999999998 14.000000000000002 14.999999999999998 12.999999999999998 10.999999999999998 11.000000000000002 12.999999999999998 16.000000000000004 10.999999999999998 14.999999999999998 16.000000000000004 14.999999999999998 11.999999999999998 11.999999999999998 10.999999999999998 10.999999999999998
leaf_count=15 12 10 12 11 15 12 14 15 13 11 11 13 16 11 15 16 15 12 12 11 11
internal_value=8.6715e-10 0.00514157 -0.0174201 -0.0314039 0.0251611 0.00248002 0.0359469 0.01375 -0.0242754 0.0240681 -0.0294238 0.00819498 0.0122074 0.0481556 -0.0206025 -0.00724681 0.0185301 -0.0125819 -0.0393957 0.0313499 0.0415853
internal_weight=0 268 126 74 142 52 73 69 62 37 49 54 44 36 26 40 31 28 23 26 25
internal_count=283 268 126 74 142 52 73 69 62 37 49 54 44 36 26 40 31 28 23 26 25
is_linear=0
shrinkage=1


Tree=1
num_leaves=23
num_cat=0
split_feature=9 1 6 8 1 1 2 6 8 0 9 5 9 0 2 1 6 1 8 4 3 3
split_gain=48.2536 43.6984 12.6579 7.01383 6.3092 5.92015 3.82184 2.76714 2.23619 1.74382 1.71554 1.69717 1.40152 1.55009 1.27507 1.16868 0.959052 0.787838 0.754241 0.678007 0.656332 0.281385
threshold=3.5000000000000004 1989.5000000000002 1.7875000000000003 6.4500000000000002 1999.5000000000002 1986.5000000000002 36.712500000000013 1.9875000000000003 7.3567857145000009 13.500000000000002 19.500000000000004 79.125000000000014 6.5000000000000009 5.5000000000000009 38.612500000000004 1994.5000000000002 3.4250000000000003 1981.5000000000002 6.5375000000000005 192.75000000000003 22.512500000000003 23.462500000000002
decision_type=2 2 2 2 2 2 2 2 2 2 2 2 2 2 2 2 2 2 2 2 2 2
left_child=-1 2 3 -2 7 16 10 12 9 11 18 17 -3 -14 21 -15 19 -5 -6 -4 -17 -8
right_child=1 4 5 8 6 -7 14 -9 -10 -11 -12 -13 13 15 -16 20 -18 -19 -20 -21 -22 -23
leaf_value=-0.087269642750422163 -0.064823168391982711 -0.0072845250212897859 -0.0095021832874044761 -0.023888347670435899 0.0035287373792380083 0.033157677552662794 0.034804005282265793 0.03206067301953832 -0.0046260818552512394 -0.042866616709423919 0.035199127072701231 -0.036310185040705482 0.028216171258298513 -0.0076994445733725991 0.059933805736628445 0.0046402181414040636 -0.019455301287499342 -0.0048859122054030505 0.022501841356808491 0.0057972901899899752 0.022339065708220005 0.045490380437960005
leaf_weight=14.999999999999998 11.999999999999998 11.999999999999998 15.000000000000002 10.000000000000002 10.000000000000002 11.999999999999998 14.000000000000002 14.999999999999998 12.999999999999998 13.999999999999998 15.999999999999998 12.999999999999998 10.999999999999998 10.000000000000002 10.999999999999998 11.000000000000002 10.999999999999998 11.999999999999998 10.999999999999998 13.999999999999998 9.9999999999999982 10.999999999999998
leaf_count=15 12 12 15 10 10 12 14 15 13 14 16 13 11 10 11 11 11 12 11 14 10 11
internal_value=0 0.00488449 -0.0165491 -0.0298337 0.023903 0.00235602 0.0341495 0.0130625 -0.0230616 -0.0279526 0.0228647 -0.0219871 0.00778523 0.0120909 0.0457478 0.00636899 -0.00688448 -0.0135234 0.013467 -0.00211623 0.0130682 0.039506
internal_weight=0 268 126 74 142 52 73 69 62 49 37 35 54 42 36 31 40 22 21 29 21 25
internal_count=283 268 126 74 142 52 73 69 62 49 37 35 54 42 36 31 40 22 21 29 21 25
is_linear=0
shrinkage=0.05


Tree=2
num_leaves=23
num_cat=0
split_feature=9 1 6 1 1 1 0 5 6 9 2 5 5 6 2 3 6 7 7 2 3 0
split_gain=43.5488 39.4378 11.4237 5.69406 5.46651 5.34294 4.64006 3.52646 2.49734 1.763 1.65802 1.31373 1.74233 1.44661 1.1557 0.950834 0.888551 0.772248 0.64368 0.612451 0.573521 0.239753
threshold=3.5000000000000004 1989.5000000000002 1.7875000000000003 1999.5000000000002 1986.5000000000002 1986.5000000000002 13.500000000000002 78.875000000000014 1.9875000000000003 34.500000000000007 38.087500000000013 79.625000000000014 76.875000000000014 1.6125000000000003 35.037500000000001 23.712500000000002 2.0875000000000008 4.0625000000000009 4.0875000000000012 37.88750000000001 22.687500000000004 11.500000000000002
decision_type=2 2 2 2 2 2 2 2 2 2 2 2 2 2 2 2 2 2 2 2 2 2
left_child=-1 2 4 8 6 16 14 10 11 -8 18 12 19 -13 -2 -9 -4 -18 21 -3 -16 -5
right_child=1 3 5 7 -6 -7 9 15 -10 -11 -12 13 -14 -15 20 -17 17 -19 -20 -21 -22 -23
leaf_value=-0.082906156778335571 -0.025312213420581361 -0.0048421937972307197 0.0048430829619367927 0.042995989720026641 -0.059231813748677579 0.031499795247024551 -0.027340257242321961 0.025176263060420746 0.030457638502120972 -0.057030334472656256 0.055620821737326111 -0.016219557076692575 0.026905779128095938 0.010674762167036535 0.0023209838382899756 0.0052719667460769419 -0.0042276470048818729 -0.021007057287109398 0.023988446425646542 0.012657105457037687 -0.01247237516861213 0.033001135587692264
leaf_weight=14.999999999999998 12.999999999999998 10.000000000000002 11.999999999999998 15.000000000000002 11.999999999999998 11.999999999999998 10.000000000000002 15.000000000000002 14.999999999999998 9.9999999999999982 12.999999999999998 10.000000000000002 13.999999999999998 9.9999999999999982 10.000000000000002 9.9999999999999982 16.000000000000004 11.999999999999998 9.9999999999999982 9.9999999999999982 19 9.9999999999999982
leaf_count=15 13 10 12 15 12 12 10 15 15 10 13 10 14 10 10 10 16 12 10 10 19 10
internal_value=0 0.00464027 -0.0157216 0.0227079 -0.0283421 0.00223822 -0.0223634 0.0324421 0.0124094 -0.0421853 0.040373 0.00739596 0.0133774 -0.0027724 -0.0129244 0.0172145 -0.00654025 -0.0114188 0.0347096 0.00390746 -0.00737122 0.038998
internal_weight=0 268 126 142 74 52 62 73 69 20 48 54 34 20 42 25 40 28 35 20 29 25
internal_count=283 268 126 142 74 52 62 73 69 20 48 54 34 20 42 25 40 28 35 20 29 25
is_linear=0
shrinkage=0.05


Tree=3
num_leaves=22
num_cat=0
split_feature=9 1 9 7 2 1 5 6 5 9 6 6 2 5 5 2 3 2 2 1 4
split_gain=39.3028 35.5927 10.6286 7.02643 5.3826 5.13889 3.18263 3.01241 6.36542 2.98271 2.25385 1.92467 1.49636 1.18564 1.57246 1.38969 0.858128 0.611987 0.552737 0.212061 0.121331
threshold=3.5000000000000004 1989.5000000000002 19.500000000000004 3.8625000000000003 35.13750000000001 1999.5000000000002 78.875000000000014 1.9875000000000003 75.375000000000014 8.0000000000000018 1.9875000000000003 1.1875000000000002 38.087500000000013 79.625000000000014 76.875000000000014 35.287500000000001 23.712500000000002 36.412500000000001 37.88750000000001 2005.5000000000002 182.62500000000003
decision_type=2 2 2 2 2 2 2 2 2 2 2 2 2 2 2 2 2 2 2 2 2
left_child=-1 2 4 11 -2 10 12 9 -9 -6 13 -4 17 14 18 -15 -8 -7 -3 -19 -13
right_child=1 5 3 -5 7 6 16 8 -10 -11 -12 20 -14 15 -16 -17 -18 19 -20 -21 -22
leaf_value=-0.078760851224263517 -0.027284824946481323 -0.004600084386765956 -0.035441043265163896 -0.064647543315704048 -0.025036522918022594 0.022520241960883144 0.023917449725170927 -0.0019306336633033222 0.047823159843683245 0.0063937768288370644 0.028934757163127264 -0.015614667822691523 0.052839781343936923 0.010546159632503984 0.025560490022014295 -0.015813714582473042 0.0050083683338016279 0.041948700758318094 0.012024250160902739 0.032731311252483956 -0.0080049478914588686
leaf_weight=14.999999999999998 18 10.000000000000002 14.999999999999998 12.999999999999998 13.000000000000002 9.9999999999999982 15.000000000000002 18.000000000000004 9.9999999999999982 18 14.999999999999998 11.000000000000002 12.999999999999998 10.000000000000002 13.999999999999998 9.9999999999999982 9.9999999999999982 12.000000000000002 9.9999999999999982 12.999999999999998 9.9999999999999982
leaf_count=15 18 10 15 13 13 10 15 18 10 18 15 11 13 10 14 10 10 12 10 13 10
internal_value=0 0.00440826 -0.0149355 -0.0331397 -0.00335108 0.0215725 0.03082 0.00395074 0.0158386 -0.00678667 0.0117889 -0.0217618 0.0383544 0.00702617 0.0127085 -0.00263378 0.0163538 0.0329741 0.00371208 0.0371557 -0.011991
internal_weight=0 268 126 49 77 142 73 59 28 31 69 36 48 54 34 20 25 35 20 25 21
internal_count=283 268 126 49 77 142 73 59 28 31 69 36 48 54 34 20 25 35 20 25 21
is_linear=0
shrinkage=0.05


Tree=4
num_leaves=23
num_cat=0
split_feature=9 1 9 7 2 1 5 1 6 3 2 9 0 1 9 1 3 1 9 3 0 4
split_gain=35.4708 32.1224 9.59232 6.34135 4.8578 4.63785 2.87233 2.78651 2.0341 1.80728 1.35047 1.07855 1.42935 0.987534 0.926837 0.97691 0.774461 0.578135 0.567929 0.530387 0.278363 0.211195
threshold=3.5000000000000004 1989.5000000000002 19.500000000000004 3.8625000000000003 35.13750000000001 1999.5000000000002 78.875000000000014 1986.5000000000002 1.9875000000000003 22.637500000000003 38.087500000000013 6.5000000000000009 5.5000000000000009 1994.5000000000002 6.5000000000000009 1977.5000000000002 23.712500000000002 2002.5000000000002 36.000000000000007 22.512500000000003 6.5000000000000009 161.25000000000003
decision_type=2 2 2 2 2 2 2 2 2 2 2 2 2 2 2 2 2 2 2 2 2 2
left_child=-1 2 4 9 -2 8 10 14 11 18 17 -3 -13 -14 -6 -16 -8 -7 -4 -15 -17 -19
right_child=1 5 3 -5 7 6 16 -9 -10 -11 -12 12 13 19 15 20 -18 21 -20 -21 -22 -23
leaf_value=-0.074822808106740316 -0.025920583483659561 -0.0065450086724013097 -0.0070893600660686673 -0.061415166809008673 -0.013482600147835911 0.023455011688305865 0.022721577373643713 0.026451756432652476 0.027488019230465094 -0.037562815641815017 0.050197792855592872 0.025936546312137085 -0.0079748407794977515 0.0035393034785308609 -0.0066459627327276399 0.015828556492924684 0.0047579497098922735 0.041353190893476652 -0.022472378425300123 0.019449647963047031 0.004031040985137224 0.031313390284776692
leaf_weight=14.999999999999998 18 11.999999999999998 15.000000000000002 12.999999999999998 11.999999999999998 13.999999999999998 15.000000000000002 10.999999999999998 14.999999999999998 10.999999999999998 12.999999999999998 10.999999999999998 10.000000000000002 11.000000000000002 15.999999999999998 10.000000000000002 9.9999999999999982 11.000000000000002 9.9999999999999982 9.9999999999999982 9.9999999999999982 9.9999999999999982
leaf_count=15 18 12 15 13 12 14 15 11 15 11 13 11 10 11 16 10 10 11 10 10 10 10
internal_value=0 0.00418784 -0.0141888 -0.0314827 -0.00318353 0.0204938 0.029279 0.0037532 0.0111995 -0.0206738 0.0364367 0.00667486 0.010452 0.00495743 -0.00144855 0.00256279 0.0155361 0.0313254 -0.0132426 0.0111157 0.0099298 0.0365723
internal_weight=0 268 126 49 77 142 73 59 69 36 48 54 42 31 48 36 25 35 25 21 20 21
internal_count=283 268 126 49 77 142 73 59 69 36 48 54 42 31 48 36 25 35 25 21 20 21
is_linear=0
shrinkage=0.05


Tree=5
num_leaves=21
num_cat=0
split_feature=9 1 6 8 1 1 2 6 0 8 8 9 9 8 4 6 2 7 2 2
split_gain=32.0124 28.9904 8.83933 5.19187 4.35993 4.18566 2.62481 1.89447 2.89629 1.80162 1.60361 1.23528 1.01029 0.978072 0.901046 0.838422 0.704354 0.626814 0.625882 0.576813
threshold=3.5000000000000004 1989.5000000000002 1.7875000000000003 6.4500000000000002 1986.5000000000002 1999.5000000000002 37.38750000000001 1.4375000000000002 9.5000000000000018 7.3567857145000009 6.8375000000000012 19.500000000000004 19.500000000000004 6.5375000000000005 247.87500000000003 3.4250000000000003 36.112500000000004 4.0375000000000005 36.187500000000007 38.612500000000004
decision_type=2 2 2 2 2 2 2 2 2 2 2 2 2 2 2 2 2 2 2 2
left_child=-1 2 3 -2 15 7 11 12 17 10 14 13 -3 -7 -5 18 -12 -9 -4 -8
right_child=1 5 4 9 -6 6 19 8 -10 -11 16 -13 -14 -15 -16 -17 -18 -19 -20 -21
leaf_value=-0.071081667741139734 -0.054684575088322168 -0.013025359325110909 0.0082435855811292449 -0.0037675559520721422 0.028751985915005208 0.0022006820040670299 0.034130691178143019 0.032865415601169359 0.0015417735141358879 -0.00220675439788745 -0.024384128410990035 0.030318662073267135 0.0081136977120947387 0.021568510704673829 -0.022607875640193623 -0.01736470012163574 -0.041900429840792314 0.017089423947036268 -0.00689490338942657 0.049004193327643657
leaf_weight=14.999999999999998 11.999999999999998 10.000000000000002 11.000000000000002 11.000000000000002 11.999999999999998 11.000000000000002 16.000000000000004 17.000000000000004 19 12.999999999999998 12.000000000000002 19 12.999999999999998 15.999999999999998 14.999999999999998 10.999999999999998 10.999999999999998 9.9999999999999982 18 10.999999999999998
leaf_count=15 12 10 11 11 12 11 16 17 19 13 12 19 13 16 15 11 11 10 18 11
internal_value=0 0.00397845 -0.0134793 -0.0245808 0.00231891 0.0194692 0.027815 0.0106395 0.0164978 -0.0187542 -0.0231444 0.0205513 -0.0010772 0.0136779 -0.014637 -0.00561101 -0.0327615 0.0270225 -0.00115272 0.0401903
internal_weight=0 268 126 74 52 142 73 69 46 62 49 46 23 27 26 40 23 27 29 27
internal_count=283 268 126 74 52 142 73 69 46 62 49 46 23 27 26 40 23 27 29 27
is_linear=0
shrinkage=0.05


Tree=6
num_leaves=23
num_cat=0
split_feature=9 1 9 8 1 8 6 5 9 1 6 0 0 1 7 9 7 3 3 5 7 7
split_gain=28.8912 26.1639 8.34799 6.54508 3.77851 2.91663 4.64995 2.4765 2.06172 1.7504 1.73171 2.99145 2.67119 1.20779 1.10395 1.06984 1.06711 0.664107 0.547065 0.114112 0.0990923 0.0755241
threshold=3.5000000000000004 1989.5000000000002 19.500000000000004 6.6115740740000009 2000.5000000000002 6.7875000000000005 2.0375000000000001 78.875000000000014 6.5000000000000009 1976.5000000000002 1.4375000000000002 13.500000000000002 9.5000000000000018 1973.5000000000002 4.0875000000000012 36.000000000000007 4.0625000000000009 23.712500000000002 23.387500000000003 77.875000000000014 3.9125000000000001 3.8125000000000004
decision_type=2 2 2 2 2 2 2 2 2 2 2 2 2 2 2 2 2 2 2 2 2 2
left_child=-1 2 5 -4 10 6 -2 14 -7 -5 11 -3 16 -10 18 -11 19 -9 -6 -12 -14 -15
right_child=1 4 3 9 7 8 -8 17 13 15 12 -13 20 21 -16 -17 -18 -19 -20 -21 -22 -23
leaf_value=-0.067527585625648506 -0.0073115604347549368 -0.013951972300807634 -0.065026575177907942 -0.033840402912548077 0.032446535656021701 -0.023966190372319784 0.033862373357017833 0.022022529793903223 -0.015840927206657151 -0.0025901618812765388 0.028971408009529093 0.020376606668948874 0.0062056014624734708 0.0017520358023995698 0.019527463933918628 -0.023427300832488323 0.012743997089564802 0.0038002007361501462 0.045153238251805311 0.036524950265884398 -0.00053363370709121223 0.0077558342926204206
leaf_weight=14.999999999999998 16.000000000000004 15.000000000000002 9.9999999999999982 13.999999999999998 18 17 11.999999999999998 10.000000000000002 10.999999999999998 14.000000000000002 10.000000000000005 10.999999999999998 12.000000000000002 11.000000000000002 9.9999999999999982 10.999999999999998 9.9999999999999982 9.9999999999999982 15.999999999999998 9.9999999999999982 9.9999999999999982 9.9999999999999982
leaf_count=15 16 15 10 14 18 17 12 10 11 14 10 11 12 11 10 11 10 10 16 10 10 10
internal_value=0 0.00377953 -0.0128054 -0.0289387 0.0184957 -0.00253872 0.0103344 0.0274999 -0.00989479 -0.0196853 0.0111077 0.000571657 0.0163757 -0.00241936 0.034131 -0.0117585 0.0260801 0.0129114 0.0384262 0.0327482 0.00314231 0.00461099
internal_weight=0 268 126 49 142 77 28 64 49 39 78 26 52 32 44 25 30 20 34 20 22 21
internal_count=283 268 126 49 142 77 28 64 49 39 78 26 52 32 44 25 30 20 34 20 22 21
is_linear=0
shrinkage=0.05


Tree=7
num_leaves=21
num_cat=0
split_feature=9 1 9 7 2 1 4 2 9 1 6 9 5 5 9 0 2 1 6 3
split_gain=26.0743 23.6129 7.53406 4.97232 4.19138 3.45592 2.25573 2.19588 1.61684 1.58731 1.56092 1.16443 1.07897 1.16667 0.971589 0.803386 0.717316 0.52027 0.319302 0.255281
threshold=3.5000000000000004 1989.5000000000002 19.500000000000004 3.8625000000000003 35.13750000000001 1999.5000000000002 239.37500000000003 36.712500000000013 6.5000000000000009 1976.5000000000002 2.1125000000000003 19.500000000000004 79.875000000000014 74.875000000000014 36.000000000000007 15.500000000000002 38.612500000000004 1981.5000000000002 1.6125000000000003 23.462500000000002
decision_type=2 2 2 2 2 2 2 2 2 2 2 2 2 2 2 2 2 2 2 2
left_child=-1 2 4 9 -2 10 8 11 -6 -4 12 18 13 -3 -11 -15 19 -10 -7 -9
right_child=1 5 3 -5 6 7 -8 16 17 14 -12 -13 -14 15 -16 -17 -18 -19 -20 -21
leaf_value=-0.064151204029719036 -0.023531729231278102 -0.0010490127107394595 -0.034849570691585542 -0.053996923995705749 -0.018843708542937584 0.0023918221518397322 0.018786718220346506 0.024785667657852169 -0.0030183838680386539 -0.0024606537073850626 0.026816235618157821 0.026762436190620065 -0.0043180818532538769 0.023888769588666033 -0.021849117800593378 0.0063355163755741996 0.044586077197031546 0.010150640557209651 0.014736626083454628 0.034964292225512589
leaf_weight=14.999999999999998 18 13.999999999999998 9.9999999999999982 12.999999999999998 10.999999999999998 10.000000000000002 18 14.000000000000002 15.000000000000002 14.000000000000002 10.999999999999998 15.999999999999998 17 16.000000000000004 11.999999999999998 10.999999999999998 10.999999999999998 14.999999999999998 10.999999999999998 10.999999999999998
leaf_count=15 18 14 10 13 11 10 18 14 15 14 11 16 17 16 12 11 11 15 11 11
internal_value=0 0.00359055 -0.0121651 -0.0274917 -0.00241178 0.0175709 0.00403159 0.0251544 -0.00244627 -0.0179204 0.00954777 0.0166005 0.00627271 0.010664 -0.0114092 0.0167374 0.0339459 0.00356613 0.00885815 0.0292643
internal_weight=0 268 126 49 77 142 59 73 41 36 69 37 58 41 26 27 36 30 21 25
internal_count=283 268 126 49 77 142 59 73 41 36 69 37 58 41 26 27 36 30 21 25
is_linear=0
shrinkage=0.05


Tree=8
num_leaves=22
num_cat=0
split_feature=9 1 4 4 7 8 1 5 6 4 6 0 1 4 7 7 8 9 7 7 7
split_gain=23.532 21.3106 7.00526 4.1474 4.66605 3.53202 3.11897 2.00548 1.58367 1.732 1.44237 2.27041 1.05376 0.929385 0.826272 0.732104 0.722479 0.645281 0.560876 0.291488 0.135893
threshold=3.5000000000000004 1989.5000000000002 279.00000000000006 192.75000000000003 4.0875000000000012 6.5038793105000012 1999.5000000000002 78.875000000000014 1.3125000000000002 163.87500000000003 1.4375000000000002 9.5000000000000018 1985.5000000000002 133.25000000000003 4.0375000000000005 4.3125000000000009 7.178017241500001 9.5000000000000018 4.0125000000000011 4.0875000000000012 3.7625000000000006
decision_type=2 2 2 2 2 2 2 2 2 2 2 2 2 2 2 2 2 2 2 2 2
left_child=-1 2 3 8 -5 -4 10 13 9 -2 14 17 16 -8 -3 -9 -10 -12 -7 20 -15
right_child=1 6 5 4 -6 18 7 15 12 -11 11 -13 -14 19 -16 -17 -18 -19 -20 -21 -22
leaf_value=-0.060943644841512046 -0.038473056703805908 -0.010226556456958252 -0.056652738321572527 -0.0085936596617102613 0.030223165595283114 -0.011978757400065657 0.038859589315123032 0.0035076736705377692 -0.019835465494543309 -0.0090451668133027848 0.017091325763612983 0.00094026913161781667 0.0045365994463541677 0.023851966578513368 0.0087452356322583833 0.020633993197519046 -0.0043168883522351582 0.032822815261103887 -0.028340015458789742 0.017518413551151753 0.032094940058887009
leaf_weight=14.999999999999998 10.000000000000002 12.000000000000002 10.000000000000002 16.000000000000004 14.999999999999998 10.000000000000002 18 12.000000000000002 15.000000000000002 9.9999999999999982 16.000000000000004 19 13.999999999999998 10.000000000000005 10.999999999999998 12.999999999999998 14.999999999999998 10.999999999999998 10.999999999999998 9.9999999999999982 9.9999999999999982
leaf_count=15 10 12 10 16 15 10 18 12 15 10 16 19 14 10 11 13 15 11 11 10 10
internal_value=0 0.00341102 -0.0115568 -0.00482217 0.0101887 -0.0321953 0.0166924 0.0238967 -0.012093 -0.0237591 0.00907038 0.0141821 -0.00679029 0.0298776 -0.00115309 0.0124134 -0.0120762 0.0235005 -0.0205489 0.0244884 0.0279735
internal_weight=0 268 126 95 31 31 142 73 64 20 69 46 44 48 23 25 30 27 21 30 20
internal_count=283 268 126 95 31 31 142 73 64 20 69 46 44 48 23 25 30 27 21 30 20
is_linear=0
shrinkage=0.05


Tree=9
num_leaves=20
num_cat=0
split_feature=9 1 0 9 1 2 7 5 1 6 4 2 9 0 6 3 0 6 7
split_gain=21.2377 19.2329 6.33992 6.09566 2.86222 2.86214 2.88911 2.07933 1.82301 1.23561 1.16002 0.804355 0.771692 0.60896 0.904288 0.582244 0.559362 0.154455 0.132755
threshold=3.5000000000000004 1989.5000000000002 3.5000000000000004 19.500000000000004 2001.5000000000002 35.212500000000013 4.0875000000000012 78.875000000000014 1977.5000000000002 2.1125000000000003 133.25000000000003 37.38750000000001 36.000000000000007 15.500000000000002 1.4375000000000002 23.712500000000002 8.5000000000000018 1.9875000000000003 3.8625000000000003
decision_type=2 2 2 2 2 2 2 2 2 2 2 2 2 2 2 2 2 2 2
left_child=-1 2 -2 5 9 -4 16 11 -5 10 -3 -6 -10 14 -12 -9 -7 -13 -16
right_child=1 4 3 8 7 6 -8 15 12 -11 13 17 -14 -15 18 -17 -18 -19 -20
leaf_value=-0.05789646406968435 -0.042701804664518152 -0.0062335262934748942 -0.01537570082065132 -0.036244432994474968 0.023284040646333444 0.0046724057413245505 0.023317092709782484 0.019524091649800533 -0.0057414908579980512 0.024609411880373955 0.0057837385096048063 0.041570877757939412 -0.022969513271863647 0.0023907731122830337 0.016668788008391854 0.0024617929290980103 -0.008243756445590408 0.032985015660524371 0.024628693969465199
leaf_weight=14.999999999999998 13.999999999999998 12.999999999999998 18 14.999999999999998 19 19 19 10.000000000000002 13.000000000000002 11.999999999999998 19 11.000000000000002 12.999999999999998 17 10.000000000000002 9.9999999999999982 14.999999999999998 9.9999999999999982 10.999999999999998
leaf_count=15 14 13 18 15 19 19 19 10 13 12 19 11 13 17 10 10 15 10 11
internal_value=0 0.00324047 -0.010979 -0.00701364 0.0158577 0.00185044 0.00770083 0.0241564 -0.0223636 0.00978555 0.00724431 0.0307382 -0.0143555 0.0103182 0.0136874 0.0109929 -0.0010259 0.0374824 0.0208383
internal_weight=0 268 126 112 142 71 53 60 41 82 70 40 26 57 40 20 34 21 21
internal_count=283 268 126 112 142 71 53 60 41 82 70 40 26 57 40 20 34 21 21
is_linear=0
shrinkage=0.05


Tree=10
num_leaves=22
num_cat=0
split_feature=9 1 4 4 2 8 1 2 6 9 6 4 4 1 8 4 8 0 0 1 7
split_gain=19.167 17.368 6.55376 3.95776 4.94223 2.40889 2.30766 1.78401 1.4384 1.4022 1.30265 1.53852 1.0856 0.94544 0.920458 0.69421 0.644149 0.527629 0.867582 0.527615 0.522849
threshold=3.5000000000000004 1990.5000000000002 279.00000000000006 192.75000000000003 36.050000000000004 6.5038793105000012 2001.5000000000002 37.38750000000001 2.1125000000000003 19.500000000000004 1.3125000000000002 163.87500000000003 133.25000000000003 1985.5000000000002 6.8375000000000012 243.12500000000003 7.178017241500001 15.500000000000002 7.5000000000000009 2008.5000000000002 4.0125000000000011
decision_type=2 2 2 2 2 2 2 2 2 2 2 2 2 2 2 2 2 2 2 2 2
left_child=-1 2 3 10 15 -4 8 9 12 14 11 -2 -3 16 -8 -5 -12 18 -14 -9 -7
right_child=1 6 5 4 -6 20 7 19 -10 -11 13 -13 17 -15 -16 -17 -18 -19 -20 -21 -22
leaf_value=-0.055001639922459926 -0.035250399932265274 -0.0059218496514054451 -0.047009075039143984 0.0056110111149874587 0.036121329649661978 -0.010652062646113333 0.00071160084335133425 0.040525791023929524 0.026552411338145083 0.029376369714736939 -0.018326294422149652 -0.0075148819712921979 0.0062480634274451365 0.0047361016539590704 0.020573168406262995 -0.011778705442945164 -0.0036730886623263363 0.0026776746672112495 0.021796089147820191 0.025249396488070487 -0.026448951784352012
leaf_weight=14.999999999999998 10.000000000000002 12.999999999999998 11.999999999999998 11.000000000000002 11.999999999999998 10.000000000000002 14.000000000000002 13.000000000000002 10.999999999999998 12.999999999999998 15.000000000000002 9.9999999999999982 19 13.999999999999998 9.9999999999999982 11.999999999999998 14.999999999999998 15.999999999999998 17 9.9999999999999982 10.999999999999998
leaf_count=15 10 13 12 11 12 10 14 13 11 13 15 10 19 14 10 12 15 16 17 10 11
internal_value=0 0.00307845 -0.00984147 -0.00340915 0.0101095 -0.0291384 0.0156184 0.0229486 0.00983134 0.016151 -0.0108022 -0.0213826 0.00700162 -0.00599285 0.00898725 -0.00346188 -0.0109997 0.0102325 0.0135902 0.0338839 -0.0189266
internal_weight=0 268 132 99 35 33 136 60 76 37 64 20 65 44 24 23 30 52 36 23 21
internal_count=283 268 132 99 35 33 136 60 76 37 64 20 65 44 24 23 30 52 36 23 21
is_linear=0
shrinkage=0.05


Tree=11
num_leaves=23
num_cat=0
split_feature=1 8 8 0 3 0 3 5 1 0 7 7 7 5 7 4 0 4 2 3 7 6
split_gain=16.7944 8.5106 8.1194 6.22869 4.89728 4.47422 5.1999 3.4788 2.42128 1.54119 1.14372 1.00866 1.48268 1.26839 0.954099 0.782401 0.857726 0.645963 0.40421 0.374274 0.205487 0.158722
threshold=1989.5000000000002 5.9875000000000007 6.0228448275000011 3.5000000000000004 23.562500000000004 10.500000000000002 23.387500000000003 77.125000000000014 2004.5000000000002 6.5000000000000009 3.6875000000000004 3.6875000000000004 3.4375000000000004 77.125000000000014 4.3625000000000007 279.00000000000006 15.500000000000002 192.75000000000003 37.162500000000001 22.412500000000005 3.7875000000000001 1.4625000000000001
decision_type=2 2 2 2 2 2 2 2 2 2 2 2 2 2 2 2 2 2 2 2 2 2
left_child=2 4 -1 -4 -2 7 15 17 11 -10 -11 12 -3 20 19 16 -7 18 -5 -15 -13 -21
right_child=1 8 3 5 -6 6 -8 -9 9 10 -12 13 -14 14 -16 -17 -18 -19 -20 21 -22 -23
leaf_value=-0.048953050587858475 0.0050956956421335528 0.015517744320360093 -0.040025485333587442 -0.013553886740867577 -0.037758458095292255 -0.0094291128093997624 -0.047594810649752621 0.024120504726820133 0.015733860117325093 0.023640150465071195 0.046535692239801092 0.010122287363364273 -0.011083839319180697 0.017070238790474826 0.0084270683932118114 -0.01631164050117756 0.0094755404628813281 0.0054445743427744935 -0.00039208401460200549 0.033381952019408336 0.0002190789021551609 0.024678286368196661
leaf_weight=13.999999999999998 15.000000000000002 11.000000000000002 13.999999999999998 14.000000000000002 11.999999999999998 15.000000000000002 9.9999999999999982 17 15.999999999999998 10.000000000000002 11.999999999999998 11.000000000000002 9.9999999999999982 10.000000000000002 11.999999999999998 14.999999999999998 9.9999999999999982 13.999999999999998 9.9999999999999982 10.000000000000002 9.9999999999999982 10.999999999999998
leaf_count=14 15 11 14 14 12 15 10 17 16 10 12 11 10 10 12 15 10 14 10 10 10 11
internal_value=0 0.0114694 -0.0129354 -0.00869801 -0.0139506 -0.00452102 -0.0153461 0.00531995 0.0170494 0.0275414 0.0361286 0.0123588 0.00285032 0.0154788 0.0203979 -0.0072839 -0.00186725 -0.00309082 -0.0080698 0.0250317 0.00540647 0.0288229
internal_weight=0 150 133 119 27 105 50 55 123 38 22 85 21 64 43 40 25 38 24 31 21 21
internal_count=283 150 133 119 27 105 50 55 123 38 22 85 21 64 43 40 25 38 24 31 21 21
is_linear=0
shrinkage=0.05


Tree=12
num_leaves=23
num_cat=0
split_feature=9 1 4 4 2 9 5 9 5 3 5 4 7 7 1 5 9 9 5 1 8 7
split_gain=16.0863 14.2641 4.825 2.74889 3.50615 2.7289 2.30416 2.65364 1.85852 1.79138 1.35694 1.31486 1.04817 0.740454 0.678621 0.957741 0.594228 1.15834 0.397765 0.293146 0.20937 0.202967
threshold=3.5000000000000004 1994.5000000000002 279.00000000000006 192.75000000000003 36.212500000000013 12.000000000000002 78.875000000000014 8.0000000000000018 76.875000000000014 22.212500000000002 67.000000000000014 218.25000000000003 4.0625000000000009 4.0875000000000012 1973.5000000000002 71.625000000000014 8.0000000000000018 19.500000000000004 80.375000000000014 2004.5000000000002 7.207916666500001 3.7625000000000006
decision_type=2 2 2 2 2 2 2 2 2 2 2 2 2 2 2 2 2 2 2 2 2 2
left_child=-1 2 3 10 11 -4 9 -8 -7 -3 -2 -5 14 -13 -12 -16 -11 19 -9 -18 -17 -19
right_child=1 6 5 4 -6 8 7 18 -10 16 12 13 -14 -15 15 20 17 21 -20 -21 -22 -23
leaf_value=-0.050387936433156338 -0.025143976137042046 0.0018327840324491263 -0.0076767942984588451 0.013710459609600632 0.032191398705948483 -0.020138770248740903 -0.014313334611307999 0.0087105315976909216 -0.050622559888288378 0.033693408380661698 -0.013393700664693659 -0.017509864792227738 -0.018703237703690926 0.00091226371781279658 -0.010120716557971069 0.0026734380277856767 0.0094477173074015534 0.025567755761245883 0.020629371867315578 0.020656380578875543 0.011696825779508799 0.034509596270932391
leaf_weight=14.999999999999998 9.9999999999999982 9.9999999999999982 15.999999999999998 10.999999999999998 10.999999999999998 10.000000000000002 10.999999999999998 14.000000000000002 9.9999999999999982 13.999999999999998 10.999999999999998 10.000000000000002 11.999999999999998 11.999999999999998 13.999999999999998 18.000000000000004 14.000000000000002 15.000000000000002 13.999999999999998 9.9999999999999982 9.9999999999999982 10.999999999999998
leaf_count=15 10 10 16 11 11 10 11 14 10 14 11 10 12 12 14 18 14 15 14 10 10 11
internal_value=0 0.00282022 -0.00702892 -0.00217681 0.00774475 -0.0230678 0.0163301 0.00649518 -0.0353807 0.0215134 -0.00799746 -0.000404134 -0.00535953 -0.00746143 -0.00233831 0.000557145 0.0245885 0.0220391 0.01467 0.014118 0.00589608 0.0293508
internal_weight=0 268 155 119 44 36 113 39 20 74 75 33 65 22 53 42 64 50 28 24 28 26
internal_count=283 268 155 119 44 36 113 39 20 74 75 33 65 22 53 42 64 50 28 24 28 26
is_linear=0
shrinkage=0.05


Tree=13
num_leaves=22
num_cat=0
split_feature=9 1 0 0 3 5 9 1 2 8 5 7 0 3 1 8 7 1 5 5 0
split_gain=14.5179 12.9896 5.08861 4.66567 2.65395 2.38177 2.31974 2.04939 1.48462 1.11366 1.02214 1.01725 0.711924 0.622559 0.582509 0.559038 0.537864 0.480276 0.401923 0.529878 0.23225
threshold=3.5000000000000004 1989.5000000000002 3.5000000000000004 10.500000000000002 23.262500000000003 77.125000000000014 34.500000000000007 2000.5000000000002 36.13750000000001 6.0228448275000011 74.875000000000014 3.6875000000000004 15.500000000000002 24.175000000000001 1973.5000000000002 6.9375000000000009 3.8125000000000004 2004.5000000000002 73.375000000000014 75.625000000000014 7.5000000000000009
decision_type=2 2 2 2 2 2 2 2 2 2 2 2 2 2 2 2 2 2 2 2 2
left_child=-1 2 -2 5 6 14 12 9 17 -3 -11 -12 -5 18 -4 20 -16 -9 -10 -20 -13
right_child=1 7 3 4 -6 -7 -8 8 13 10 11 15 -14 -15 16 -17 -18 -19 19 -21 -22
leaf_value=-0.047868537902832034 -0.037426961931799139 -0.0064040878457793347 -0.012854924676939845 -0.0093332151049061816 -0.03928162464872003 0.019497106902094354 -0.02847455923373883 0.0017699118491939518 0.037225735187530508 -0.0013185624778270723 0.00079897914547473199 0.0091405334682869033 0.0062228627658138672 0.015566019023147724 -0.0056153667439745418 0.026997218111699278 0.0077744784268240141 0.016545142741365867 0.016810413617640727 0.033087353780865671 0.018248032595563148
leaf_weight=14.999999999999998 13.999999999999998 11.999999999999998 9.9999999999999982 19.000000000000004 9.9999999999999982 18 12.999999999999998 11.000000000000002 10.000000000000002 14.999999999999998 11.999999999999998 14.000000000000002 11.999999999999998 11.999999999999998 15.000000000000002 10.999999999999998 14.999999999999998 10.999999999999998 10.000000000000002 9.9999999999999982 13.999999999999998
leaf_count=15 14 12 10 19 10 18 13 11 10 15 12 14 12 12 15 11 15 11 10 10 14
internal_value=0 0.00267921 -0.00900662 -0.00545408 -0.0160304 0.00439285 -0.010746 0.0130483 0.0196796 0.0076073 0.0101548 0.0135294 -0.00331151 0.0251911 -0.00240406 0.0174464 0.00107956 0.00915753 0.0290412 0.0249489 0.0136943
internal_weight=0 268 126 112 54 58 44 142 64 78 66 51 31 42 40 39 30 22 30 20 28
internal_count=283 268 126 112 54 58 44 142 64 78 66 51 31 42 40 39 30 22 30 20 28
is_linear=0
shrinkage=0.05


Tree=14
num_leaves=22
num_cat=0
split_feature=9 1 4 1 5 1 2 9 6 0 0 0 9 1 7 8 1 6 1 2 7
split_gain=13.1024 11.7231 4.77659 3.33244 3.19277 1.84957 1.3559 1.13971 1.12531 2.32811 1.67467 1.09763 0.979613 1.09196 0.82589 0.569364 0.375181 0.258357 0.120921 0.0874498 0.0791255
threshold=3.5000000000000004 1989.5000000000002 279.00000000000006 1987.5000000000002 78.125000000000014 2000.5000000000002 37.38750000000001 19.500000000000004 1.4375000000000002 13.500000000000002 9.5000000000000018 13.500000000000002 6.5000000000000009 1979.5000000000002 4.0625000000000009 6.8375000000000012 2008.5000000000002 1.7875000000000003 1984.5000000000002 36.487500000000004 3.9125000000000001
decision_type=2 2 2 2 2 2 2 2 2 2 2 2 2 2 2 2 2 2 2 2 2
left_child=-1 2 3 11 -4 8 7 15 9 -3 14 12 -2 17 19 -7 -8 -14 -15 -10 -12
right_child=1 5 4 -5 -6 6 16 -9 10 -11 20 -13 13 18 -16 -17 -18 -19 -20 -21 -22
leaf_value=-0.045475112199783327 -0.013346509325007597 -0.014078847517569857 -0.0119617887151738 0.022882962237450889 -0.044479998630973017 -0.00016769185553390081 0.033374564748789574 0.023954187929630281 0.028329904824495294 0.016205355103804983 0.0037327985744923342 -0.017328439176910456 -0.01178577793538212 0.0047225684237976861 0.007425119951367379 0.015033392845229669 0.020694185718894004 -0.0016118693631142378 0.011980250071395528 0.021717425137758258 -0.002289316924288869
leaf_weight=14.999999999999998 18 15.000000000000002 18.000000000000004 10.999999999999998 12.999999999999998 14.000000000000002 14.000000000000002 14.999999999999998 10.000000000000005 10.999999999999998 12.000000000000002 18 13.000000000000002 12.000000000000002 9.9999999999999982 10.999999999999998 9.9999999999999982 11.999999999999998 10.999999999999998 9.9999999999999982 9.9999999999999982
leaf_count=15 18 15 18 11 13 14 14 15 10 11 12 18 13 12 10 11 10 12 11 10 10
internal_value=0 0.00254525 -0.00855629 -0.00299516 -0.0255985 0.0123959 0.0186956 0.0130583 0.00722694 -0.0012663 0.0114736 -0.00638396 -0.00339911 0.000331167 0.0191575 0.00652079 0.0280911 -0.0069023 0.00819363 0.0250237 0.000995473
internal_weight=0 268 126 95 31 142 64 40 78 26 52 84 66 48 30 25 24 25 23 20 22
internal_count=283 268 126 95 31 142 64 40 78 26 52 84 66 48 30 25 24 25 23 20 22
is_linear=0
shrinkage=0.05


Tree=15
num_leaves=22
num_cat=0
split_feature=9 1 9 8 2 8 1 1 2 6 8 7 5 5 3 1 1 6 2 1 6
split_gain=11.8249 10.5801 4.38405 4.07492 2.50892 4.80358 1.66924 1.41122 1.27148 1.01559 1.08456 1.04908 0.973651 0.784267 0.768368 0.518011 0.419879 0.278774 0.427962 0.196849 0.104782
threshold=3.5000000000000004 1989.5000000000002 19.500000000000004 6.624074074000001 35.13750000000001 6.7875000000000005 2000.5000000000002 1976.5000000000002 35.38750000000001 1.4375000000000002 6.5375000000000005 4.0375000000000005 78.875000000000014 79.375000000000014 23.312500000000004 1995.5000000000002 1973.5000000000002 1.1875000000000002 37.462500000000013 1983.5000000000002 1.8875000000000002
decision_type=2 2 2 2 2 2 2 2 2 2 2 2 2 2 2 2 2 2 2 2 2
left_child=-1 2 4 -4 -2 -6 9 -5 -8 11 -11 -3 17 16 15 -12 -7 -10 -19 -9 -18
right_child=1 6 3 7 5 13 8 19 12 10 14 -13 -14 -15 -16 -17 20 18 -20 -21 -22
leaf_value=-0.043201357026894892 -0.017028656128483515 -0.010501531484935963 -0.042618218969021529 -0.022997103046093668 0.02672140911659774 -0.0091425580508075616 0.0030902959561596318 0.0025741669535636895 0.031498925997452305 -0.0016071842911724863 0.0027634929435757481 0.00964531891901667 0.0079374559828548543 -0.016249915957450869 0.023946229095260303 0.01750620190392841 0.0070097994292154884 0.014879575752032297 0.027069646854781443 -0.0071186519481919027 -6.1951349066062409e-05
leaf_weight=14.999999999999998 18 14.000000000000002 13.999999999999998 13.999999999999998 17 10.000000000000002 11.999999999999998 10.000000000000002 10.999999999999998 12.999999999999998 13.000000000000002 11.999999999999998 10.999999999999998 10.999999999999998 14.999999999999998 10.999999999999998 10.000000000000002 12.000000000000002 18 10.999999999999998 10.999999999999998
leaf_count=15 18 14 14 14 17 10 12 10 11 13 13 12 11 11 15 11 10 12 18 11 11
internal_value=0 0.00241799 -0.00812848 -0.01982 -0.000688441 0.00429671 0.0117761 -0.0107007 0.0177608 0.00686559 0.0108999 -0.00120299 0.0211463 -0.00477996 0.0150689 0.00952057 -0.000709969 0.0246902 0.0221936 -0.00250302 0.00330555
internal_weight=0 268 126 49 77 59 142 35 64 78 52 26 52 42 39 24 31 41 30 21 21
internal_count=283 268 126 49 77 59 142 35 64 78 52 26 52 42 39 24 31 41 30 21 21
is_linear=0
shrinkage=0.05


Tree=16
num_leaves=23
num_cat=0
split_feature=9 1 6 8 9 6 7 1 6 7 6 3 9 1 6 3 8 3 1 5 9 6
split_gain=10.672 9.56214 4.77439 2.73012 3.47605 2.09936 1.73559 1.67503 1.64443 1.31279 1.39388 0.980712 1.57532 0.609132 0.547032 0.460811 0.351432 0.525279 0.600224 0.342902 0.191496 0.1806
threshold=3.5000000000000004 1994.5000000000002 1.7875000000000003 6.7625000000000011 16.500000000000004 1.7125000000000001 4.1125000000000007 1999.5000000000002 1.5625000000000002 3.6625000000000001 1.4375000000000002 23.512500000000003 34.500000000000007 1977.5000000000002 3.4250000000000003 21.737500000000004 7.3567857145000009 23.512500000000003 2002.5000000000002 76.375000000000014 9.5000000000000018 2.3625000000000003
decision_type=2 2 2 2 2 2 2 2 2 2 2 2 2 2 2 2 2 2 2 2 2 2
left_child=-1 2 5 4 -4 8 9 -8 11 10 -3 12 13 -2 19 -14 17 18 -11 21 -9 -5
right_child=1 6 3 14 -6 -7 7 20 -10 16 -12 -13 15 -15 -16 -17 -18 -19 -20 -21 -22 -23
leaf_value=-0.041041289170583091 -0.011134332751056976 -0.0027798993835368973 0.040607209568843235 -0.0068668464413629117 -0.0010824272315949203 -0.033856480094519532 -0.013003404354676604 0.0054615639057010393 0.0065007780135298773 0.018366133620341615 0.018969491452855224 -0.025927860305931135 -0.028209356900135214 0.0029494050082147999 -0.012052478751336988 -0.013379233106970787 0.031281015276908873 0.011580441697415981 0.034180470705032349 0.0071785350258533782 0.014181372315129816 0.0020707662031054499
leaf_weight=14.999999999999998 14.000000000000002 13.000000000000002 10.000000000000002 13.000000000000002 9.9999999999999982 10.999999999999998 9.9999999999999982 10.000000000000002 11.999999999999998 15.000000000000002 17 12.999999999999998 11.000000000000002 17 10.999999999999998 9.9999999999999982 9.9999999999999982 10.999999999999998 9.9999999999999982 12.999999999999998 17 9.9999999999999982
leaf_count=15 14 13 10 13 10 11 10 10 12 15 17 13 11 17 11 10 10 11 10 13 17 10
internal_value=0 0.00229709 -0.00576697 0.00429 0.0197624 -0.013424 0.0133584 0.00447743 -0.0105051 0.017682 0.00954476 -0.0136446 -0.0105738 -0.00341099 -0.00229399 -0.0211474 0.022989 0.0206856 0.0246919 0.000687767 0.0109518 -0.00298093
internal_weight=0 268 155 67 20 88 113 37 77 76 30 65 52 31 47 21 46 36 25 36 27 23
internal_count=283 268 155 67 20 88 113 37 77 76 30 65 52 31 47 21 46 36 25 36 27 23
is_linear=0
shrinkage=0.05


Tree=17
num_leaves=23
num_cat=0
split_feature=1 8 5 8 3 3 1 0 8 7 3 7 7 4 2 2 7 5 4 5 8 1
split_gain=9.5631 5.30407 6.51455 5.28111 3.05079 2.46903 1.64655 1.30312 1.14294 1.09382 1.05813 0.773341 1.26245 1.02913 0.749857 0.616144 1.05538 0.543086 0.360385 0.347975 0.284733 0.241184
threshold=1989.5000000000002 6.4500000000000002 76.875000000000014 5.9875000000000007 23.562500000000004 23.937500000000004 2004.5000000000002 6.5000000000000009 7.3567857145000009 3.6875000000000004 23.512500000000003 3.6875000000000004 3.4375000000000004 247.87500000000003 35.38750000000001 35.437500000000007 3.5375000000000001 74.875000000000014 160.25000000000003 73.625000000000014 6.8970000000000011 1979.5000000000002
decision_type=2 2 2 2 2 2 2 2 2 2 2 2 2 2 2 2 2 2 2 2 2 2
left_child=1 2 -1 4 -2 8 11 -8 10 -9 15 12 -5 14 -13 16 -3 -16 -17 -20 -19 -10
right_child=3 5 -4 6 -6 -7 7 9 21 -11 -12 13 -14 -15 17 18 -18 20 19 -21 -22 -23
leaf_value=-0.0061201146454550309 0.0036632416117936364 -0.0036045556111882122 -0.059390902603891765 0.012545381156219674 -0.030160502926446498 0.017277611927552658 0.010845171910477803 0.017385703250765796 -0.0029582976549863806 0.039776189128557848 -0.022931186535528728 -0.0022167423274368049 -0.012001158632338048 0.024472507712646172 0.0026626185344701464 0.0032936198016007747 -0.024574603171398243 0.011718536301187292 -0.013050307519733904 -0.0018738057122876248 0.022042515916241845 0.0077706539495424791
leaf_weight=12.000000000000002 15.000000000000002 12.000000000000002 10.999999999999998 11.000000000000002 11.999999999999998 10.999999999999998 15.999999999999998 10.000000000000002 10.000000000000002 11.999999999999998 13.999999999999998 11.999999999999998 9.9999999999999982 12.999999999999998 10.999999999999998 11.999999999999998 11.999999999999998 17.000000000000004 13.000000000000002 14.999999999999998 10.999999999999998 10.999999999999998
leaf_count=12 15 12 11 11 12 11 16 10 10 12 14 12 10 13 11 12 12 17 13 15 11 11
internal_value=0 -0.00976103 -0.0315974 0.00865478 -0.0113695 -0.00519524 0.0130504 0.0217025 -0.00769222 0.0295987 -0.0104798 0.00918236 0.000856553 0.0119143 0.00871315 -0.00775606 -0.0140896 0.0120762 -0.00395594 -0.0070629 0.0157744 0.00266163
internal_weight=0 133 23 150 27 110 123 38 99 22 78 85 21 64 51 64 24 39 40 28 28 21
internal_count=283 133 23 150 27 110 123 38 99 22 78 85 21 64 51 64 24 39 40 28 28 21
is_linear=0
shrinkage=0.05


Tree=18
num_leaves=22
num_cat=0
split_feature=9 1 6 7 2 5 9 9 3 9 1 1 1 5 6 9 9 7 5 1 8
split_gain=8.85633 7.89314 4.19508 2.56934 1.89709 1.57452 2.16875 1.38784 1.33413 1.08417 1.20763 1.19402 1.00646 0.897549 0.600155 0.420352 0.986684 0.324109 0.320268 0.187733 0.116929
threshold=3.5000000000000004 1994.5000000000002 1.7875000000000003 4.4375000000000009 37.07500000000001 78.875000000000014 8.0000000000000018 34.500000000000007 22.262500000000003 8.0000000000000018 1982.5000000000002 1977.5000000000002 1984.5000000000002 76.125000000000014 1.2125000000000001 19.500000000000004 8.0000000000000018 4.1375000000000011 80.375000000000014 2004.5000000000002 6.6875000000000009
decision_type=2 2 2 2 2 2 2 2 2 2 2 2 2 2 2 2 2 2 2 2 2
left_child=-1 2 4 12 7 8 -7 9 -3 10 -2 -11 17 -14 -9 16 -10 -4 -8 -18 -17
right_child=1 5 3 -5 -6 6 18 14 15 11 -12 -13 13 -15 -16 20 19 -19 -20 -21 -22
leaf_value=-0.037387417356173201 0.00018041728064417835 0.0011668567390491567 -0.0026600772204498444 0.027569684686604892 -0.02798468087858055 -0.014799201217564671 0.0060551463027617748 -0.026954662737747027 0.026657666372401374 -0.0089107644457656586 -0.023346118768677118 0.011792458638859292 -0.0024846252453114299 0.015118448964009682 -0.010369395585730672 0.020431605949997895 0.006217767564313751 -0.01388693504035473 0.016750067469131734 0.015187553503492383 0.027510612883738114
leaf_weight=14.999999999999998 10.000000000000002 11.999999999999998 18.000000000000004 9.9999999999999982 15.999999999999998 10.999999999999998 14.000000000000002 12.000000000000002 13.999999999999998 13.000000000000002 11.999999999999998 14.999999999999998 14.000000000000002 14.999999999999998 9.9999999999999982 10.000000000000002 14.000000000000002 9.9999999999999982 13.999999999999998 9.9999999999999982 13.999999999999998
leaf_count=15 10 12 18 10 16 11 14 12 14 13 12 15 14 15 10 10 14 10 14 10 14
internal_value=0 0.00209258 -0.00523399 0.00419311 -0.0124114 0.0121423 0.00401235 -0.00895073 0.016427 -0.00434605 -0.0126522 0.00218025 9.19516e-05 0.00662041 -0.0194159 0.0193806 0.0161087 -0.00666967 0.0114026 0.00995518 0.024561
internal_weight=0 268 155 67 88 113 39 72 74 50 22 28 57 29 22 62 38 28 28 24 24
internal_count=283 268 155 67 88 113 39 72 74 50 22 28 57 29 22 62 38 28 28 24 24
is_linear=0
shrinkage=0.05


Tree=19
num_leaves=23
num_cat=0
split_feature=9 4 0 5 2 4 4 0 6 4 7 0 2 3 2 5 6 8 4 3 8 6
split_gain=7.99284 4.86043 4.75193 3.03983 3.49687 5.73594 2.98904 2.38788 1.48419 1.32095 0.895059 0.886968 0.632848 0.604512 0.64953 0.471423 0.452526 0.337928 0.343904 0.311304 0.306344 0.268972
threshold=3.5000000000000004 270.37500000000006 1.5000000000000002 71.625000000000014 35.38750000000001 243.12500000000003 288.62500000000006 9.5000000000000018 1.2125000000000001 127.62500000000001 3.8875000000000006 4.5000000000000009 35.26250000000001 22.262500000000003 37.812500000000007 79.125000000000014 1.8375000000000001 7.0375000000000005 105.37500000000001 23.237500000000004 6.980172414000001 1.8375000000000001
decision_type=2 2 2 2 2 2 2 2 2 2 2 2 2 2 2 2 2 2 2 2 2 2
left_child=-1 2 -2 8 10 9 -3 -8 -4 21 -5 -11 -9 -13 16 -12 20 -10 -19 -18 -15 -6
right_child=1 6 3 4 5 -7 7 12 17 11 15 13 -14 14 -16 -17 19 18 -20 -21 -22 -23
leaf_value=-0.03551804602146149 -0.02685414233869365 -0.036634927084669471 -0.020817569059065798 -0.014190684615944825 0.028419712125323706 0.050446929503232242 0.013745042800225996 -0.019351432751864194 0.0080936471372842801 0.01961657280723254 -0.0067412287369370445 -0.0019987934940111115 -0.0036636187508702275 0.015609468865607462 0.019663758457384328 0.0066709004955268214 0.006442530326206574 0.003856457360088824 -0.0086983366132092968 -0.0057466748263686898 0.0054817596334032718 0.016822902355343103
leaf_weight=14.999999999999998 10.999999999999998 9.9999999999999982 10.999999999999998 11.999999999999998 10.000000000000002 9.9999999999999982 10.999999999999998 18.000000000000004 9.9999999999999982 14.999999999999998 10.000000000000002 17 9.9999999999999982 14.000000000000002 10.999999999999998 19 11.000000000000002 10.000000000000002 11.999999999999998 9.9999999999999982 15.999999999999998 9.9999999999999982
leaf_count=15 11 10 11 12 10 10 11 18 10 15 10 17 10 14 11 19 11 10 12 10 16 10
internal_value=0 0.00198795 0.005173 0.00686674 0.00995245 0.014138 -0.0122473 -0.00599401 -0.00497377 0.010953 -0.00270618 0.00847034 -0.0137486 0.00635397 0.00864424 0.00204603 0.00626749 0.000472531 -0.00299161 0.000638147 0.010208 0.0226213
internal_weight=0 268 219 208 165 124 49 39 43 114 41 94 28 79 62 29 51 32 22 21 30 20
internal_count=283 268 219 208 165 124 49 39 43 114 41 94 28 79 62 29 51 32 22 21 30 20
is_linear=0
shrinkage=0.05


Tree=20
num_leaves=22
num_cat=0
split_feature=1 8 8 9 3 4 1 0 7 0 3 2 7 7 4 2 6 1 9 2 4
split_gain=7.47164 4.40792 4.1362 4.93969 2.07988 2.03525 1.44005 1.12871 1.00941 0.963105 2.00224 0.896057 0.652282 1.04019 0.850863 0.595174 0.533381 0.472768 0.45044 0.392779 0.207105
threshold=1989.5000000000002 6.4500000000000002 5.9875000000000007 8.0000000000000018 23.937500000000004 279.00000000000006 2004.5000000000002 6.5000000000000009 3.6875000000000004 10.500000000000002 23.037500000000005 35.13750000000001 3.6875000000000004 3.4375000000000004 247.87500000000003 35.38750000000001 1.3375000000000001 1981.5000000000002 8.0000000000000018 36.587500000000013 257.62500000000006
decision_type=2 2 2 2 2 2 2 2 2 2 2 2 2 2 2 2 2 2 2 2 2
left_child=1 5 3 -2 9 -1 12 -8 -9 11 20 -3 13 -4 15 -14 -13 -18 -17 -20 -11
right_child=2 4 6 -5 -6 -7 7 8 -10 10 -12 16 14 -15 -16 18 17 -19 19 -21 -22
leaf_value=-0.011575843468308445 -0.037955725230276571 -0.014305148459970952 0.010886469923769418 0.0063313893864260012 0.016160312176428059 -0.041579315997660161 0.0095268754957942292 0.015248031197115776 0.036757235260059438 -0.0023996204775022837 -0.029649635606134934 -0.008892221509013325 -0.0022164559307081316 -0.011394776888191701 0.021850635283268416 0.019667945187538866 -0.0030101128925497716 0.0093641850117005803 0.01480543985539539 0.00281292162835598 -0.010414221134435919
leaf_weight=10.000000000000002 10.000000000000002 11.999999999999998 11.000000000000002 17 10.999999999999998 12.999999999999998 15.999999999999998 10.000000000000002 11.999999999999998 19 11.999999999999998 9.9999999999999982 11.999999999999998 9.9999999999999982 12.999999999999998 9.9999999999999982 12.999999999999998 19 11.000000000000002 18 13.999999999999998
leaf_count=10 10 12 11 17 11 13 16 10 12 19 12 10 12 10 13 10 13 19 11 18 14
internal_value=0 -0.00862789 0.00765006 -0.0100712 -0.00446564 -0.0285343 0.0115401 0.0196315 0.0269803 -0.00675741 -0.0121597 -0.00225548 0.00792278 0.000276352 0.0104318 0.00752107 0.00118728 0.00433713 0.0105172 0.00736181 -0.00579975
internal_weight=0 133 150 27 110 23 123 38 22 99 45 54 85 21 64 51 42 32 39 29 33
internal_count=283 133 150 27 110 23 123 38 22 99 45 54 85 21 64 51 42 32 39 29 33
is_linear=0
shrinkage=0.05


Tree=21
num_leaves=23
num_cat=0
split_feature=1 8 4 7 9 6 9 5 8 1 1 0 7 8 7 9 9 9 7 8 6 4
split_gain=6.75094 3.75161 3.13692 2.19239 2.16184 1.52182 1.13607 1.70673 1.05291 0.921009 0.795364 1.01866 0.910992 0.776267 0.734859 0.573536 0.532133 0.439984 0.346308 0.300287 0.248539 0.285553
threshold=1994.5000000000002 5.9875000000000007 279.00000000000006 4.4375000000000009 9.5000000000000018 1.7625000000000002 6.5000000000000009 76.125000000000014 7.1375000000000011 1976.5000000000002 2004.5000000000002 6.5000000000000009 3.6875000000000004 6.5625000000000009 3.6625000000000001 36.000000000000007 19.500000000000004 34.500000000000007 4.1125000000000007 6.7875000000000005 1.6625000000000003 129.62500000000003
decision_type=2 2 2 2 2 2 2 2 2 2 2 2 2 2 2 2 2 2 2 2 2 2
left_child=2 4 3 6 -2 17 8 9 -1 -8 13 -12 -13 -3 -15 20 18 -4 -16 -9 -11 -22
right_child=1 10 5 -5 -6 -7 7 19 -10 15 11 12 -14 14 16 -17 -18 -19 -20 -21 21 -23
leaf_value=-0.024164892066843229 -0.027206744626164427 -0.00089633542977805662 -0.0052301859984604203 0.017575175392751895 0.0056705873925238853 -0.032192785106599335 -0.016800040060934409 0.014479977896777336 -0.0036262022098526359 0.0071817456965800374 0.0090505317857605405 0.014485629564151163 0.034919373566905658 0.0023334966256068307 0.017160736868778861 -0.011465441089655672 0.026003036424517637 -0.018507067828128734 0.0051484475657343869 0.0029552567703649401 0.0042527655325829963 -0.0068097726175827648
leaf_weight=13.000000000000002 10.000000000000002 13.999999999999998 13.000000000000002 11.999999999999998 9.9999999999999982 13.999999999999998 15.999999999999998 13.000000000000002 11.999999999999998 9.9999999999999982 15.999999999999998 10.000000000000002 11.999999999999998 12.999999999999998 15.000000000000002 13.999999999999998 9.9999999999999982 11.999999999999998 9.9999999999999982 9.9999999999999982 10.000000000000002 13.999999999999998
leaf_count=13 10 14 13 12 10 14 16 13 12 10 16 10 12 13 15 14 10 12 10 10 10 14
internal_value=0 0.0090004 -0.00662606 -0.00273607 -0.0107681 -0.0189943 -0.00491227 -0.00221283 -0.0143063 -0.00641107 0.0129541 0.0186499 0.0256313 0.00946311 0.0124846 -0.00294808 0.016255 -0.0116031 0.0123558 0.00946923 0.000559068 -0.00220038
internal_weight=0 120 163 124 20 39 112 87 25 64 100 38 22 62 48 48 35 25 25 23 34 24
internal_count=283 120 163 124 20 39 112 87 25 64 100 38 22 62 48 48 35 25 25 23 34 24
is_linear=0
shrinkage=0.05


Tree=22
num_leaves=23
num_cat=0
split_feature=9 1 6 8 9 6 6 5 9 3 3 9 3 3 1 9 9 3 5 3 1 4
split_gain=6.18989 5.42405 3.34969 2.21162 2.91025 1.98561 1.22548 1.20498 1.68353 1.05376 0.936122 0.956479 0.432823 0.414199 0.389372 0.341824 0.771193 0.334172 0.252132 0.173445 0.141995 0.107881
threshold=3.5000000000000004 1994.5000000000002 1.7875000000000003 6.7625000000000011 16.500000000000004 1.7125000000000001 1.5625000000000002 78.875000000000014 8.0000000000000018 22.262500000000003 23.512500000000003 34.500000000000007 21.737500000000004 23.312500000000004 1977.5000000000002 19.500000000000004 8.0000000000000018 22.162500000000005 80.375000000000014 22.987500000000001 2004.5000000000002 149.00000000000003
decision_type=2 2 2 2 2 2 2 2 2 2 2 2 2 2 2 2 2 2 2 2 2 2
left_child=-1 2 5 4 -4 6 10 9 -9 -3 11 14 -13 17 -2 16 -11 -5 -10 -19 -18 -17
right_child=1 7 3 13 -6 -7 -8 8 18 15 -12 12 -14 -15 -16 21 20 19 -20 -21 -22 -23
leaf_value=-0.031256483544905983 -0.0082026221124189228 0.00026642722077667712 0.037098708450794209 0.0021034562587738028 -0.0010473873838782312 -0.030608866973356769 0.0067816553870216015 -0.013606011238880457 0.004734714259393512 0.022829252933817254 -0.022609961448716395 -0.022692179967733941 -0.0083194817602634443 0.0044092559865128028 0.0030575404354535483 0.017772879637777801 0.0048124836092548707 -0.013747190963476891 0.014224023285454938 -0.0044347017072141172 0.012613453920348548 0.024477400009830796
leaf_weight=14.999999999999998 14.000000000000002 11.999999999999998 10.000000000000002 10.000000000000002 9.9999999999999982 10.999999999999998 11.999999999999998 10.999999999999998 14.000000000000002 13.999999999999998 12.999999999999998 11.000000000000002 9.9999999999999982 17 17 12.000000000000002 14.000000000000002 10.000000000000002 13.999999999999998 9.9999999999999982 9.9999999999999982 11.999999999999998
leaf_count=15 14 12 10 10 10 11 12 11 14 14 13 11 10 17 17 12 14 10 14 10 10 12
internal_value=0 0.00174943 -0.00432405 0.00409979 0.0180257 -0.0107377 -0.00789892 0.0100803 0.00296811 0.0138286 -0.0106092 -0.00760899 -0.015848 -0.00182611 -0.00202769 0.0164536 0.0135031 -0.00535948 0.00947937 -0.00909095 0.00806289 0.0211251
internal_weight=0 268 155 67 20 88 77 113 39 74 65 52 21 47 31 62 38 30 28 20 24 24
internal_count=283 268 155 67 20 88 77 113 39 74 65 52 21 47 31 62 38 30 28 20 24 24
is_linear=0
shrinkage=0.05


Tree=23
num_leaves=24
num_cat=0
split_feature=4 1 4 0 4 1 3 8 0 8 3 2 2 5 6 3 5 2 1 0 0 6 3
split_gain=5.7315 4.64035 3.05796 2.6698 2.51093 2.68989 1.53511 1.36406 1.31483 1.30297 0.915095 0.800998 0.72421 0.647851 0.620133 0.40742 0.389416 0.273032 0.262368 0.240627 0.147454 0.0459492 0.0182269
threshold=270.37500000000006 1987.5000000000002 288.62500000000006 9.5000000000000018 243.12500000000003 2002.5000000000002 23.512500000000003 6.4500000000000002 12.500000000000002 6.0625000000000009 22.412500000000005 34.625000000000007 36.112500000000004 78.875000000000014 1.5375000000000003 23.637500000000003 74.375000000000014 36.587500000000013 1979.5000000000002 6.5000000000000009 11.500000000000002 2.1125000000000003 22.637500000000003
decision_type=2 2 2 2 2 2 2 2 2 2 2 2 2 2 2 2 2 2 2 2 2 2 2
left_child=1 6 -2 -4 5 7 11 -3 13 -5 14 -1 -8 16 -9 17 -7 -12 22 -20 -19 -21 -13
right_child=2 4 3 9 -6 8 12 10 -10 -11 15 18 -14 -15 -16 -17 -18 20 19 21 -22 -23 -24
leaf_value=-0.013909559354016728 -0.036805256052563594 -0.013679700760314099 0.012990307223729111 -0.025041323670131323 0.029901767808657428 0.01105558761085073 -0.0083577777103831363 -0.01364169910550117 0.031145646266469901 -0.0048231289908289912 0.01756688321527855 -0.0019332306087017056 -0.026119261719709769 0.0029547493212573632 0.0035621499261734163 0.0012017199397087097 0.023441320886327464 0.012052874853834506 0.010283405911177393 0.0031807715538889158 0.0034664214029908181 -0.001612411323003471 -0.004952080035582185
leaf_weight=10.999999999999998 11.999999999999998 12.999999999999998 10.999999999999998 17 12.999999999999998 15.000000000000002 12.000000000000002 10.000000000000002 10.999999999999998 14.999999999999998 11.000000000000002 10.000000000000002 10.999999999999998 13.999999999999998 10.999999999999998 14.999999999999998 10.999999999999998 10.000000000000002 10.000000000000002 10.000000000000002 9.9999999999999982 9.9999999999999982 9.9999999999999982
leaf_count=11 12 13 11 17 13 15 12 10 11 15 11 10 11 14 11 15 11 10 10 10 10 10 10
internal_value=0 0.00349482 -0.0144876 -0.00825944 0.00894281 0.00686292 -0.00584459 0.00114231 0.0158364 -0.015564 0.00401823 -0.00169411 -0.0168524 0.0116264 -0.00463016 0.0079664 0.0162957 0.0112396 0.000993291 0.00395059 0.00775965 0.00078418 -0.00344266
internal_weight=0 228 55 43 144 131 84 80 51 32 67 61 23 40 21 46 26 31 50 30 20 20 20
internal_count=283 228 55 43 144 131 84 80 51 32 67 61 23 40 21 46 26 31 50 30 20 20 20
is_linear=0
shrinkage=0.05


Tree=24
num_leaves=21
num_cat=0
split_feature=9 1 0 9 0 3 6 2 5 9 3 0 9 9 3 5 6 8 1 8
split_gain=5.34752 4.46283 3.20632 4.20114 2.22293 1.34107 1.51029 1.15171 0.976967 1.50246 0.877583 0.732718 0.279754 0.668883 0.217456 0.213639 0.193408 0.143871 0.112472 0.0924693
threshold=3.5000000000000004 1994.5000000000002 3.5000000000000004 5.0000000000000009 5.5000000000000009 23.037500000000005 2.1625000000000001 34.20000000000001 78.875000000000014 8.0000000000000018 22.262500000000003 15.500000000000002 19.500000000000004 8.0000000000000018 23.237500000000004 80.375000000000014 1.7875000000000003 6.8970000000000011 2004.5000000000002 6.6875000000000009
decision_type=2 2 2 2 2 2 2 2 2 2 2 2 2 2 2 2 2 2 2 2
left_child=-1 2 -2 -4 14 7 -7 -6 10 -10 -3 16 13 -12 -5 -11 -9 -18 -15 -14
right_child=1 8 3 4 5 6 -8 11 9 15 12 -13 19 18 -16 -17 17 -19 -20 -21
leaf_value=-0.02905192404985428 -0.023122865231217524 0.00018122576487561068 0.02474663623475603 0.015097597751300776 -0.017356149778844646 -0.026802068825054443 -0.0027348834555596113 -0.0088183846612296564 -0.012878760263662449 0.0045624115113501555 0.020969703658816539 0.0071612707682346044 0.015507342889904971 0.0043248242299471574 0.0054438245682311912 0.013297385935272492 0.0027116509433835739 -0.0054087338775085907 0.011267622947925701 0.021802554685356364
leaf_weight=14.999999999999998 19 11.999999999999998 13.999999999999998 10.000000000000002 12.999999999999998 16.000000000000004 10.999999999999998 17 10.999999999999998 14.000000000000002 13.999999999999998 19 10.000000000000002 14.000000000000002 13.999999999999998 13.999999999999998 10.000000000000002 11.999999999999998 9.9999999999999982 13.999999999999998
leaf_count=15 19 12 14 10 13 16 11 17 11 14 14 19 10 14 14 14 10 12 10 14
internal_value=0 0.00162604 -0.00388307 -0.00119515 -0.00417208 -0.00751208 -0.0169969 -0.00390516 0.00918278 0.00277874 0.0125579 -0.000890288 0.0149534 0.0122842 0.00946623 0.0089299 -0.00481284 -0.00171765 0.00721766 0.0191795
internal_weight=0 268 155 136 122 98 27 71 113 39 74 58 62 38 24 28 39 22 24 24
internal_count=283 268 155 136 122 98 27 71 113 39 74 58 62 38 24 28 39 22 24 24
is_linear=0
shrinkage=0.05


Tree=25
num_leaves=21
num_cat=0
split_feature=4 1 4 4 1 0 0 3 0 8 8 6 9 0 0 0 5 1 5 1
split_gain=4.96812 3.88559 2.68831 2.26251 2.3147 2.25319 1.37303 2.04232 1.18124 1.14554 1.13641 0.787492 0.716933 0.69992 0.622714 0.533804 0.520219 0.492741 0.329982 0.140917
threshold=270.37500000000006 1987.5000000000002 288.62500000000006 243.12500000000003 2002.5000000000002 9.5000000000000018 12.500000000000002 22.562500000000004 12.500000000000002 6.0625000000000009 6.4500000000000002 1.4375000000000002 6.5000000000000009 9.5000000000000018 11.500000000000002 7.5000000000000009 78.875000000000014 1981.5000000000002 74.375000000000014 1973.5000000000002
decision_type=2 2 2 2 2 2 2 2 2 2 2 2 2 2 2 2 2 2 2 2
left_child=1 6 -2 4 10 -4 12 -8 16 -7 -3 14 -1 15 -12 -13 18 19 -6 -14
right_child=2 3 5 -5 8 9 7 -9 -10 -11 11 13 17 -15 -16 -17 -18 -19 -20 -21
leaf_value=-0.010743433277821169 -0.034413647248099248 -0.012570738147657651 0.011872774954165588 0.028134225251582951 0.0099589652723322299 -0.023245571871452472 -0.0014974761076948855 -0.032718354295939209 0.029099560545926745 -0.0042880792046586678 -0.010479574277997014 0.007151357462520107 -0.0065170589010589385 -0.00065392530959798025 0.0058568138442933564 0.02170992150902748 0.0028278451545962267 0.0077252408612127378 0.021360400183634325 0.00059528376596669355
leaf_weight=15.999999999999998 11.999999999999998 12.999999999999998 10.999999999999998 12.999999999999998 15.000000000000002 17 11.000000000000002 9.9999999999999982 10.999999999999998 14.999999999999998 14.000000000000002 17.000000000000004 13.000000000000002 15.999999999999998 9.9999999999999982 9.9999999999999982 13.999999999999998 19 10.999999999999998 14.999999999999998
leaf_count=16 12 13 11 13 15 17 11 10 11 15 14 17 13 16 10 10 14 19 11 15
internal_value=0 0.00325377 -0.0134883 0.00823905 0.00626472 -0.00764873 -0.00529242 -0.0163646 0.0145889 -0.0143592 0.00095805 0.00358304 -0.00160171 0.00763278 -0.00367275 0.0125434 0.0105985 0.00151036 0.0147826 -0.00270688
internal_weight=0 228 55 144 131 43 84 21 51 32 80 67 63 43 24 27 40 47 26 28
internal_count=283 228 55 144 131 43 84 21 51 32 80 67 63 43 24 27 40 47 26 28
is_linear=0
shrinkage=0.05


Tree=26
num_leaves=20
num_cat=0
split_feature=9 1 0 9 0 3 2 0 5 3 0 9 1 0 0 4 1 2 2
split_gain=4.53569 3.67858 2.90175 3.73267 1.86338 1.18767 1.02968 0.983165 0.84577 0.774247 0.657342 0.589773 0.477685 0.730745 0.375232 0.365214 0.221471 0.184342 0.182992
threshold=3.5000000000000004 1994.5000000000002 3.5000000000000004 5.0000000000000009 5.5000000000000009 23.037500000000005 34.20000000000001 9.5000000000000018 81.125000000000014 22.262500000000003 15.500000000000002 19.500000000000004 2009.5000000000002 9.5000000000000018 7.5000000000000009 160.25000000000003 1983.5000000000002 35.82500000000001 36.63750000000001
decision_type=2 2 2 2 2 2 2 2 2 2 2 2 2 2 2 2 2 2 2
left_child=-1 2 -2 -4 17 6 -6 -7 9 -3 15 12 13 14 -11 -8 -17 -5 -13
right_child=1 8 3 4 5 7 10 -9 -10 11 -12 18 -14 -15 -16 16 -18 -19 -20
leaf_value=-0.026755948488910993 -0.021807347032192507 0.00075668935767478416 0.023505600621657713 0.01276448361862164 -0.016135171062957782 -0.0032968634041026222 0.003958309879526496 -0.023054753786281631 -0.0022925668687094002 0.011123570660129187 0.007060137538141326 0.023609744980931276 -0.00068681290838867436 0.0021457224602012765 0.022819860031207406 -0.0029013195005245501 -0.01164547651340919 0.0039697991980409087 0.015085737193551134
leaf_weight=14.999999999999998 19 18 13.999999999999998 13.000000000000002 12.999999999999998 10.000000000000002 9.9999999999999982 17 15.999999999999998 16.000000000000004 19 10.000000000000002 9.9999999999999982 13.999999999999998 11.999999999999998 15.000000000000002 13.999999999999998 10.999999999999998 17
leaf_count=15 19 18 14 13 13 10 10 17 16 16 19 10 10 14 12 15 14 11 17
internal_value=0 0.00149753 -0.00350415 -0.00094708 -0.00375313 -0.0068111 -0.00341673 -0.015737 0.00835825 0.0101151 -0.000566047 0.0122474 0.00913437 0.0114728 0.0161363 -0.00428137 -0.00712264 0.00873359 0.0182428
internal_weight=0 268 155 136 122 98 71 27 113 97 58 79 52 42 28 39 29 24 27
internal_count=283 268 155 136 122 98 71 27 113 97 58 79 52 42 28 39 29 24 27
is_linear=0
shrinkage=0.05


Tree=27
num_leaves=23
num_cat=0
split_feature=4 0 2 4 4 7 0 9 8 0 4 9 4 5 6 3 3 7 4 3 9 3
split_gain=4.29838 3.15365 2.53405 5.2616 2.37817 1.98573 1.91449 1.4924 0.985269 0.929332 0.85542 1.33152 0.541706 0.480917 0.468258 0.278348 0.272095 0.23133 0.180119 0.159847 0.26043 0.0808696
threshold=270.37500000000006 1.5000000000000002 35.38750000000001 243.12500000000003 288.62500000000006 2.7500000000000004 9.5000000000000018 9.5000000000000018 6.0625000000000009 4.5000000000000009 155.12500000000003 8.0000000000000018 161.25000000000003 78.625000000000014 2.0875000000000008 22.362500000000004 23.162500000000005 3.7875000000000001 105.37500000000001 22.187500000000004 12.000000000000002 22.812500000000004
decision_type=2 2 2 2 2 2 2 2 2 2 2 2 2 2 2 2 2 2 2 2 2 2
left_child=1 -1 7 5 -2 -4 -6 -3 -8 16 11 -11 -12 -9 19 -15 -7 18 -13 -14 -21 -20
right_child=4 2 3 -5 6 9 8 13 -10 10 12 17 14 15 -16 -17 -18 -19 21 20 -22 -23
leaf_value=-0.023091661350124262 -0.032227590307593347 -0.018047868239227684 -0.016463242834433914 0.042504395805299286 0.010940719501708043 0.021599110622297628 -0.021480708196759225 -0.0063822320976760251 -0.0038993547856807712 0.020118378092975994 -0.009822880649007857 0.0071122101190584618 0.00093219302361831075 0.011359817590564486 -0.0046614292979938908 -0.00043737694621086125 0.010477984959090298 0.010718839969485999 0.0023260024935007088 0.0041015130618367998 0.014270379692316055 -0.004032832644879818
leaf_weight=10.999999999999998 11.999999999999998 15.999999999999998 9.9999999999999982 9.9999999999999982 10.999999999999998 11.000000000000002 17 14.999999999999998 14.999999999999998 19 9.9999999999999982 11.000000000000002 11.999999999999998 10.000000000000002 14.999999999999998 9.9999999999999982 10.999999999999998 9.9999999999999982 10.000000000000002 17.000000000000004 9.9999999999999982 9.9999999999999982
leaf_count=11 12 16 10 10 11 11 17 15 15 19 10 11 12 10 15 10 11 10 10 17 10 10
internal_value=0 0.00302652 0.00435048 0.00734535 -0.0125463 0.00509157 -0.00705382 -0.00539755 -0.0132394 0.00656793 0.00488765 0.00917673 0.00086665 0.000385455 0.00284619 0.00546122 0.0160385 0.00410621 0.0019731 0.00573374 0.00786776 -0.000853415
internal_weight=0 228 217 166 55 156 43 51 32 146 124 60 64 35 54 20 22 41 31 39 27 20
internal_count=283 228 217 166 55 156 43 51 32 146 124 60 64 35 54 20 22 41 31 39 27 20
is_linear=0
shrinkage=0.05


Tree=28
num_leaves=20
num_cat=0
split_feature=1 9 0 5 9 0 1 0 9 6 0 5 7 4 3 9 1 9 3
split_gain=3.94546 5.60007 2.44644 4.84488 3.67856 1.9394 0.980855 1.28128 1.19299 0.801997 1.1696 0.530881 0.553389 0.915971 0.386727 0.260177 0.191274 0.388527 0.222888
threshold=2004.5000000000002 3.5000000000000004 3.5000000000000004 78.125000000000014 5.0000000000000009 4.5000000000000009 1977.5000000000002 13.500000000000002 6.5000000000000009 2.1125000000000003 7.5000000000000009 76.125000000000014 4.3625000000000007 236.37500000000003 23.387500000000003 12.000000000000002 1994.5000000000002 36.000000000000007 22.562500000000004
decision_type=2 2 2 2 2 2 2 2 2 2 2 2 2 2 2 2 2 2 2
left_child=1 -1 3 -3 -4 -6 7 14 -8 10 -2 16 13 15 -7 -13 17 18 -10
right_child=9 2 4 -5 5 6 8 -9 11 -11 -12 12 -14 -15 -16 -17 -18 -19 -20
leaf_value=-0.033215892953532083 0.0092536885004777161 0.0082650546450167874 0.02218444364476263 -0.035030526065799809 0.014159839698358587 -0.0085978283278214229 -0.015625892905518413 -0.022549909869065653 0.0031747128667407917 0.0060161034429543903 0.03090063824007909 0.0088003717735409669 -0.0030827192814155881 0.021349128060974183 0.0044808627292513854 -0.0023430359295823358 0.0027603629702592598 -0.010124591675897439 -0.0047059674250811119
leaf_weight=13.999999999999998 13.000000000000002 12.000000000000002 19 13.999999999999998 19 13.000000000000002 11.999999999999998 12.999999999999998 19 19 11.999999999999998 10.000000000000005 13.999999999999998 9.9999999999999982 9.9999999999999982 10.999999999999998 17 14.999999999999998 17
leaf_count=14 13 12 19 14 19 13 12 13 19 19 12 10 14 10 10 11 17 15 17
internal_value=0 -0.0025331 -0.000623951 -0.015048 0.00126059 -0.000948038 -0.00273096 -0.0100031 -0.000636574 0.0137594 0.0196442 0.000955212 0.00516808 0.00889425 -0.00291144 0.00296335 -0.00183271 -0.00336374 -0.000546719
internal_weight=0 239 225 26 199 180 161 36 125 44 25 113 45 31 23 21 68 51 36
internal_count=283 239 225 26 199 180 161 36 125 44 25 113 45 31 23 21 68 51 36
is_linear=0
shrinkage=0.05


Tree=29
num_leaves=21
num_cat=0
split_feature=1 9 0 5 9 0 2 3 0 6 0 0 2 5 9 1 1 5 0 1
split_gain=3.56077 5.05406 2.20791 4.3725 3.3199 1.75031 0.977227 0.919282 1.10949 0.723803 1.05557 0.556705 0.574065 0.548658 0.245304 0.304541 0.289736 0.110206 0.0949797 0.108317
threshold=2004.5000000000002 3.5000000000000004 3.5000000000000004 78.125000000000014 5.0000000000000009 4.5000000000000009 33.987500000000004 23.512500000000003 10.500000000000002 2.1125000000000003 7.5000000000000009 14.500000000000002 35.537500000000001 76.125000000000014 36.000000000000007 1996.5000000000002 1987.5000000000002 78.125000000000014 10.500000000000002 1977.5000000000002
decision_type=2 2 2 2 2 2 2 2 2 2 2 2 2 2 2 2 2 2 2 2
left_child=1 -1 3 -3 -4 -6 -7 11 -9 10 -2 14 17 -14 15 16 18 -13 19 -8
right_child=9 2 4 -5 5 6 7 8 -10 -11 -12 12 13 -15 -16 -17 -18 -19 -20 -21
leaf_value=-0.031555097669895206 0.0087910041213035556 0.0078518019833912437 0.021075221837351197 -0.033279000502079728 0.013451847561488026 -0.015217024188521984 -0.0023999710427597158 0.0023765964852645988 -0.019429253653756209 0.0057152981820859407 0.02935560674717029 -0.0049644044786691655 0.0029360538658996416 0.018395637246166271 -0.0087026612833142284 0.0050835297326557345 -0.0096189231922229126 0.0024587430804967883 -0.0034541616222769442 0.0046459568916664773
leaf_weight=13.999999999999998 13.000000000000002 12.000000000000002 19 13.999999999999998 19 13.999999999999998 10.000000000000002 10.000000000000002 13.999999999999998 19 11.999999999999998 10.000000000000002 12.000000000000002 10.999999999999998 11.999999999999998 15.999999999999998 11.999999999999998 9.9999999999999982 18 11.999999999999998
leaf_count=14 13 12 19 14 19 14 10 10 14 19 12 10 12 11 12 16 12 10 18 12
internal_value=0 -0.00240645 -0.000592754 -0.0142956 0.00119756 -0.000900636 -0.00259441 -0.00139225 -0.0103435 0.0130714 0.018662 0.000354328 0.00494251 0.0103298 -0.00211182 -0.000948731 -0.00280481 -0.00125283 -0.000760578 0.00144326
internal_weight=0 239 225 26 199 180 161 147 24 44 25 123 43 23 80 68 52 20 40 22
internal_count=283 239 225 26 199 180 161 147 24 44 25 123 43 23 80 68 52 20 40 22
is_linear=0
shrinkage=0.05


Tree=30
num_leaves=22
num_cat=0
split_feature=4 1 4 4 1 8 3 8 2 3 8 4 6 9 6 1 5 6 9 3 6
split_gain=3.49521 2.80567 2.05909 1.85427 1.56416 1.39037 1.13821 0.771606 0.753135 0.619254 0.554827 0.526771 0.81534 0.490399 0.482828 0.466287 0.368281 0.59394 0.217865 0.201787 0.16236
threshold=270.37500000000006 1987.5000000000002 288.62500000000006 243.12500000000003 2002.5000000000002 6.0625000000000009 23.512500000000003 6.5375000000000005 36.112500000000004 22.412500000000005 6.6442857145000014 155.12500000000003 2.1625000000000001 19.500000000000004 1.5375000000000003 1979.5000000000002 76.625000000000014 1.6875000000000002 19.500000000000004 22.412500000000005 1.3375000000000001
decision_type=2 2 2 2 2 2 2 2 2 2 2 2 2 2 2 2 2 2 2 2 2
left_child=1 6 -2 4 7 -4 15 -3 -8 14 -7 12 -6 16 -9 20 -11 -18 -13 -17 -1
right_child=2 3 5 -5 11 10 8 9 -10 13 -12 18 -14 -15 -16 19 17 -19 -20 -21 -22
leaf_value=-0.00070630709233228102 -0.029626997436086339 -0.00900521561561618 -0.016798685573869283 0.024976438935846092 0.024003624171018596 0.0098293915221636923 -0.0053489183774217955 -0.011792808920145031 -0.023461629598486154 -0.0033218285844971739 -0.0051763839354472506 0.0027012761416179785 0.0058038528822362424 0.016320113916881384 0.0037446928443387152 0.0088740574365312377 -0.00064802223139188487 0.015782820433378222 0.012104427865283056 0.00036456153397203278 -0.0081351810600608591
leaf_weight=12.000000000000002 11.999999999999998 15.999999999999998 18 12.999999999999998 16.000000000000004 11.000000000000002 12.000000000000002 10.000000000000002 10.999999999999998 11.999999999999998 13.999999999999998 14.000000000000002 9.9999999999999982 9.9999999999999982 9.9999999999999982 11.000000000000002 11.000000000000002 10.999999999999998 10.999999999999998 19 19
leaf_count=12 12 16 18 13 16 11 12 10 11 12 14 14 10 10 10 11 11 11 11 19 19
internal_value=0 0.00272915 -0.0113136 0.00696538 0.00517802 -0.00620285 -0.00453295 0.000815717 -0.0140115 0.00327095 0.00142616 0.0120208 0.0170037 0.00658686 -0.00402406 -0.000959063 0.00372414 0.0075674 0.00683866 0.00348471 -0.00525949
internal_weight=0 228 55 144 131 43 84 80 23 64 25 51 26 44 20 61 34 22 25 30 31
internal_count=283 228 55 144 131 43 84 80 23 64 25 51 26 44 20 61 34 22 25 30 31
is_linear=0
shrinkage=0.05


Tree=31
num_leaves=21
num_cat=0
split_feature=4 1 4 4 1 8 3 4 8 6 7 8 7 6 9 1 5 3 9 6
split_gain=3.15443 2.53211 1.85833 1.67348 1.41333 1.25481 1.02724 0.694817 0.64309 0.801862 0.521642 0.500731 0.4665 0.564001 0.421787 0.420824 0.274353 0.182113 0.158364 0.14653
threshold=270.37500000000006 1987.5000000000002 288.62500000000006 243.12500000000003 2000.5000000000002 6.0625000000000009 23.512500000000003 165.25000000000003 6.4500000000000002 1.4375000000000002 3.9625000000000008 6.6442857145000014 3.4875000000000003 1.3875000000000002 8.0000000000000018 1979.5000000000002 76.125000000000014 22.412500000000005 12.000000000000002 1.3375000000000001
decision_type=2 2 2 2 2 2 2 2 2 2 2 2 2 2 2 2 2 2 2 2
left_child=1 6 -2 4 8 -4 15 -8 -3 -10 12 -7 -6 -14 -11 19 -16 -17 -12 -1
right_child=2 3 5 -5 10 11 7 -9 9 14 18 -13 13 -15 16 17 -18 -19 -20 -21
leaf_value=-0.00067099162600546438 -0.028145648414889975 -0.010406556060964552 -0.015958751324150297 0.023727617928614983 0.0059822978621179405 0.0093379223888570579 -0.021631399542093272 -0.0042340823025865991 -0.0068711271947797612 0.013921904284507037 0.0012289756765732395 -0.0049175647752625609 0.026081643688182027 0.010751920162389676 -0.0022812241788155263 0.0084303546358238547 0.0073031001840718097 0.0003463335022771437 0.0091943511273711916 -0.0077284221427123025
leaf_weight=12.000000000000002 11.999999999999998 11.999999999999998 18 12.999999999999998 10.999999999999998 11.000000000000002 12.000000000000002 10.999999999999998 17 11.999999999999998 13.000000000000002 13.999999999999998 12.000000000000002 11.999999999999998 14.000000000000002 11.000000000000002 15.999999999999998 19 11.999999999999998 19
leaf_count=12 12 12 18 13 11 11 12 11 17 12 13 14 12 12 14 11 16 19 12 19
internal_value=0 0.00259269 -0.0107479 0.00661711 0.00491912 -0.0058927 -0.0043063 -0.0133109 0.000144894 0.00229095 0.0105686 0.00135485 0.0145088 0.0184168 0.00599941 -0.00091111 0.00283042 0.00331047 0.00505236 -0.00499651
internal_weight=0 228 55 144 131 43 84 23 71 59 60 25 35 24 42 61 30 30 25 31
internal_count=283 228 55 144 131 43 84 23 71 59 60 25 35 24 42 61 30 30 25 31
is_linear=0
shrinkage=0.05


Tree=32
num_leaves=24
num_cat=0
split_feature=4 1 4 4 0 1 0 3 0 1 8 3 8 6 5 0 3 2 0 4 4 7 0
split_gain=2.84687 2.28523 1.67714 1.51032 1.40766 1.29126 1.03709 1.47522 0.87057 0.734917 0.631704 0.547587 0.397526 0.382312 0.34264 0.322458 0.26955 0.267157 0.223152 0.195683 0.150915 0.239045 0.0837671
threshold=270.37500000000006 1987.5000000000002 288.62500000000006 243.12500000000003 9.5000000000000018 2002.5000000000002 12.500000000000002 22.562500000000004 12.500000000000002 1988.5000000000002 6.4500000000000002 22.412500000000005 6.5038793105000012 1.5375000000000003 78.875000000000014 3.5000000000000004 23.637500000000003 36.587500000000013 6.5000000000000009 155.12500000000003 143.37500000000003 3.9875000000000003 11.500000000000002
decision_type=2 2 2 2 2 2 2 2 2 2 2 2 2 2 2 2 2 2 2 2 2 2 2
left_child=1 6 -2 5 -4 10 15 -8 14 12 -3 13 -6 -12 19 -1 17 -13 -17 -7 -20 -22 -19
right_child=2 3 4 -5 9 8 7 -9 -10 -11 11 16 -14 -15 -16 18 -18 22 20 -21 21 -23 -24
leaf_value=-0.0091186090512201199 -0.026738365056614085 -0.0093770275107369974 0.0098318128211593095 0.022541235874478635 -0.02360118687152862 0.014289741090033201 -0.0010782266882332886 -0.027612762413918975 0.023347655108029192 -0.00043255385350097315 -0.011098926365375517 0.01464210272639651 -0.0098269954323768616 0.0024091170423410158 0.0011583298045609678 0.0051944832666777074 0.00021857822934786479 0.0081768440688028913 0.0028891624819758974 0.0053736664727330212 -0.009839687042403962 0.00044288607314229016 0.0017050956375896931
leaf_weight=9.9999999999999982 11.999999999999998 12.999999999999998 10.999999999999998 12.999999999999998 10.000000000000002 16.000000000000004 11.000000000000002 9.9999999999999982 10.999999999999998 10.999999999999998 10.000000000000002 11.000000000000002 10.999999999999998 10.999999999999998 13.999999999999998 18 14.999999999999998 10.000000000000002 11.999999999999998 9.9999999999999982 10.000000000000002 12.999999999999998 9.9999999999999982
leaf_count=10 12 13 11 13 10 16 11 10 11 11 10 11 11 11 14 18 15 10 12 10 10 13 10
internal_value=0 0.00246306 -0.0102105 0.00628625 -0.00559807 0.00467316 -0.00409099 -0.0137137 0.0108905 -0.0109021 0.000709636 0.00266675 -0.0163861 -0.00402328 0.00746473 -0.000883409 0.0057209 0.00838331 0.000670402 0.0108605 -0.00165627 -0.0040278 0.00494097
internal_weight=0 228 55 144 43 131 84 21 51 32 80 67 21 21 40 63 46 31 53 26 35 23 20
internal_count=283 228 55 144 43 131 84 21 51 32 80 67 21 21 40 63 46 31 53 26 35 23 20
is_linear=0
shrinkage=0.05


Tree=33
num_leaves=21
num_cat=0
split_feature=9 1 0 9 0 3 6 1 5 3 8 1 9 1 0 7 7 6 4 3
split_gain=2.60003 1.9154 2.108 2.58469 1.19386 0.890365 1.00515 0.655323 0.589167 0.48544 0.431929 0.39996 0.319723 0.355866 0.517923 0.251501 0.21059 0.205492 0.15164 0.121467
threshold=3.5000000000000004 1994.5000000000002 3.5000000000000004 5.0000000000000009 5.5000000000000009 23.037500000000005 2.1625000000000001 1977.5000000000002 81.125000000000014 22.212500000000002 6.4500000000000002 1983.5000000000002 19.500000000000004 2009.5000000000002 9.5000000000000018 4.2625000000000011 3.9625000000000008 1.7875000000000003 163.87500000000003 23.237500000000004
decision_type=2 2 2 2 2 2 2 2 2 2 2 2 2 2 2 2 2 2 2 2
left_child=-1 2 -2 -4 19 7 -7 15 9 -3 -9 -12 13 14 16 -6 -11 -13 -14 -5
right_child=1 8 3 4 5 6 -8 10 -10 12 11 17 18 -15 -16 -17 -18 -19 -20 -21
leaf_value=-0.020257588475942612 -0.018075599499187727 -0.0007194075485070547 0.02005204424744339 0.011572697106748816 -0.0042034918209537852 -0.020806067099329081 -0.0011719643191265112 0.010185645595192909 -0.0028050300548784438 0.015868586777812901 0.0047690185485407717 -0.010906625092029568 0.010065449730438344 -0.0017847264744341375 0.00085822752942996377 -0.015417339857667684 0.0068189428560435777 -0.0016534186402956644 0.017239119592480933 0.004357634451506393
leaf_weight=14.999999999999998 19 14.999999999999998 13.999999999999998 10.000000000000002 10.000000000000002 16.000000000000004 10.999999999999998 9.9999999999999982 15.999999999999998 18.000000000000004 15.999999999999998 10.000000000000002 17.000000000000004 9.9999999999999982 13.999999999999998 9.9999999999999982 9.9999999999999982 14.999999999999998 12.999999999999998 13.999999999999998
leaf_count=15 19 15 14 10 10 16 11 10 16 18 16 10 17 10 14 10 10 15 13 14
internal_value=0 0.00113382 -0.00247534 -0.000295892 -0.0026309 -0.00507861 -0.012807 -0.00213965 0.00608444 0.00755074 0.000868495 -0.00140398 0.00906357 0.00669215 0.00871046 -0.00981042 0.0126366 -0.0053547 0.013174 0.00736391
internal_weight=0 268 155 136 122 98 27 71 113 97 51 41 82 52 42 20 28 25 30 24
internal_count=283 268 155 136 122 98 27 71 113 97 51 41 82 52 42 20 28 25 30 24
is_linear=0
shrinkage=0.05


Tree=34
num_leaves=23
num_cat=0
split_feature=4 0 1 4 7 0 0 1 3 0 6 7 4 7 7 6 7 3 3 1 1 5
split_gain=2.45386 2.02526 2.01013 1.47749 1.40927 1.19758 0.977157 0.762403 0.632323 0.610066 0.617662 0.504921 0.429031 0.320745 0.555674 0.438454 0.354292 0.307443 0.304619 0.267289 0.39079 0.152665
threshold=270.37500000000006 1.5000000000000002 1984.5000000000002 288.62500000000006 4.4625000000000012 9.5000000000000018 12.500000000000002 1994.5000000000002 22.762500000000003 5.5000000000000009 1.7375000000000003 3.8125000000000004 440.12500000000006 4.1125000000000007 3.6625000000000001 1.4375000000000002 3.7375000000000003 23.537500000000005 22.562500000000004 1997.5000000000002 2002.5000000000002 74.875000000000014
decision_type=2 2 2 2 2 2 2 2 2 2 2 2 2 2 2 2 2 2 2 2 2 2
left_child=1 -1 6 -2 7 -5 17 9 12 -4 -11 -12 -7 14 15 -9 -16 18 -3 -18 -21 -20
right_child=3 2 4 5 -6 8 -8 13 -10 10 11 -13 -14 -15 16 -17 19 -19 21 20 -22 -23
leaf_value=-0.01864362552084706 -0.024992522783577442 0.002849033970075349 0.0098959537533422313 0.0090817007151516999 0.024576179170981052 0.0027248306572437279 -0.01484878839692101 -0.0035296491036812456 -0.019116413655380408 -0.013692933581769469 -0.004815625655464827 0.0091001505286178799 -0.011921512894332409 0.0019675324327851598 0.020939369983971119 0.0089532689027049962 0.016865783286365597 0.0072357010375708342 -0.0025891796452924606 0.00040980667214501974 0.012817375895877678 -0.010954078547656537
leaf_weight=10.999999999999998 11.999999999999998 14.999999999999998 11.999999999999998 10.999999999999998 9.9999999999999982 10.000000000000002 15.999999999999998 12.000000000000002 11.999999999999998 9.9999999999999982 16.000000000000004 10.999999999999998 9.9999999999999982 19 9.9999999999999982 17 10.999999999999998 9.9999999999999982 12.000000000000002 11.000000000000002 14.999999999999998 9.9999999999999982
leaf_count=11 12 15 12 11 10 10 16 12 12 10 16 11 10 19 10 17 11 10 12 11 15 10
internal_value=0 0.00228673 0.00334772 -0.00947955 0.00642568 -0.00515035 -0.00417618 0.00516523 -0.0100426 9.94644e-05 -0.00307778 0.000853765 -0.00459834 0.00777809 0.00923073 0.00378792 0.0125891 -0.000542945 -0.00264528 0.0103322 0.00756802 -0.00639141
internal_weight=0 228 217 55 154 43 63 144 32 49 37 27 20 95 76 29 47 47 37 37 26 22
internal_count=283 228 217 55 154 43 63 144 32 49 37 27 20 95 76 29 47 47 37 37 26 22
is_linear=0
shrinkage=0.05


Tree=35
num_leaves=23
num_cat=0
split_feature=8 9 1 0 5 7 4 0 6 5 8 8 6 5 0 6 7 0 4 7 7 0
split_gain=2.29115 2.64095 1.91894 1.77283 3.74963 2.02298 0.985443 0.802875 0.749783 0.693576 0.584056 1.03574 0.502711 0.365011 0.35799 0.319009 0.266927 0.211545 0.193165 0.189158 0.156882 0.0715564
threshold=6.0228448275000011 5.0000000000000009 1995.5000000000002 3.5000000000000004 78.125000000000014 4.4375000000000009 341.75000000000006 12.500000000000002 1.3125000000000002 81.875000000000014 7.5625000000000009 7.2875000000000005 1.4375000000000002 79.375000000000014 5.5000000000000009 2.3625000000000003 3.3625000000000003 8.5000000000000018 177.12500000000003 4.0875000000000012 4.0625000000000009 6.5000000000000009
decision_type=2 2 2 2 2 2 2 2 2 2 2 2 2 2 2 2 2 2 2 2 2 2
left_child=1 -1 3 4 -2 9 -3 12 -9 10 11 13 14 15 -4 16 -5 19 -18 21 -20 -14
right_child=2 6 7 5 -6 -7 -8 8 -10 -11 -12 -13 17 -15 -16 -17 18 -19 20 -21 -22 -23
leaf_value=-0.02846265056037477 0.0062559187598526453 0.0057247510946848807 0.006070143012329934 0.0030392839093110525 -0.037043194230645893 0.017867547667895754 -0.012989379900197188 0.02606557197868823 0.0078547319468970488 0.010941942892968655 0.0075545576216730602 -0.019370679100975396 0.010210177539424457 -0.0104217443925639 -0.0065132408044659175 0.0064392875685977445 -0.0086772681669304696 0.0024791139177978041 -0.0047965671647997457 0.0046378762274980542 0.0030959196481853725 0.016054143607616426
leaf_weight=13.999999999999998 10.000000000000002 17.000000000000004 10.000000000000002 15.999999999999998 9.9999999999999982 14.999999999999998 11.999999999999998 10.000000000000002 12.999999999999998 9.9999999999999982 11.999999999999998 9.9999999999999982 11.000000000000005 11.999999999999998 12.999999999999998 11.999999999999998 17 11.999999999999998 17.000000000000004 9.9999999999999982 9.9999999999999982 9.9999999999999982
leaf_count=14 10 17 10 16 10 15 12 10 13 10 12 10 11 12 13 12 17 12 17 10 10 10
internal_value=0 -0.0106286 0.00190429 -0.00152814 -0.0153936 0.00058873 -0.00201903 0.00772784 0.0157725 -0.0016456 -0.0028331 -0.00415919 0.00492441 -0.0023483 -0.0010422 -0.00100272 -0.00249112 0.00811585 -0.00450218 0.0102978 -0.00187342 0.012993
internal_weight=0 43 240 151 20 131 29 89 23 116 106 94 66 84 23 72 60 43 44 31 27 21
internal_count=283 43 240 151 20 131 29 89 23 116 106 94 66 84 23 72 60 43 44 31 27 21
is_linear=0
shrinkage=0.05


Tree=36
num_leaves=23
num_cat=0
split_feature=4 1 4 4 0 1 3 0 4 1 8 8 3 1 8 5 3 1 5 0 7 4
split_gain=2.11037 1.7099 1.37194 1.29642 1.03633 0.937828 0.829977 0.704449 0.652323 0.600718 0.548605 0.448064 0.56268 0.338971 0.300807 0.249477 0.199202 0.172903 0.161404 0.102298 0.0877976 0.0377187
threshold=270.37500000000006 1987.5000000000002 243.12500000000003 288.62500000000006 9.5000000000000018 2002.5000000000002 23.512500000000003 12.500000000000002 165.25000000000003 1988.5000000000002 6.5375000000000005 6.7375000000000007 22.237500000000004 1981.5000000000002 6.5038793105000012 78.875000000000014 22.812500000000004 1994.5000000000002 74.375000000000014 7.5000000000000009 3.7375000000000003 182.62500000000003
decision_type=2 2 2 2 2 2 2 2 2 2 2 2 2 2 2 2 2 2 2 2 2 2
left_child=1 6 5 -2 -5 10 13 15 -8 14 -3 -12 -13 16 -6 18 21 -14 -7 -15 -19 -1
right_child=3 2 -4 4 9 7 8 -9 -10 -11 11 12 17 19 -16 -17 -18 20 -20 -21 -22 -23
leaf_value=-0.0026818727538920929 -0.023322401940822603 -0.0077685336465947337 0.020920192149396128 0.008503400381993164 -0.020521201640367501 0.0056312509129444743 -0.019704664514089618 0.020394672893665054 -0.0028477465903217146 0.00017867816442793068 0.010144172410170238 -0.0086481946448867149 -0.0011212512940311661 0.0078931151703000042 -0.0085392549295317047 0.00072607837085212983 -0.0080035947884122532 0.0096151775610633164 0.013605160232294689 0.0013644008648892245 0.0033835190849808546 0.001561014330945909
leaf_weight=10.000000000000002 11.999999999999998 15.999999999999998 12.999999999999998 10.999999999999998 10.000000000000002 15.000000000000002 12.000000000000002 10.999999999999998 10.999999999999998 10.999999999999998 14.999999999999998 12.999999999999998 12.999999999999998 10.000000000000002 10.999999999999998 13.999999999999998 14.999999999999998 10.000000000000002 10.999999999999998 14.999999999999998 12.999999999999998 10.999999999999998
leaf_count=10 12 16 13 11 10 15 12 11 11 11 15 13 13 10 11 14 15 10 11 15 13 11
internal_value=0 0.00212066 0.00542775 -0.00879109 -0.00473584 0.00389033 -0.00354864 0.00918886 -0.0116427 -0.00928682 0.00051251 0.00258277 0.000268056 -0.000496792 -0.0142449 0.00610727 -0.00360282 0.00348781 0.00900483 0.00397589 0.00609294 -0.000459408
internal_weight=0 228 144 55 43 131 84 51 23 32 80 64 49 61 21 40 36 36 26 25 23 21
internal_count=283 228 144 55 43 131 84 51 23 32 80 64 49 61 21 40 36 36 26 25 23 21
is_linear=0
shrinkage=0.05


Tree=37
num_leaves=24
num_cat=0
split_feature=8 9 1 0 5 7 1 0 6 5 0 0 2 4 6 4 1 2 2 7 8 0 2
split_gain=1.98351 2.29843 1.55824 1.59961 3.28841 1.84287 0.831834 0.692475 0.667583 0.629103 0.527841 0.835707 0.769757 0.454052 0.441653 0.30603 0.359996 0.260378 0.294015 0.243975 0.193618 0.169073 0.226839
threshold=6.0228448275000011 5.0000000000000009 1995.5000000000002 3.5000000000000004 78.125000000000014 4.4375000000000009 1990.5000000000002 12.500000000000002 1.3125000000000002 81.875000000000014 15.500000000000002 10.500000000000002 38.000000000000007 247.87500000000003 1.3625000000000003 136.25000000000003 1987.5000000000002 35.212500000000013 36.76250000000001 4.1125000000000007 6.8970000000000011 8.5000000000000018 37.462500000000013
decision_type=2 2 2 2 2 2 2 2 2 2 2 2 2 2 2 2 2 2 2 2 2 2 2
left_child=1 -1 3 4 -2 9 -3 14 -9 10 11 15 13 -13 20 -5 17 -17 -19 21 -4 22 -16
right_child=2 6 7 5 -6 -7 -8 8 -10 -11 -12 12 -14 -15 19 16 -18 18 -20 -21 -22 -23 -24
leaf_value=-0.026526718619944795 0.0057824639603495584 -0.013529980666935441 -0.0067065579164773195 0.0073656571224670524 -0.034766332693398003 0.017181256931896011 0.0042860286213812961 0.024203191846609108 0.0070195612999109126 0.010545247495174409 0.0068631566487825845 -0.023747331164777272 -0.0012062933606406055 -0.0090263674204999755 0.0072455661060909409 -0.006068664113990963 -0.0093633038379872854 0.0082114969380199885 -0.0030137612111866478 0.00098366293435295433 0.0031325973197817805 0.0045022109989076853 0.017442021742463114
leaf_weight=13.999999999999998 10.000000000000002 10.000000000000002 10.000000000000002 10.999999999999998 9.9999999999999982 14.999999999999998 19 10.000000000000002 12.999999999999998 9.9999999999999982 12.999999999999998 10.000000000000002 14.999999999999998 10.999999999999998 12.000000000000002 9.9999999999999982 11.999999999999998 14.000000000000002 9.9999999999999982 11.999999999999998 9.9999999999999982 11.999999999999998 9.9999999999999982
leaf_count=14 10 10 10 11 10 15 19 10 13 10 13 10 15 11 12 10 12 14 10 12 10 12 10
internal_value=0 -0.00988929 0.00177183 -0.00132122 -0.0144919 0.000689572 -0.00185742 0.0070196 0.0144907 -0.00144297 -0.00257394 -0.0038931 -0.00985716 -0.0160364 0.00441603 -0.000126328 -0.00191789 0.000709903 0.00353431 0.00711299 -0.00178698 0.00927628 0.0118803
internal_weight=0 43 240 151 20 131 29 89 23 116 106 93 36 21 66 57 46 34 24 46 20 34 22
internal_count=283 43 240 151 20 131 29 89 23 116 106 93 36 21 66 57 46 34 24 46 20 34 22
is_linear=0
shrinkage=0.05


Tree=38
num_leaves=20
num_cat=0
split_feature=4 4 1 7 9 4 7 3 2 6 6 1 1 6 5 4 2 6 7
split_gain=1.847 2.1934 1.38428 1.19526 1.64173 1.3991 0.745139 0.94757 0.462848 0.506234 0.367171 0.474648 0.332018 0.199627 0.294892 0.219146 0.163148 0.0929348 0.0851946
threshold=252.62500000000003 239.37500000000003 2000.5000000000002 3.9125000000000001 8.0000000000000018 364.37500000000006 2.7500000000000004 23.937500000000004 35.38750000000001 1.1875000000000002 1.2625000000000002 1983.5000000000002 1972.5000000000002 1.6125000000000003 80.125000000000014 127.62500000000001 37.437500000000007 2.0875000000000008 3.8125000000000004
decision_type=2 2 2 2 2 2 2 2 2 2 2 2 2 2 2 2 2 2 2
left_child=1 2 6 -2 -5 -6 -1 10 -4 -10 11 -8 -12 -14 15 -15 -11 18 -17
right_child=3 -3 8 4 5 -7 7 -9 9 16 12 -13 13 14 -16 17 -18 -19 -20
leaf_value=-0.014619577187113465 -0.018582419240299394 0.025176216363906864 -0.0016110267828811299 -0.0156168543578436 0.013251615929252961 -0.0067501486072109804 0.0027667343777676035 -0.010815007210169968 0.019177327169613404 0.00354904645226068 -0.0058183796843513848 -0.010744622711522076 0.0083182194441753007 0.0064542043954133989 0.010275464628357441 -0.0020453939121216529 0.010191815875862775 -0.0038103566326967934 0.0044812685996294026
leaf_weight=9.9999999999999982 17 9.9999999999999982 10.999999999999998 18 17 18 13.000000000000002 19 10.999999999999998 18 9.9999999999999982 12.999999999999998 19 12.999999999999998 9.9999999999999982 10.000000000000002 19 17 9.9999999999999982
leaf_count=10 17 10 11 18 17 18 13 19 11 18 10 13 19 13 10 10 19 17 10
internal_value=0 0.00231563 0.0011895 -0.00704614 -0.00334582 0.00296499 -0.0014534 -0.000470846 0.00763994 0.00975996 0.00123819 -0.00398894 0.00276522 0.00385175 0.00243737 0.000869747 0.0069602 -0.00109236 0.00121794
internal_weight=0 213 203 70 53 35 144 134 59 48 115 26 89 79 60 50 37 37 20
internal_count=283 213 203 70 53 35 144 134 59 48 115 26 89 79 60 50 37 37 20
is_linear=0
shrinkage=0.05


end of trees

feature_importances:
Column_1=134
Column_9=99
Column_0=92
Column_6=80
Column_4=79
Column_3=74
Column_7=73
Column_5=67
Column_8=67
Column_2=60

parameters:
[boosting: gbdt]
[objective: regression]
[metric: rmse]
[tree_learner: serial]
[device_type: cpu]
[linear_tree: 0]
[data: ]
[valid: ]
[num_iterations: 10000]
[learning_rate: 0.05]
[num_leaves: 63]
[num_threads: 0]
[deterministic: 0]
[force_col_wise: 0]
[force_row_wise: 0]
[histogram_pool_size: -1]
[max_depth: -1]
[min_data_in_leaf: 10]
[min_sum_hessian_in_leaf: 0.001]
[bagging_fraction: 0.9]
[pos_bagging_fraction: 1]
[neg_bagging_fraction: 1]
[bagging_freq: 0]
[bagging_seed: 28693]
[feature_fraction: 0.9]
[feature_fraction_bynode: 1]
[feature_fraction_seed: 24449]
[extra_trees: 0]
[extra_seed: 31430]
[early_stopping_round: 50]
[first_metric_only: 0]
[max_delta_step: 0]
[lambda_l1: 0]
[lambda_l2: 0]
[linear_lambda: 0]
[min_gain_to_split: 0]
[drop_rate: 0.1]
[max_drop: 50]
[skip_drop: 0.5]
[xgboost_dart_mode: 0]
[uniform_drop: 0]
[drop_seed: 12255]
[top_rate: 0.2]
[other_rate: 0.1]
[min_data_per_group: 100]
[max_cat_threshold: 32]
[cat_l2: 10]
[cat_smooth: 10]
[max_cat_to_onehot: 4]
[top_k: 20]
[monotone_constraints: ]
[monotone_constraints_method: basic]
[monotone_penalty: 0]
[feature_contri: ]
[forcedsplits_filename: ]
[refit_decay_rate: 0.9]
[cegb_tradeoff: 1]
[cegb_penalty_split: 0]
[cegb_penalty_feature_lazy: ]
[cegb_penalty_feature_coupled: ]
[path_smooth: 0]
[interaction_constraints: ]
[verbosity: -1]
[saved_feature_importance_type: 0]
[max_bin: 255]
[max_bin_by_feature: ]
[min_data_in_bin: 3]
[bin_construct_sample_cnt: 200000]
[data_random_seed: 54]
[is_enable_sparse: 1]
[enable_bundle: 1]
[use_missing: 1]
[zero_as_missing: 0]
[feature_pre_filter: 1]
[pre_partition: 0]
[two_round: 0]
[header: 0]
[label_column: ]
[weight_column: ]
[group_column: ]
[ignore_column: ]
[categorical_feature: ]
[forcedbins_filename: ]
[objective_seed: 27660]
[num_class: 1]
[is_unbalance: 0]
[scale_pos_weight: 1]
[sigmoid: 1]
[boost_from_average: 1]
[reg_sqrt: 0]
[alpha: 0.9]
[fair_c: 1]
[poisson_max_delta_step: 0.7]
[tweedie_variance_power: 1.5]
[lambdarank_truncation_level: 30]
[lambdarank_norm: 1]
[label_gain: ]
[eval_at: ]
[multi_error_top_k: 1]
[auc_mu_weights: ]
[num_machines: 1]
[local_listen_port: 12400]
[time_out: 120]
[machine_list_filename: ]
[machines: ]
[gpu_platform_id: -1]
[gpu_device_id: -1]
[gpu_use_dp: 0]
[num_gpu: 1]

end of parameters

pandas_categorical:null
