tree
version=v3
num_class=1
num_tree_per_iteration=1
label_index=0
max_feature_idx=9
objective=regression
feature_names=Column_0 Column_1 Column_2 Column_3 Column_4 Column_5 Column_6 Column_7 Column_8 Column_9
feature_infos=[1:18] [1969:2013] [31.75:40.975000000000001] [20.324999999999999:25.25] [31.75:557] [60.75:88] [0.59999999999999998:5.0499999999999998] [2:5.7750000000000004] [4.7999999999999998:8.9499999999999993] [3:63]
tree_sizes=560 554 476 475 475 476 477 557 471 474 477 558 477 474 474 557 560 474 560 476 476 478 558 478 478 477 476 559 477 475 477 561 558 475 474 477 477 558 478 477 477 475 474 480 559 479 562 474 559 564 560 562 480 479 480 562 560 478 479 479 483 474 480 562 481 562 563 478 561 481 566 482 485 562 481 481 485 562 482

Tree=0
num_leaves=5
num_cat=0
split_feature=4 2 5 9
split_gain=29.9426 13.5324 4.20338 3.39291
threshold=270.37500000000006 35.38750000000001 72.875000000000014 9.5000000000000018
decision_type=2 2 2 2
left_child=1 -1 -3 -4
right_child=-2 2 3 -5
leaf_value=-0.028844402483002476 -0.066227354058314328 0.0050239562921785864 0.02274559342522663 0.055697088951904616
leaf_weight=52 55 51 63 62
leaf_count=52 55 51 63 62
internal_value=8.6715e-10 0.0159759 0.0292183 0.0390895
internal_weight=0 228 176 125
internal_count=283 228 176 125
is_linear=0
shrinkage=1


Tree=1
num_leaves=5
num_cat=0
split_feature=1 1 8 8
split_gain=45.9949 10.816 9.97096 3.45137
threshold=1989.5000000000002 2003.5000000000002 6.6875000000000009 6.7375000000000007
decision_type=2 2 2 2
left_child=2 3 -1 -2
right_child=1 -3 -4 -5
leaf_value=-0.07809098835790064 0.00039577751234173776 0.075936840020120147 -0.02156213180271415 0.037551509727723899
leaf_weight=50 50 50 83 50
leaf_count=50 50 50 83 50
internal_value=0 0.0379614 -0.0428136 0.0189736
internal_weight=0 150 133 100
internal_count=283 150 133 100
is_linear=0
shrinkage=0.1


Tree=2
num_leaves=4
num_cat=0
split_feature=1 5 2
split_gain=37.2559 13.0484 6.08942
threshold=1989.5000000000002 79.625000000000014 35.437500000000007
decision_type=2 2 2
left_child=2 -2 -1
right_child=1 -3 -4
leaf_value=-0.066100927934050563 0.055334255135044308 -0.0069275599886097165 -0.021924570043492748
leaf_weight=50 99 51 83
leaf_count=50 99 51 83
internal_value=0 0.0341652 -0.0385322
internal_weight=0 150 133
internal_count=283 150 133
is_linear=0
shrinkage=0.1


Tree=3
num_leaves=4
num_cat=0
split_feature=1 0 1
split_gain=30.4552 10.5444 7.47518
threshold=1991.5000000000002 10.500000000000002 2003.5000000000002
decision_type=2 2 2
left_child=1 -1 -2
right_child=2 -3 -4
leaf_value=-0.0070285968989416778 0.016156933493055831 -0.060959302652071216 0.064677583821117879
leaf_weight=79 87 67 50
leaf_count=79 87 67 50
internal_value=0 -0.0317776 0.0338652
internal_weight=0 146 137
internal_count=283 146 137
is_linear=0
shrinkage=0.1


Tree=4
num_leaves=4
num_cat=0
split_feature=1 5 0
split_gain=24.9024 10.311 6.97141
threshold=1989.5000000000002 79.625000000000014 10.500000000000002
decision_type=2 2 2
left_child=2 -2 -1
right_child=1 -3 -4
leaf_value=-0.010429297531178843 0.046750284646722401 -0.0085966407188999595 -0.056376067651283057
leaf_weight=72 99 51 61
leaf_count=72 99 51 61
internal_value=0 0.0279323 -0.0315026
internal_weight=0 150 133
internal_count=283 150 133
is_linear=0
shrinkage=0.1


Tree=5
num_leaves=4
num_cat=0
split_feature=1 5 8
split_gain=20.1709 8.35192 6.20913
threshold=1989.5000000000002 79.625000000000014 6.6875000000000009
decision_type=2 2 2
left_child=2 -2 -1
right_child=1 -3 -4
leaf_value=-0.056190725920721885 0.042075256940807604 -0.0077369772171711221 -0.011582267967737224
leaf_weight=50 99 51 83
leaf_count=50 99 51 83
internal_value=0 0.0251391 -0.0283524
internal_weight=0 150 133
internal_count=283 150 133
is_linear=0
shrinkage=0.1


Tree=6
num_leaves=4
num_cat=0
split_feature=1 8 1
split_gain=17.0248 12.4445 5.04782
threshold=1999.5000000000002 6.5163793105000005 1987.5000000000002
decision_type=2 2 2
left_child=1 -1 -3
right_child=-2 2 -4
leaf_value=-0.057844061623601353 0.040117722268325169 -0.016233218925820744 0.020338034474004348
leaf_weight=51 77 90 65
leaf_count=51 77 90 65
internal_value=0 -0.0149955 -0.000896887
internal_weight=0 206 155
internal_count=283 206 155
is_linear=0
shrinkage=0.1


Tree=7
num_leaves=5
num_cat=0
split_feature=1 8 1 6
split_gain=14.2676 17.0281 6.07095 3.16078
threshold=2003.5000000000002 6.4500000000000002 1979.5000000000002 1.5375000000000003
decision_type=2 2 2 2
left_child=1 -1 -3 -4
right_child=-2 2 3 -5
leaf_value=-0.061470088397275996 0.04847027534898371 -0.025766147486865523 -0.0026004564106921878 0.028639921175936858
leaf_weight=51 50 50 57 75
leaf_count=51 50 50 57 75
internal_value=0 -0.0104013 0.00390912 0.0151498
internal_weight=0 233 182 132
internal_count=283 233 182 132
is_linear=0
shrinkage=0.1


Tree=8
num_leaves=4
num_cat=0
split_feature=9 1 9
split_gain=13.7457 13.5618 10.303
threshold=6.5000000000000009 1994.5000000000002 19.500000000000004
decision_type=2 2 2
left_child=-1 2 -2
right_child=1 -3 -4
leaf_value=-0.03918819065233145 0.019349413942545652 0.040621675142381145 -0.0392537832291176
leaf_weight=68 60 95 60
leaf_count=68 60 95 60
internal_value=0 0.0123944 -0.00995218
internal_weight=0 215 120
internal_count=283 215 120
is_linear=0
shrinkage=0.1


Tree=9
num_leaves=4
num_cat=0
split_feature=9 9 3
split_gain=11.134 5.50445 1.58247
threshold=6.5000000000000009 12.000000000000002 22.187500000000004
decision_type=2 2 2
left_child=-1 -2 -3
right_child=1 2 -4
leaf_value=-0.035269371924154899 0.031333306408767782 -0.013900438174284225 0.0081605181255302323
leaf_weight=68 83 58 74
leaf_count=68 83 58 74
internal_value=0 0.011155 -0.00153293
internal_weight=0 215 132
internal_count=283 215 132
is_linear=0
shrinkage=0.1


Tree=10
num_leaves=4
num_cat=0
split_feature=1 8 6
split_gain=9.96551 7.24313 5.3957
threshold=1999.5000000000002 6.5375000000000005 1.5625000000000002
decision_type=2 2 2
left_child=1 -1 -3
right_child=-2 2 -4
leaf_value=-0.043332150253414553 0.030693379804104956 -0.023187636514945376 0.015064254738543961
leaf_weight=53 77 62 91
leaf_count=53 77 62 91
internal_value=0 -0.0114728 -0.000436512
internal_weight=0 206 153
internal_count=283 206 153
is_linear=0
shrinkage=0.1


Tree=11
num_leaves=5
num_cat=0
split_feature=4 1 6 1
split_gain=8.83563 6.93339 4.62496 2.56123
threshold=270.37500000000006 1985.5000000000002 1.9875000000000003 1998.5000000000002
decision_type=2 2 2 2
left_child=1 -1 3 -3
right_child=-2 2 -4 -5
leaf_value=-0.017520612579371247 -0.035975897239351816 -0.0072419937120153099 0.044712910958780695 0.023846633103236838
leaf_weight=70 55 53 52 53
leaf_count=70 55 53 52 53
internal_value=0 0.0086784 0.0202856 0.00830232
internal_weight=0 228 158 106
internal_count=283 228 158 106
is_linear=0
shrinkage=0.1


Tree=12
num_leaves=4
num_cat=0
split_feature=9 1 9
split_gain=8.19638 8.34686 6.80237
threshold=6.5000000000000009 1994.5000000000002 19.500000000000004
decision_type=2 2 2
left_child=-1 2 -2
right_child=1 -3 -4
leaf_value=-0.030260954596109085 0.015848539238795641 0.031715674621886333 -0.031769275953993203
leaf_weight=68 60 95 60
leaf_count=68 60 95 60
internal_value=0 0.00957091 -0.00796037
internal_weight=0 215 120
internal_count=283 215 120
is_linear=0
shrinkage=0.1


Tree=13
num_leaves=4
num_cat=0
split_feature=9 1 1
split_gain=6.63907 6.82375 0.997532
threshold=6.5000000000000009 1989.5000000000002 1999.5000000000002
decision_type=2 2 2
left_child=-1 -2 -3
right_child=1 2 -4
leaf_value=-0.027234859027050657 -0.01067047409920229 0.015135461070436847 0.033726329539692207
leaf_weight=68 99 54 62
leaf_count=68 99 54 62
internal_value=0 0.00861382 0.025072
internal_weight=0 215 116
internal_count=283 215 116
is_linear=0
shrinkage=0.1


Tree=14
num_leaves=4
num_cat=0
split_feature=8 1 0
split_gain=8.29697 4.45209 1.916
threshold=6.4500000000000002 1979.5000000000002 7.5000000000000009
decision_type=2 2 2
left_child=-1 -2 -3
right_child=1 2 -4
leaf_value=-0.030154280423902086 -0.016399688970297574 0.0059123433393736685 0.027609034526172319
leaf_weight=69 50 75 89
leaf_count=69 50 75 89
internal_value=0 0.00972264 0.0176868
internal_weight=0 214 164
internal_count=283 214 164
is_linear=0
shrinkage=0.1


Tree=15
num_leaves=5
num_cat=0
split_feature=4 2 4 2
split_gain=5.72603 3.04285 3.09694 2.44547
threshold=270.37500000000006 35.38750000000001 190.62500000000003 37.437500000000007
decision_type=2 2 2 2
left_child=1 -1 3 -3
right_child=-2 2 -4 -5
leaf_value=-0.01426703500059935 -0.028961415225639942 -0.0086456871595090405 0.034033000947651909 0.019350837219584114
leaf_weight=52 55 65 51 60
leaf_count=52 55 65 51 60
internal_value=0 0.00698631 0.0132657 0.00479264
internal_weight=0 228 176 125
internal_count=283 228 176 125
is_linear=0
shrinkage=0.1


Tree=16
num_leaves=5
num_cat=0
split_feature=8 0 0 2
split_gain=6.37124 1.87526 2.92709 1.14414
threshold=6.0921428570000007 7.5000000000000009 11.500000000000002 36.112500000000004
decision_type=2 2 2 2
left_child=-1 3 -3 -2
right_child=1 2 -4 -5
leaf_value=-0.032390067808330057 0.0075845906184986243 0.032438317283310675 0.0021506793184303923 -0.013601640017273334
leaf_weight=50 50 55 76 52
leaf_count=50 50 55 76 52
internal_value=0 0.00695066 0.0148669 -0.00321623
internal_weight=0 233 131 102
internal_count=283 233 131 102
is_linear=0
shrinkage=0.1


Tree=17
num_leaves=4
num_cat=0
split_feature=9 1 9
split_gain=5.6934 5.11356 5.30631
threshold=6.5000000000000009 1994.5000000000002 19.500000000000004
decision_type=2 2 2
left_child=-1 2 -2
right_child=1 -3 -4
leaf_value=-0.02522072137799114 0.015283266365595412 0.025309694371137184 -0.026773465347165865
leaf_weight=68 60 95 60
leaf_count=68 60 95 60
internal_value=0 0.00797679 -0.0057451
internal_weight=0 215 120
internal_count=283 215 120
is_linear=0
shrinkage=0.1


Tree=18
num_leaves=5
num_cat=0
split_feature=1 0 3 6
split_gain=4.65011 5.86875 9.56208 3.52497
threshold=2003.5000000000002 10.500000000000002 22.562500000000004 1.7875000000000003
decision_type=2 2 2 2
left_child=1 3 -3 -1
right_child=-2 2 -4 -5
leaf_value=-0.0055140265462299189 0.027671406345441941 0.0053120707986156713 -0.055111245506908747 0.02817698203659845
leaf_weight=75 50 55 50 53
leaf_count=75 50 55 50 53
internal_value=0 -0.00593807 -0.0234609 0.00843616
internal_weight=0 233 105 128
internal_count=283 233 105 128
is_linear=0
shrinkage=0.1


Tree=19
num_leaves=4
num_cat=0
split_feature=8 1 0
split_gain=5.10567 2.94841 1.59575
threshold=6.4500000000000002 1979.5000000000002 7.5000000000000009
decision_type=2 2 2
left_child=-1 -2 -3
right_child=1 2 -4
leaf_value=-0.023654589621161206 -0.013631119275465609 0.0033626024241093545 0.023163230020259874
leaf_weight=69 50 75 89
leaf_count=69 50 75 89
internal_value=0 0.00762695 0.0141081
internal_weight=0 214 164
internal_count=283 214 164
is_linear=0
shrinkage=0.1


Tree=20
num_leaves=4
num_cat=0
split_feature=8 1 4
split_gain=4.13559 2.57658 3.13764
threshold=6.4500000000000002 1995.5000000000002 177.12500000000003
decision_type=2 2 2
left_child=-1 2 -2
right_child=1 -3 -4
leaf_value=-0.021289130166658891 -0.016996775834228508 0.021802218246894579 0.013090012221890567
leaf_weight=69 66 75 73
leaf_count=69 66 75 73
internal_value=0 0.00686425 -0.0011958
internal_weight=0 214 139
internal_count=283 214 139
is_linear=0
shrinkage=0.1


Tree=21
num_leaves=4
num_cat=0
split_feature=9 5 7
split_gain=4.07582 2.10646 0.817001
threshold=6.5000000000000009 76.125000000000014 3.6375000000000006
decision_type=2 2 2
left_child=-1 2 -2
right_child=1 -3 -4
leaf_value=-0.021339256957392486 -0.010929688511116963 0.017769505530062211 0.0056707861848057269
leaf_weight=68 56 96 63
leaf_count=68 56 96 63
internal_value=0 0.00674916 -0.0021412
internal_weight=0 215 119
internal_count=283 215 119
is_linear=0
shrinkage=0.1


Tree=22
num_leaves=5
num_cat=0
split_feature=1 9 5 3
split_gain=3.7085 4.30215 1.59625 1.83973
threshold=1977.5000000000002 6.5000000000000009 78.375000000000014 22.837500000000002
decision_type=2 2 2 2
left_child=-1 -2 3 -3
right_child=1 2 -4 -5
leaf_value=-0.024711472600698472 -0.018300252991672285 -0.0053779351204389439 0.028017775117255311 0.018986281693454773
leaf_weight=50 58 61 51 63
leaf_count=50 58 61 51 63
internal_value=0 0.00530289 0.0131256 0.00700066
internal_weight=0 233 175 124
internal_count=283 233 175 124
is_linear=0
shrinkage=0.1


Tree=23
num_leaves=4
num_cat=0
split_feature=8 8 1
split_gain=3.57341 2.22327 3.44551
threshold=6.4500000000000002 6.7625000000000011 1994.5000000000002
decision_type=2 2 2
left_child=-1 -2 -3
right_child=1 2 -4
leaf_value=-0.019789312696219356 0.021984998040895223 -0.012310944673220588 0.018810855512154001
leaf_weight=69 64 92 58
leaf_count=69 64 92 58
internal_value=0 0.00638067 -0.000277182
internal_weight=0 214 150
internal_count=283 214 150
is_linear=0
shrinkage=0.1


Tree=24
num_leaves=4
num_cat=0
split_feature=0 3 0
split_gain=3.24495 8.53468 3.48569
threshold=10.500000000000002 22.912500000000005 6.5000000000000009
decision_type=2 2 2
left_child=2 -2 -1
right_child=1 -3 -4
leaf_value=-0.0028203244438689008 0.0095875252529417417 -0.044041489240014928 0.027232552947512329
leaf_weight=95 73 50 65
leaf_count=95 73 50 65
internal_value=0 -0.0122129 0.00938866
internal_weight=0 123 160
internal_count=283 123 160
is_linear=0
shrinkage=0.1


Tree=25
num_leaves=4
num_cat=0
split_feature=1 8 5
split_gain=3.22372 5.06565 2.87612
threshold=2003.5000000000002 6.4500000000000002 76.125000000000014
decision_type=2 2 2
left_child=1 -1 -3
right_child=-2 2 -4
leaf_value=-0.032798339309032171 0.023039771392941475 -0.010420591809223731 0.014759350131771499
leaf_weight=51 50 86 96
leaf_count=51 50 86 96
internal_value=0 -0.00494416 0.00286114
internal_weight=0 233 182
internal_count=283 233 182
is_linear=0
shrinkage=0.1


Tree=26
num_leaves=4
num_cat=0
split_feature=4 4 2
split_gain=2.62312 2.1149 2.85916
threshold=270.37500000000006 192.75000000000003 37.437500000000007
decision_type=2 2 2
left_child=1 2 -1
right_child=-2 -3 -4
leaf_value=-0.013646470217473722 -0.019602057371627204 0.018084544621953497 0.014459911372024018
leaf_weight=89 55 78 61
leaf_count=89 55 78 61
internal_value=0 0.00472857 -0.00221654
internal_weight=0 228 150
internal_count=283 228 150
is_linear=0
shrinkage=0.1


Tree=27
num_leaves=5
num_cat=0
split_feature=1 3 1 8
split_gain=2.53687 3.35306 1.28885 1.62169
threshold=1977.5000000000002 23.562500000000004 1989.5000000000002 6.7375000000000007
decision_type=2 2 2 2
left_child=-1 2 -2 -4
right_child=1 -3 3 -5
leaf_value=-0.020438509857674945 0.00079292631082570383 -0.015536597440199508 0.030826972611248494 0.0058478227819446773
leaf_weight=50 67 62 53 51
leaf_count=50 67 62 53 51
internal_value=0 0.00438595 0.0116093 0.0185776
internal_weight=0 233 171 104
internal_count=283 233 171 104
is_linear=0
shrinkage=0.1


Tree=28
num_leaves=4
num_cat=0
split_feature=0 0 2
split_gain=2.35769 2.85795 1.47091
threshold=12.500000000000002 7.5000000000000009 35.937500000000007
decision_type=2 2 2
left_child=1 2 -1
right_child=-2 -3 -4
leaf_value=0.0086456043580546982 -0.01336618067179289 0.020542120917004615 -0.014407029518136575
leaf_weight=50 90 81 62
leaf_count=50 90 81 62
internal_value=0 0.00623293 -0.00411568
internal_weight=0 193 112
internal_count=283 193 112
is_linear=0
shrinkage=0.1


Tree=29
num_leaves=4
num_cat=0
split_feature=9 1 8
split_gain=2.40917 1.74193 1.46602
threshold=6.5000000000000009 1989.5000000000002 6.7375000000000007
decision_type=2 2 2
left_child=-1 -2 -3
right_child=1 2 -4
leaf_value=-0.016406082916792537 -0.0045544222102946166 0.025550241178522511 0.003012716085199387
leaf_weight=68 99 54 62
leaf_count=68 99 54 62
internal_value=0 0.0051889 0.0135043
internal_weight=0 215 116
internal_count=283 215 116
is_linear=0
shrinkage=0.1


Tree=30
num_leaves=4
num_cat=0
split_feature=0 3 0
split_gain=2.1435 6.56223 2.68311
threshold=10.500000000000002 22.912500000000005 6.5000000000000009
decision_type=2 2 2
left_child=2 -2 -1
right_child=1 -3 -4
leaf_value=-0.0030809527233635128 0.0091899551605097701 -0.03783538117818535 0.023286043765166631
leaf_weight=95 73 50 65
leaf_count=95 73 50 65
internal_value=0 -0.00992604 0.00763064
internal_weight=0 123 160
internal_count=283 123 160
is_linear=0
shrinkage=0.1


Tree=31
num_leaves=5
num_cat=0
split_feature=1 8 8 8
split_gain=2.28194 3.86935 2.48135 1.48484
threshold=2003.5000000000002 6.4500000000000002 6.7625000000000011 7.1375000000000011
decision_type=2 2 2 2
left_child=1 -1 -3 -4
right_child=-2 2 3 -5
leaf_value=-0.028503706248582106 0.019384377682581545 0.019953139008660067 -0.017720208537799341 0.0042821471641679675
leaf_weight=51 50 57 54 71
leaf_count=51 50 57 54 71
internal_value=0 -0.00415974 0.00266192 -0.00522287
internal_weight=0 233 182 125
internal_count=283 233 182 125
is_linear=0
shrinkage=0.1


Tree=32
num_leaves=5
num_cat=0
split_feature=1 5 8 5
split_gain=1.90423 1.52547 1.43349 1.0501
threshold=1977.5000000000002 79.875000000000014 6.624074074000001 74.875000000000014
decision_type=2 2 2 2
left_child=-1 2 -2 -4
right_child=1 -3 3 -5
leaf_value=-0.017707593055441975 -0.004348584895201942 -0.0097870808882928907 0.0057360744885153192 0.024854152086274034
leaf_weight=50 57 61 59 56
leaf_count=50 57 61 59 56
internal_value=0 0.00379991 0.00861856 0.0150457
internal_weight=0 233 172 115
internal_count=283 233 172 115
is_linear=0
shrinkage=0.1


Tree=33
num_leaves=4
num_cat=0
split_feature=1 6 3
split_gain=1.8491 1.80457 1.68963
threshold=2003.5000000000002 1.7875000000000003 22.437500000000004
decision_type=2 2 2
left_child=1 2 -1
right_child=-2 -3 -4
leaf_value=0.0026176098576289114 0.01744938610866666 0.0077613252345039409 -0.019254344091909431
leaf_weight=59 50 86 88
leaf_count=59 50 86 88
internal_value=0 -0.0037445 -0.0104758
internal_weight=0 233 147
internal_count=283 233 147
is_linear=0
shrinkage=0.1


Tree=34
num_leaves=4
num_cat=0
split_feature=8 8 1
split_gain=1.6555 1.2527 2.02506
threshold=6.4500000000000002 6.7625000000000011 1994.5000000000002
decision_type=2 2 2
left_child=-1 -2 -3
right_child=1 2 -4
leaf_value=-0.013469588626985966 0.016056087558536093 -0.0098801664944798903 0.01397909282642449
leaf_weight=69 64 92 58
leaf_count=69 64 92 58
internal_value=0 0.004343 -0.000654586
internal_weight=0 214 150
internal_count=283 214 150
is_linear=0
shrinkage=0.1


Tree=35
num_leaves=4
num_cat=0
split_feature=0 3 0
split_gain=1.62836 5.04634 2.0253
threshold=10.500000000000002 22.912500000000005 6.5000000000000009
decision_type=2 2 2
left_child=2 -2 -1
right_child=1 -3 -4
leaf_value=-0.0026555426183499792 0.0081118252810907284 -0.033125856932252645 0.02025240256952552
leaf_weight=95 73 50 65
leaf_count=95 73 50 65
internal_value=0 -0.00865146 0.00665081
internal_weight=0 123 160
internal_count=283 123 160
is_linear=0
shrinkage=0.1


Tree=36
num_leaves=4
num_cat=0
split_feature=1 8 5
split_gain=1.49218 2.44697 1.91394
threshold=2003.5000000000002 6.4500000000000002 76.125000000000014
decision_type=2 2 2
left_child=1 -1 -3
right_child=-2 2 -4
leaf_value=-0.02272294327324512 0.015675087518524377 -0.0087735876256903236 0.011767127927062878
leaf_weight=51 50 86 96
leaf_count=51 50 86 96
internal_value=0 -0.00336375 0.00206108
internal_weight=0 233 182
internal_count=283 233 182
is_linear=0
shrinkage=0.1


Tree=37
num_leaves=5
num_cat=0
split_feature=1 3 0 3
split_gain=1.353 2.08464 1.14991 0.647343
threshold=1977.5000000000002 23.562500000000004 13.500000000000002 22.912500000000005
decision_type=2 2 2 2
left_child=-1 2 3 -2
right_child=1 -3 -4 -5
leaf_value=-0.01492617023549974 -0.0041308041351536913 -0.012505655819099518 0.020196965523064138 0.011113200450423532
leaf_weight=50 60 62 59 52
leaf_count=50 60 62 59 52
internal_value=0 0.00320304 0.00889859 0.00294677
internal_weight=0 233 171 112
internal_count=283 233 171 112
is_linear=0
shrinkage=0.1


Tree=38
num_leaves=4
num_cat=0
split_feature=0 0 2
split_gain=1.47905 2.17918 1.30991
threshold=12.500000000000002 7.5000000000000009 35.937500000000007
decision_type=2 2 2
left_child=1 2 -1
right_child=-2 -3 -4
leaf_value=0.0079428697116672997 -0.010586565838505826 0.017431672690091309 -0.013811581959617476
leaf_weight=50 90 81 62
leaf_count=50 90 81 62
internal_value=0 0.00493674 -0.00409977
internal_weight=0 193 112
internal_count=283 193 112
is_linear=0
shrinkage=0.1


Tree=39
num_leaves=4
num_cat=0
split_feature=0 3 3
split_gain=1.28432 3.8901 1.8757
threshold=9.5000000000000018 22.987500000000001 23.387500000000003
decision_type=2 2 2
left_child=2 -2 -1
right_child=1 -3 -4
leaf_value=-0.0036658935918949726 0.0061733871476636051 -0.028839058611615034 0.018982282955425256
leaf_weight=82 84 51 66
leaf_count=82 84 51 66
internal_value=0 -0.00705354 0.00643397
internal_weight=0 135 148
internal_count=283 135 148
is_linear=0
shrinkage=0.1


Tree=40
num_leaves=4
num_cat=0
split_feature=9 6 9
split_gain=1.40536 1.01507 0.732171
threshold=6.5000000000000009 1.2875000000000003 12.000000000000002
decision_type=2 2 2
left_child=-1 -2 -3
right_child=1 2 -4
leaf_value=-0.012530404646702879 -0.008049786623286188 0.015133902836206593 0.0016513050054788763
leaf_weight=68 53 75 87
leaf_count=68 53 75 87
internal_value=0 0.0039631 0.00789325
internal_weight=0 215 162
internal_count=283 215 162
is_linear=0
shrinkage=0.1


Tree=41
num_leaves=4
num_cat=0
split_feature=1 0 0
split_gain=1.20028 2.43953 2.4052
threshold=2003.5000000000002 12.500000000000002 8.5000000000000018
decision_type=2 2 2
left_child=1 2 -1
right_child=-2 -3 -4
leaf_value=-0.0051351829246636862 0.01405854026786983 -0.01730323784241948 0.020844226744624654
leaf_weight=98 50 79 56
leaf_count=98 50 79 56
internal_value=0 -0.00301685 0.00431188
internal_weight=0 233 154
internal_count=283 233 154
is_linear=0
shrinkage=0.1


Tree=42
num_leaves=4
num_cat=0
split_feature=2 3 0
split_gain=1.09259 4.99229 2.69711
threshold=36.13750000000001 22.762500000000003 7.5000000000000009
decision_type=2 2 2
left_child=1 -1 -2
right_child=2 -3 -4
leaf_value=0.013539616913498212 -0.010887320219938245 -0.024139989738516207 0.01731273053636298
leaf_weight=67 56 74 86
leaf_count=67 56 74 86
internal_value=0 -0.0062355 0.00619158
internal_weight=0 141 142
internal_count=283 141 142
is_linear=0
shrinkage=0.1


Tree=43
num_leaves=4
num_cat=0
split_feature=1 9 2
split_gain=1.11227 1.56397 0.981792
threshold=1977.5000000000002 6.5000000000000009 36.587500000000013
decision_type=2 2 2
left_child=-1 -2 -3
right_child=1 2 -4
leaf_value=-0.013533325046300887 -0.011327058485917876 0.014899894673791199 -8.6527500739868956e-05
leaf_weight=50 58 90 85
leaf_count=50 58 90 85
internal_value=0 0.00290415 0.00762078
internal_weight=0 233 175
internal_count=283 233 175
is_linear=0
shrinkage=0.1


Tree=44
num_leaves=5
num_cat=0
split_feature=4 4 7 1
split_gain=1.01971 1.62124 1.20169 1.19568
threshold=270.37500000000006 210.12500000000003 3.9875000000000003 1994.5000000000002
decision_type=2 2 2 2
left_child=1 2 3 -1
right_child=-2 -3 -4 -5
leaf_value=-0.0051208073406347207 -0.01222170082682913 0.018270995631541633 -0.014794671727810056 0.014582197118381207
leaf_weight=70 55 53 50 55
leaf_count=70 55 53 50 55
internal_value=0 0.00294822 -0.0016924 0.00354851
internal_weight=0 228 175 125
internal_count=283 228 175 125
is_linear=0
shrinkage=0.1


Tree=45
num_leaves=4
num_cat=0
split_feature=0 3 3
split_gain=1.07295 2.79305 1.54042
threshold=9.5000000000000018 22.987500000000001 23.387500000000003
decision_type=2 2 2
left_child=2 -2 -1
right_child=1 -3 -4
leaf_value=-0.0032720601413308119 0.0047606997003424023 -0.024906820964579489 0.017252394434233959
leaf_weight=82 84 51 66
leaf_count=82 84 51 66
internal_value=0 -0.00644703 0.00588074
internal_weight=0 135 148
internal_count=283 135 148
is_linear=0
shrinkage=0.1


Tree=46
num_leaves=5
num_cat=0
split_feature=0 0 3 2
split_gain=0.912833 2.19539 1.63357 0.752726
threshold=11.500000000000002 8.5000000000000018 22.512500000000003 35.937500000000007
decision_type=2 2 2 2
left_child=1 3 -2 -1
right_child=2 -3 -4 -5
leaf_value=0.0068387886956334121 0.0046151801960712131 0.021900396301027608 -0.0202307338077648 -0.0089595678271603245
leaf_weight=50 55 51 51 76
leaf_count=50 55 51 51 76
internal_value=0 0.0043951 -0.00733899 -0.00269038
internal_weight=0 177 106 126
internal_count=283 177 106 126
is_linear=0
shrinkage=0.1


Tree=47
num_leaves=4
num_cat=0
split_feature=2 3 3
split_gain=1.01389 3.57379 2.67693
threshold=36.13750000000001 22.762500000000003 22.887500000000003
decision_type=2 2 2
left_child=1 -1 -2
right_child=2 -3 -4
leaf_value=0.010724743985251259 -0.012660044053569436 -0.021155448738254319 0.016086386436464914
leaf_weight=67 50 74 92
leaf_count=67 50 74 92
internal_value=0 -0.0060067 0.0059644
internal_weight=0 141 142
internal_count=283 141 142
is_linear=0
shrinkage=0.1


Tree=48
num_leaves=5
num_cat=0
split_feature=1 0 8 2
split_gain=0.872264 1.4376 1.83695 1.02515
threshold=1977.5000000000002 13.500000000000002 6.5375000000000005 36.13750000000001
decision_type=2 2 2 2
left_child=-1 2 -2 -4
right_child=1 -3 3 -5
leaf_value=-0.011984603445976974 -0.018056462045905053 0.015616784932752771 -0.0063372956447128679 0.012410483614325391
leaf_weight=50 51 62 50 70
leaf_count=50 51 62 50 70
internal_value=0 0.0025718 -0.00215796 0.00459891
internal_weight=0 233 171 120
internal_count=283 233 171 120
is_linear=0
shrinkage=0.1


Tree=49
num_leaves=5
num_cat=0
split_feature=0 0 3 5
split_gain=0.894331 1.84076 1.23381 0.509252
threshold=11.500000000000002 7.5000000000000009 22.512500000000003 77.875000000000014
decision_type=2 2 2 2
left_child=1 3 -2 -1
right_child=2 -3 -4 -5
leaf_value=0.0026368789705297642 0.0031247863512147561 0.017736750997316378 -0.018468072778983591 -0.010927336266264319
leaf_weight=62 55 65 51 50
leaf_count=62 55 65 51 50
internal_value=0 0.00435033 -0.00726423 -0.00341857
internal_weight=0 177 106 112
internal_count=283 177 106 112
is_linear=0
shrinkage=0.1


Tree=50
num_leaves=5
num_cat=0
split_feature=1 4 7 2
split_gain=0.80438 1.15214 1.6421 0.115435
threshold=2002.5000000000002 182.62500000000003 4.0375000000000005 36.937500000000007
decision_type=2 2 2 2
left_child=1 3 -3 -1
right_child=-2 2 -4 -5
leaf_value=-0.014058542307466268 0.010854842495173217 -0.0095944064470973832 0.01334024213657186 -0.0072633833326399338
leaf_weight=50 55 54 74 50
leaf_count=50 55 54 74 50
internal_value=0 -0.00261849 0.00366469 -0.010661
internal_weight=0 228 128 100
internal_count=283 228 128 100
is_linear=0
shrinkage=0.1


Tree=51
num_leaves=5
num_cat=0
split_feature=4 4 7 1
split_gain=0.8794 1.22345 0.964791 0.918867
threshold=270.37500000000006 210.12500000000003 3.9625000000000008 1994.5000000000002
decision_type=2 2 2 2
left_child=1 2 3 -1
right_child=-2 -3 -4 -5
leaf_value=-0.0040265620254692344 -0.011349746225909754 0.016048738710529541 -0.012408002825557358 0.013537570992308968
leaf_weight=68 55 53 54 53
leaf_count=68 55 53 54 53
internal_value=0 0.00273788 -0.00129341 0.00366682
internal_weight=0 228 175 121
internal_count=283 228 175 121
is_linear=0
shrinkage=0.1


Tree=52
num_leaves=4
num_cat=0
split_feature=0 0 3
split_gain=0.838884 2.02581 1.00677
threshold=9.5000000000000018 13.500000000000002 23.387500000000003
decision_type=2 2 2
left_child=2 -2 -1
right_child=1 -3 -4
leaf_value=-0.0021995783801241667 -0.019396410320381016 0.0052560198356707893 0.014393159528404025
leaf_weight=82 60 75 66
leaf_count=82 60 75 66
internal_value=0 -0.00570062 0.00519989
internal_weight=0 135 148
internal_count=283 135 148
is_linear=0
shrinkage=0.1


Tree=53
num_leaves=4
num_cat=0
split_feature=0 0 2
split_gain=0.739151 1.28489 1.25901
threshold=12.500000000000002 7.5000000000000009 35.937500000000007
decision_type=2 2 2
left_child=1 2 -1
right_child=-2 -3 -4
leaf_value=0.0083574576722458011 -0.007483950209700399 0.013084381164546001 -0.012970196960809373
leaf_weight=50 90 81 62
leaf_count=50 90 81 62
internal_value=0 0.00348993 -0.00344892
internal_weight=0 193 112
internal_count=283 193 112
is_linear=0
shrinkage=0.1


Tree=54
num_leaves=4
num_cat=0
split_feature=9 0 8
split_gain=0.764409 0.954401 1.03246
threshold=6.5000000000000009 5.5000000000000009 6.7375000000000007
decision_type=2 2 2
left_child=-1 -2 -3
right_child=1 2 -4
leaf_value=-0.0092413277310055605 0.013389210005792143 0.008113003362703956 -0.008473320854506616
leaf_weight=68 62 66 87
leaf_count=68 62 66 87
internal_value=0 0.00292284 -0.00131844
internal_weight=0 215 153
internal_count=283 215 153
is_linear=0
shrinkage=0.1


Tree=55
num_leaves=5
num_cat=0
split_feature=4 4 1 3
split_gain=0.683424 0.99321 0.651621 0.4187
threshold=270.37500000000006 204.00000000000003 1999.5000000000002 23.237500000000004
decision_type=2 2 2 2
left_child=1 2 3 -1
right_child=-2 -3 -4 -5
leaf_value=-0.0002854676347281506 -0.01000547774813392 0.013584049546428152 0.0080933583863079545 -0.012244215769729075
leaf_weight=67 55 59 50 52
leaf_count=67 55 59 50 52
internal_value=0 0.0024136 -0.00148614 -0.00551114
internal_weight=0 228 169 119
internal_count=283 228 169 119
is_linear=0
shrinkage=0.1


Tree=56
num_leaves=5
num_cat=0
split_feature=3 1 7 4
split_gain=0.639535 1.1801 1.17757 0.659569
threshold=23.562500000000004 1988.5000000000002 3.7625000000000006 190.62500000000003
decision_type=2 2 2 2
left_child=1 2 -1 -3
right_child=-2 3 -4 -5
leaf_value=0.0055431743618100885 -0.0082923887403947971 0.0025659801932705339 -0.015742520158927815 0.018140126925964766
leaf_weight=53 70 57 51 52
leaf_count=53 70 57 51 52
internal_value=0 0.0027252 -0.004895 0.00999585
internal_weight=0 213 104 109
internal_count=283 213 104 109
is_linear=0
shrinkage=0.1


Tree=57
num_leaves=4
num_cat=0
split_feature=2 9 3
split_gain=0.707099 3.04248 2.08065
threshold=36.13750000000001 9.5000000000000018 22.887500000000003
decision_type=2 2 2
left_child=1 -1 -2
right_child=2 -3 -4
leaf_value=-0.022848553069911362 -0.011438729785382748 0.0070841943301881358 0.013904692228939182
leaf_weight=57 50 84 92
leaf_count=57 50 84 92
internal_value=0 -0.00501628 0.00498095
internal_weight=0 141 142
internal_count=283 141 142
is_linear=0
shrinkage=0.1


Tree=58
num_leaves=4
num_cat=0
split_feature=0 0 2
split_gain=0.626712 1.31481 0.835701
threshold=12.500000000000002 8.5000000000000018 36.63750000000001
decision_type=2 2 2
left_child=1 2 -1
right_child=-2 -3 -4
leaf_value=0.004837196252618069 -0.0068912543977300332 0.014532333987056098 -0.011483823716387911
leaf_weight=67 90 67 59
leaf_count=67 90 67 59
internal_value=0 0.00321354 -0.00280519
internal_weight=0 193 126
internal_count=283 193 126
is_linear=0
shrinkage=0.1


Tree=59
num_leaves=4
num_cat=0
split_feature=2 8 7
split_gain=0.647601 0.769243 1.16807
threshold=35.38750000000001 6.624074074000001 3.6875000000000004
decision_type=2 2 2
left_child=-1 -2 -3
right_child=1 2 -4
leaf_value=-0.0075542914686885509 -0.0068132437216199679 -0.0026525534311076628 0.015332807475918687
leaf_weight=81 57 68 77
leaf_count=81 57 68 77
internal_value=0 0.0030292 0.00689829
internal_weight=0 202 145
internal_count=283 202 145
is_linear=0
shrinkage=0.1


Tree=60
num_leaves=4
num_cat=0
split_feature=3 3 9
split_gain=0.569208 0.631853 0.761169
threshold=23.512500000000003 22.187500000000004 9.5000000000000018
decision_type=2 2 2
left_child=1 -1 -3
right_child=-2 2 -4
leaf_value=-0.0052356045242049733 -0.0068448739260544679 -0.0029263504385016858 0.012657268361311123
leaf_weight=64 85 50 84
leaf_count=64 85 50 84
internal_value=0 0.00293846 0.00684249
internal_weight=0 198 134
internal_count=283 198 134
is_linear=0
shrinkage=0.1


Tree=61
num_leaves=4
num_cat=0
split_feature=2 9 3
split_gain=0.529432 2.4483 1.70668
threshold=36.13750000000001 9.5000000000000018 22.887500000000003
decision_type=2 2 2
left_child=1 -1 -2
right_child=2 -3 -4
leaf_value=-0.020337055154602258 -0.010561014264822007 0.0065141961322210369 0.012392070237041006
leaf_weight=57 50 84 92
leaf_count=57 50 84 92
internal_value=0 -0.00434057 0.00431
internal_weight=0 141 142
internal_count=283 141 142
is_linear=0
shrinkage=0.1


Tree=62
num_leaves=4
num_cat=0
split_feature=8 3 1
split_gain=0.517448 0.93144 1.05509
threshold=7.3125000000000009 23.537500000000005 1988.5000000000002
decision_type=2 2 2
left_child=1 2 -1
right_child=-2 -3 -4
leaf_value=-0.006677423956571147 0.0092306702518835659 -0.012716938133041065 0.0089857706559761871
leaf_weight=80 50 60 93
leaf_count=80 50 60 93
internal_value=0 -0.00198083 0.00174267
internal_weight=0 233 173
internal_count=283 233 173
is_linear=0
shrinkage=0.1


Tree=63
num_leaves=5
num_cat=0
split_feature=0 0 2 2
split_gain=0.558098 1.73547 1.01867 0.788821
threshold=11.500000000000002 8.5000000000000018 36.13750000000001 36.63750000000001
decision_type=2 2 2 2
left_child=1 3 -2 -1
right_child=2 -3 -4 -5
leaf_value=0.0045618023695563207 -0.015541550840409297 0.019000623072041017 0.0040646253144895695 -0.011294839215480676
leaf_weight=67 53 51 53 59
leaf_count=67 53 51 53 59
internal_value=0 0.00343659 -0.00573846 -0.00286313
internal_weight=0 177 106 126
internal_count=283 177 106 126
is_linear=0
shrinkage=0.1


Tree=64
num_leaves=4
num_cat=0
split_feature=0 0 0
split_gain=0.503671 1.55133 0.903461
threshold=9.5000000000000018 13.500000000000002 6.5000000000000009
decision_type=2 2 2
left_child=2 -2 -1
right_child=1 -3 -4
leaf_value=-0.0018066174321268735 -0.016402219252195212 0.0051708653370539353 0.014489564999832578
leaf_weight=95 60 75 53
leaf_count=95 60 75 53
internal_value=0 -0.00441717 0.00402918
internal_weight=0 135 148
internal_count=283 135 148
is_linear=0
shrinkage=0.1


Tree=65
num_leaves=5
num_cat=0
split_feature=1 0 8 2
split_gain=0.457085 1.01508 0.871156 0.7712
threshold=1977.5000000000002 13.500000000000002 6.5375000000000005 36.13750000000001
decision_type=2 2 2 2
left_child=-1 2 -2 -4
right_child=1 -3 3 -5
leaf_value=-0.008675570443272591 -0.013061205564322427 0.012823346161073255 -0.0069449896141886708 0.0093157424604786293
leaf_weight=50 51 62 50 70
leaf_count=50 51 62 50 70
internal_value=0 0.00186171 -0.00211268 0.00254044
internal_weight=0 233 171 120
internal_count=283 233 171 120
is_linear=0
shrinkage=0.1


Tree=66
num_leaves=5
num_cat=0
split_feature=0 0 3 2
split_gain=0.533717 1.50271 0.816949 0.775186
threshold=11.500000000000002 8.5000000000000018 22.512500000000003 36.63750000000001
decision_type=2 2 2 2
left_child=1 3 -2 -1
right_child=2 -3 -4 -5
leaf_value=0.0048590981156509654 0.0028420079838145863 0.017843466688531869 -0.014728481848450268 -0.01085990199787637
leaf_weight=67 55 51 51 59
leaf_count=67 55 51 51 59
internal_value=0 0.00336069 -0.00561172 -0.00250139
internal_weight=0 177 106 126
internal_count=283 177 106 126
is_linear=0
shrinkage=0.1


Tree=67
num_leaves=4
num_cat=0
split_feature=0 3 8
split_gain=0.446537 1.14272 0.91534
threshold=9.5000000000000018 22.987500000000001 6.8147727275000012
decision_type=2 2 2
left_child=2 -2 -1
right_child=1 -3 -4
leaf_value=0.014169714739546181 0.003009722528180906 -0.015966573967507072 -0.0021668729347553341
leaf_weight=54 84 51 94
leaf_count=54 84 51 94
internal_value=0 -0.0041591 0.00379377
internal_weight=0 135 148
internal_count=283 135 148
is_linear=0
shrinkage=0.1


Tree=68
num_leaves=5
num_cat=0
split_feature=2 0 0 2
split_gain=0.473823 0.861642 1.64215 1.10747
threshold=37.737500000000004 12.500000000000002 8.5000000000000018 35.937500000000007
decision_type=2 2 2 2
left_child=1 2 3 -1
right_child=-2 -3 -4 -5
leaf_value=0.00590958381164819 0.0088329943325370554 -0.010635837128287869 0.016868291385113622 -0.014653753870251505
leaf_weight=50 50 76 52 55
leaf_count=50 50 76 52 55
internal_value=0 -0.00189549 0.0023355 -0.00486169
internal_weight=0 233 157 105
internal_count=283 233 157 105
is_linear=0
shrinkage=0.1


Tree=69
num_leaves=4
num_cat=0
split_feature=2 6 1
split_gain=0.445245 0.940817 1.11129
threshold=35.437500000000007 1.9875000000000003 1994.5000000000002
decision_type=2 2 2
left_child=-1 2 -2
right_child=1 -3 -4
leaf_value=-0.0059044864335605369 -0.012437218202720002 0.012265287261497953 0.0062553109055759545
leaf_weight=88 59 67 69
leaf_count=88 59 67 69
internal_value=0 0.00266459 -0.00236078
internal_weight=0 195 128
internal_count=283 195 128
is_linear=0
shrinkage=0.1


Tree=70
num_leaves=5
num_cat=0
split_feature=8 0 0 8
split_gain=0.402001 0.80334 0.889596 1.73946
threshold=7.3125000000000009 13.500000000000002 9.5000000000000018 6.8147727275000012
decision_type=2 2 2 2
left_child=1 2 3 -1
right_child=-2 -3 -4 -5
leaf_value=0.012785993710901864 0.0081360411983914683 0.0078995955073171194 -0.015505746692182139 -0.012052418731184582
leaf_weight=54 50 63 57 59
leaf_count=54 50 63 57 59
internal_value=0 -0.00174593 -0.00532045 -0.000182735
internal_weight=0 233 170 113
internal_count=283 233 170 113
is_linear=0
shrinkage=0.1


Tree=71
num_leaves=4
num_cat=0
split_feature=2 6 5
split_gain=0.347017 0.791227 0.930463
threshold=35.437500000000007 1.8875000000000002 75.625000000000014
decision_type=2 2 2
left_child=-1 2 -2
right_child=1 -3 -4
leaf_value=-0.0052126475387591527 0.0059252647675513744 0.010497732721017422 -0.011618400652403549
leaf_weight=88 62 74 59
leaf_count=88 62 74 59
internal_value=0 0.00235237 -0.00262908
internal_weight=0 195 121
internal_count=283 195 121
is_linear=0
shrinkage=0.1


Tree=72
num_leaves=4
num_cat=0
split_feature=4 1 7
split_gain=0.381558 0.795107 0.500603
threshold=239.37500000000003 2002.5000000000002 3.7625000000000006
decision_type=2 2 2
left_child=1 2 -1
right_child=-2 -3 -4
leaf_value=-0.00034667624564416991 0.0058491121808765464 0.0086426956544164574 -0.011792923954969926
leaf_weight=79 80 50 74
leaf_count=79 80 50 74
internal_value=0 -0.00230507 -0.00588277
internal_weight=0 203 153
internal_count=283 203 153
is_linear=0
shrinkage=0.1


Tree=73
num_leaves=5
num_cat=0
split_feature=0 0 2 2
split_gain=0.354181 1.23929 0.644474 0.613382
threshold=11.500000000000002 8.5000000000000018 36.63750000000001 36.13750000000001
decision_type=2 2 2 2
left_child=1 2 -1 -2
right_child=3 -3 -4 -5
leaf_value=0.0041254662762660139 -0.012178423269739691 0.015889931470155716 -0.010207118930579243 0.0030355412418567491
leaf_weight=67 53 51 59 53
leaf_count=67 53 51 59 53
internal_value=0 0.0027377 -0.00258582 -0.00457144
internal_weight=0 177 126 106
internal_count=283 177 126 106
is_linear=0
shrinkage=0.1


Tree=74
num_leaves=4
num_cat=0
split_feature=3 6 3
split_gain=0.38358 0.547915 1.27758
threshold=23.512500000000003 1.7625000000000002 22.262500000000003
decision_type=2 2 2
left_child=1 2 -1
right_child=-2 -3 -4
leaf_value=-0.0047202622876144377 -0.0056189831883153504 -0.0037798499931154931 0.016457059448917531
leaf_weight=52 85 83 63
leaf_count=52 85 83 63
internal_value=0 0.00241219 0.00688123
internal_weight=0 198 115
internal_count=283 198 115
is_linear=0
shrinkage=0.1


Tree=75
num_leaves=4
num_cat=0
split_feature=0 0 3
split_gain=0.355963 1.11025 0.682541
threshold=14.500000000000002 9.5000000000000018 23.387500000000003
decision_type=2 2 2
left_child=1 2 -1
right_child=-2 -3 -4
leaf_value=-0.0028264147439608124 0.0069853212138445211 -0.011539423728192395 0.010835651493680692
leaf_weight=82 58 77 66
leaf_count=82 58 77 66
internal_value=0 -0.00180066 0.00326613
internal_weight=0 225 148
internal_count=283 225 148
is_linear=0
shrinkage=0.1


Tree=76
num_leaves=4
num_cat=0
split_feature=3 8 1
split_gain=0.353547 0.487873 0.314997
threshold=23.512500000000003 6.5163793105000005 1987.5000000000002
decision_type=2 2 2
left_child=1 -1 -3
right_child=-2 2 -4
leaf_value=0.0099349090797921369 -0.0053945291853126362 0.0039461426854626664 -0.0055769337629768215
leaf_weight=59 85 68 71
leaf_count=59 85 68 71
internal_value=0 0.00231583 -0.000918163
internal_weight=0 198 139
internal_count=283 198 139
is_linear=0
shrinkage=0.1


Tree=77
num_leaves=5
num_cat=0
split_feature=8 4 2 9
split_gain=0.316495 0.5841 1.47126 0.702818
threshold=7.3125000000000009 270.37500000000006 37.07500000000001 9.5000000000000018
decision_type=2 2 2 2
left_child=1 2 3 -1
right_child=-2 -3 -4 -5
leaf_value=-0.013432110194116831 0.0072191069200634953 -0.011127853564918043 0.014926516031846405 0.0015298590001960597
leaf_weight=54 50 50 54 75
leaf_count=54 50 50 54 75
internal_value=0 -0.00154916 0.00106796 -0.00473329
internal_weight=0 233 183 129
internal_count=283 233 183 129
is_linear=0
shrinkage=0.1


Tree=78
num_leaves=4
num_cat=0
split_feature=4 7 7
split_gain=0.367854 0.567674 0.339528
threshold=239.37500000000003 4.0875000000000012 3.4875000000000003
decision_type=2 2 2
left_child=1 2 -1
right_child=-2 -3 -4
leaf_value=-0.0053882771288044752 0.0057431151531636719 -0.011392613618141589 0.004409558260764849
leaf_weight=56 80 51 96
leaf_count=56 80 51 96
internal_value=0 -0.0022633 0.000799829
internal_weight=0 203 152
internal_count=283 203 152
is_linear=0
shrinkage=0.1


end of trees

feature_importances:
Column_0=52
Column_1=48
Column_3=33
Column_8=32
Column_2=30
Column_9=21
Column_4=18
Column_5=12
Column_6=9
Column_7=9

parameters:
[boosting: gbdt]
[objective: regression]
[metric: rmse]
[tree_learner: serial]
[device_type: cpu]
[linear_tree: 0]
[data: ]
[valid: ]
[num_iterations: 10000]
[learning_rate: 0.1]
[num_leaves: 15]
[num_threads: 0]
[deterministic: 0]
[force_col_wise: 0]
[force_row_wise: 0]
[histogram_pool_size: -1]
[max_depth: -1]
[min_data_in_leaf: 50]
[min_sum_hessian_in_leaf: 0.001]
[bagging_fraction: 0.5]
[pos_bagging_fraction: 1]
[neg_bagging_fraction: 1]
[bagging_freq: 0]
[bagging_seed: 10961]
[feature_fraction: 0.8]
[feature_fraction_bynode: 1]
[feature_fraction_seed: 53]
[extra_trees: 0]
[extra_seed: 11644]
[early_stopping_round: 50]
[first_metric_only: 0]
[max_delta_step: 0]
[lambda_l1: 0]
[lambda_l2: 0]
[linear_lambda: 0]
[min_gain_to_split: 0]
[drop_rate: 0.1]
[max_drop: 50]
[skip_drop: 0.5]
[xgboost_dart_mode: 0]
[uniform_drop: 0]
[drop_seed: 30626]
[top_rate: 0.2]
[other_rate: 0.1]
[min_data_per_group: 100]
[max_cat_threshold: 32]
[cat_l2: 10]
[cat_smooth: 10]
[max_cat_to_onehot: 4]
[top_k: 20]
[monotone_constraints: ]
[monotone_constraints_method: basic]
[monotone_penalty: 0]
[feature_contri: ]
[forcedsplits_filename: ]
[refit_decay_rate: 0.9]
[cegb_tradeoff: 1]
[cegb_penalty_split: 0]
[cegb_penalty_feature_lazy: ]
[cegb_penalty_feature_coupled: ]
[path_smooth: 0]
[interaction_constraints: ]
[verbosity: -1]
[saved_feature_importance_type: 0]
[max_bin: 255]
[max_bin_by_feature: ]
[min_data_in_bin: 3]
[bin_construct_sample_cnt: 200000]
[data_random_seed: 4071]
[is_enable_sparse: 1]
[enable_bundle: 1]
[use_missing: 1]
[zero_as_missing: 0]
[feature_pre_filter: 1]
[pre_partition: 0]
[two_round: 0]
[header: 0]
[label_column: ]
[weight_column: ]
[group_column: ]
[ignore_column: ]
[categorical_feature: ]
[forcedbins_filename: ]
[objective_seed: 602]
[num_class: 1]
[is_unbalance: 0]
[scale_pos_weight: 1]
[sigmoid: 1]
[boost_from_average: 1]
[reg_sqrt: 0]
[alpha: 0.9]
[fair_c: 1]
[poisson_max_delta_step: 0.7]
[tweedie_variance_power: 1.5]
[lambdarank_truncation_level: 30]
[lambdarank_norm: 1]
[label_gain: ]
[eval_at: ]
[multi_error_top_k: 1]
[auc_mu_weights: ]
[num_machines: 1]
[local_listen_port: 12400]
[time_out: 120]
[machine_list_filename: ]
[machines: ]
[gpu_platform_id: -1]
[gpu_device_id: -1]
[gpu_use_dp: 0]
[num_gpu: 1]

end of parameters

pandas_categorical:null
