tree
version=v3
num_class=1
num_tree_per_iteration=1
label_index=0
max_feature_idx=9
objective=regression
feature_names=Column_0 Column_1 Column_2 Column_3 Column_4 Column_5 Column_6 Column_7 Column_8 Column_9
feature_infos=[1:18] [1969:2013] [31.75:40.975000000000001] [20.324999999999999:25.25] [31.75:557] [60.75:88] [0.59999999999999998:5.0499999999999998] [2:5.7750000000000004] [4.7999999999999998:8.9499999999999993] [3:63]
tree_sizes=560 558 475 477 478 478 479 476 557 478 479 481 559 558 561 479 481 479 563 478 558 480 477 560 481 562 561 480 478 476 480 478 478 478 479 479 563 478 478 477 478 562 560 475 563 559 561 566 479 481 565 560 479 558 482 479 562 478 479 562 482 564 480 480 479 481 563 479 480 481 565 478 564 482 565 478 567 481 566 483 481 563 565 482 567 479 562 480 564 480 480 481 480 481 567 477 482 566 481 567 572 481 569 485 484 565 481 568 481 482 482 568 483 567 481 570 482 567 483 483 485 486 570 568 486 484 569 570 564 570 569 487 487 486 480 486 486 485 572 565 571 487 573

Tree=0
num_leaves=5
num_cat=0
split_feature=4 2 5 9
split_gain=29.9426 13.5324 4.20338 3.39291
threshold=270.37500000000006 35.38750000000001 72.875000000000014 9.5000000000000018
decision_type=2 2 2 2
left_child=1 -1 -3 -4
right_child=-2 2 3 -5
leaf_value=-0.014422200807926153 -0.033113676595582078 0.0025119785796643788 0.0113727971461884 0.027848544909527394
leaf_weight=52 55 51 63 62
leaf_count=52 55 51 63 62
internal_value=8.6715e-10 0.00798795 0.0146091 0.0195448
internal_weight=0 228 176 125
internal_count=283 228 176 125
is_linear=0
shrinkage=1


Tree=1
num_leaves=5
num_cat=0
split_feature=1 1 8 8
split_gain=47.4869 11.0583 10.386 3.70268
threshold=1989.5000000000002 2003.5000000000002 6.6875000000000009 6.7375000000000007
decision_type=2 2 2 2
left_child=2 3 -1 -2
right_child=1 -3 -4 -5
leaf_value=-0.039753275619819763 6.5296541899442683e-05 0.038485307510942222 -0.010906606118464057 0.019307637088990304
leaf_weight=50 50 50 83 50
leaf_count=50 50 50 83 50
internal_value=0 0.0192861 -0.0217512 0.00968647
internal_weight=0 150 133 100
internal_count=283 150 133 100
is_linear=0
shrinkage=0.05


Tree=2
num_leaves=4
num_cat=0
split_feature=1 5 2
split_gain=42.8569 14.21 7.02952
threshold=1989.5000000000002 79.625000000000014 35.437500000000007
decision_type=2 2 2
left_child=2 -2 -1
right_child=1 -3 -4
leaf_value=-0.035473860034719105 0.029367369393150163 -0.0031196676313365794 -0.011741849587225996
leaf_weight=50 99 51 83
leaf_count=50 99 51 83
internal_value=0 0.0183218 -0.0206637
internal_weight=0 150 133
internal_count=283 150 133
is_linear=0
shrinkage=0.05


Tree=3
num_leaves=4
num_cat=0
split_feature=1 0 1
split_gain=38.7434 11.4803 8.55541
threshold=1991.5000000000002 10.500000000000002 2003.5000000000002
decision_type=2 2 2
left_child=1 -1 -2
right_child=2 -3 -4
leaf_value=-0.0050088951523309649 0.0096258758363881331 -0.033145484260853328 0.035579979529604316
leaf_weight=79 87 67 50
leaf_count=79 87 67 50
internal_value=0 -0.0179209 0.0190982
internal_weight=0 146 137
internal_count=283 146 137
is_linear=0
shrinkage=0.05


Tree=4
num_leaves=4
num_cat=0
split_feature=1 5 0
split_gain=35.2293 12.6629 8.63981
threshold=1989.5000000000002 79.625000000000014 10.500000000000002
decision_type=2 2 2
left_child=2 -2 -1
right_child=1 -3 -4
leaf_value=-0.0070048742643040096 0.027038509825878368 -0.0036291190162848902 -0.032579941810948441
leaf_weight=72 99 51 61
leaf_count=72 99 51 61
internal_value=0 0.0166115 -0.0187348
internal_weight=0 150 133
internal_count=283 150 133
is_linear=0
shrinkage=0.05


Tree=5
num_leaves=4
num_cat=0
split_feature=1 5 8
split_gain=31.7945 11.4283 8.25622
threshold=1989.5000000000002 79.625000000000014 6.6875000000000009
decision_type=2 2 2
left_child=2 -2 -1
right_child=1 -3 -4
leaf_value=-0.033848559881327671 0.025686584648586849 -0.0034476621746994084 -0.0081290730982121213
leaf_weight=50 99 51 83
leaf_count=50 99 51 83
internal_value=0 0.0157809 -0.0177981
internal_weight=0 150 133
internal_count=283 150 133
is_linear=0
shrinkage=0.05


Tree=6
num_leaves=4
num_cat=0
split_feature=1 0 5
split_gain=28.7282 9.12878 9.09864
threshold=1991.5000000000002 10.500000000000002 78.875000000000014
decision_type=2 2 2
left_child=1 -1 -2
right_child=2 -3 -4
leaf_value=-0.0039178103279275227 0.026368302349163611 -0.029007877228666903 -0.00028704278394762502
leaf_weight=79 86 67 51
leaf_count=79 86 67 51
internal_value=0 -0.0154317 0.0164455
internal_weight=0 146 137
internal_count=283 146 137
is_linear=0
shrinkage=0.05


Tree=7
num_leaves=4
num_cat=0
split_feature=1 5 8
split_gain=26.1364 9.42991 7.08633
threshold=1989.5000000000002 79.625000000000014 6.6875000000000009
decision_type=2 2 2
left_child=2 -2 -1
right_child=1 -3 -4
leaf_value=-0.031006818915717306 0.02330603362726209 -0.0031586566716249962 -0.0071790953570729996
leaf_weight=50 99 51 83
leaf_count=50 99 51 83
internal_value=0 0.014308 -0.0161369
internal_weight=0 150 133
internal_count=283 150 133
is_linear=0
shrinkage=0.05


Tree=8
num_leaves=5
num_cat=0
split_feature=1 1 8 8
split_gain=23.5881 8.55697 6.39542 2.23542
threshold=1989.5000000000002 2003.5000000000002 6.6875000000000009 6.7375000000000007
decision_type=2 2 2 2
left_child=2 3 -1 -2
right_child=1 -3 -4 -5
leaf_value=-0.029456478117033842 -0.0023274308238178491 0.030481459182221445 -0.0068201407947274572 0.01262388241989538
leaf_weight=50 50 50 83 50
leaf_count=50 50 50 83 50
internal_value=0 0.0135926 -0.01533 0.00514823
internal_weight=0 150 133 100
internal_count=283 150 133 100
is_linear=0
shrinkage=0.05


Tree=9
num_leaves=4
num_cat=0
split_feature=4 6 3
split_gain=17.8794 3.88601 2.16944
threshold=270.37500000000006 1.7875000000000003 23.387500000000003
decision_type=2 2 2
left_child=1 2 -1
right_child=-2 -3 -4
leaf_value=0.0056121125379689496 -0.025588170637122612 0.013896167741990404 -0.0075718381348997364
leaf_weight=83 55 95 50
leaf_count=83 55 95 50
internal_value=0 0.00617258 0.00065574
internal_weight=0 228 133
internal_count=283 228 133
is_linear=0
shrinkage=0.05


Tree=10
num_leaves=4
num_cat=0
split_feature=1 5 0
split_gain=21.0133 7.94448 5.85027
threshold=1989.5000000000002 79.625000000000014 10.500000000000002
decision_type=2 2 2
left_child=2 -2 -1
right_child=1 -3 -4
leaf_value=-0.0048168580138331493 0.021088265650200125 -0.0032027553550113795 -0.025862032968978411
leaf_weight=72 99 51 61
leaf_count=72 99 51 61
internal_value=0 0.0128293 -0.0144692
internal_weight=0 150 133
internal_count=283 150 133
is_linear=0
shrinkage=0.05


Tree=11
num_leaves=4
num_cat=0
split_feature=1 8 6
split_gain=19.2812 12.9961 6.92077
threshold=1999.5000000000002 6.5163793105000005 1.5625000000000002
decision_type=2 2 2
left_child=1 -1 -3
right_child=-2 2 -4
leaf_value=-0.029873047002554672 0.021346751486809999 -0.013715097945063346 0.0078512002378501883
leaf_weight=51 77 62 93
leaf_count=51 77 62 93
internal_value=0 -0.00797913 -0.000775319
internal_weight=0 206 155
internal_count=283 206 155
is_linear=0
shrinkage=0.05


Tree=12
num_leaves=5
num_cat=0
split_feature=1 1 0 8
split_gain=17.8774 6.83103 5.10133 1.67482
threshold=1989.5000000000002 2003.5000000000002 11.500000000000002 6.7375000000000007
decision_type=2 2 2 2
left_child=2 3 -1 -2
right_child=1 -3 -4 -5
leaf_value=-0.005745622846690647 -0.002182221719995141 0.026923169186804444 -0.025962481181370095 0.010759267441462725
leaf_weight=83 50 50 50 50
leaf_count=83 50 50 50 50
internal_value=0 0.0118334 -0.0133459 0.00428852
internal_weight=0 150 133 100
internal_count=283 150 133 100
is_linear=0
shrinkage=0.05


Tree=13
num_leaves=5
num_cat=0
split_feature=1 0 6 5
split_gain=16.1817 7.70088 7.1109 4.9122
threshold=1995.5000000000002 12.500000000000002 1.7875000000000003 78.625000000000014
decision_type=2 2 2 2
left_child=1 2 -1 -2
right_child=3 -3 -4 -5
leaf_value=-0.013146177014479272 0.025244162385270264 -0.024533226854870457 0.011660395215193813 0.0039930307006355954
leaf_weight=65 57 57 52 52
leaf_count=65 57 57 52 52
internal_value=0 -0.00946296 -0.00212103 0.015106
internal_weight=0 174 117 109
internal_count=283 174 117 109
is_linear=0
shrinkage=0.05


Tree=14
num_leaves=5
num_cat=0
split_feature=1 1 2 8
split_gain=14.9978 5.77967 4.55611 1.40853
threshold=1989.5000000000002 2003.5000000000002 35.437500000000007 6.7375000000000007
decision_type=2 2 2 2
left_child=2 3 -1 -2
right_child=1 -3 -4 -5
leaf_value=-0.024147173229604961 -0.0020355657227337362 0.024718574321828782 -0.0050412067083125739 0.0098325672866776594
leaf_weight=50 50 50 83 50
leaf_count=50 50 50 83 50
internal_value=0 0.0108385 -0.0122239 0.0038985
internal_weight=0 150 133 100
internal_count=283 150 133 100
is_linear=0
shrinkage=0.05


Tree=15
num_leaves=4
num_cat=0
split_feature=9 9 3
split_gain=13.9141 6.23654 2.1958
threshold=6.5000000000000009 12.000000000000002 22.187500000000004
decision_type=2 2 2
left_child=-1 -2 -3
right_child=1 2 -4
leaf_value=-0.019713733145309723 0.01697420725312802 -0.0078018132308176882 0.0051916190644889773
leaf_weight=68 83 58 74
leaf_count=68 83 58 74
internal_value=0 0.00623504 -0.000517616
internal_weight=0 215 132
internal_count=283 215 132
is_linear=0
shrinkage=0.05


Tree=16
num_leaves=4
num_cat=0
split_feature=9 9 3
split_gain=12.5575 5.62848 1.98171
threshold=6.5000000000000009 12.000000000000002 22.187500000000004
decision_type=2 2 2
left_child=-1 -2 -3
right_child=1 2 -4
leaf_value=-0.018728046213714957 0.016125496857833252 -0.0074117226083562221 0.0049320383305736896
leaf_weight=68 83 58 74
leaf_count=68 83 58 74
internal_value=0 0.00592329 -0.000491735
internal_weight=0 215 132
internal_count=283 215 132
is_linear=0
shrinkage=0.05


Tree=17
num_leaves=4
num_cat=0
split_feature=1 5 0
split_gain=13.1981 5.88378 4.00536
threshold=1989.5000000000002 79.625000000000014 11.500000000000002
decision_type=2 2 2
left_child=2 -2 -1
right_child=1 -3 -4
leaf_value=-0.0047324722038065816 0.017275013220073146 -0.0036295560311284101 -0.022646474831271919
leaf_weight=83 99 51 50
leaf_count=83 99 51 50
internal_value=0 0.0101675 -0.0114671
internal_weight=0 150 133
internal_count=283 150 133
is_linear=0
shrinkage=0.05


Tree=18
num_leaves=5
num_cat=0
split_feature=1 0 3 6
split_gain=12.3234 8.47957 10.7484 4.64347
threshold=2003.5000000000002 10.500000000000002 22.562500000000004 1.7875000000000003
decision_type=2 2 2 2
left_child=1 3 -3 -1
right_child=-2 2 -4 -5
leaf_value=-0.0041998549667187036 0.022523451021872462 -0.00011200526771558957 -0.032142950851470231 0.01513442265678127
leaf_weight=75 50 55 50 53
leaf_count=75 50 55 50 53
internal_value=0 -0.00483336 -0.0153648 0.00380574
internal_weight=0 233 105 128
internal_count=283 233 105 128
is_linear=0
shrinkage=0.05


Tree=19
num_leaves=4
num_cat=0
split_feature=1 5 2
split_gain=11.4488 5.20524 3.62255
threshold=1989.5000000000002 79.625000000000014 35.437500000000007
decision_type=2 2 2
left_child=2 -2 -1
right_child=1 -3 -4
leaf_value=-0.021311914779245853 0.0161548979424594 -0.0035073486001541221 -0.0042754747493877017
leaf_weight=50 99 51 83
leaf_count=50 99 51 83
internal_value=0 0.00946973 -0.0106802
internal_weight=0 150 133
internal_count=283 150 133
is_linear=0
shrinkage=0.05


Tree=20
num_leaves=5
num_cat=0
split_feature=8 1 0 1
split_gain=11.0619 8.74557 2.28931 1.75407
threshold=6.4500000000000002 1987.5000000000002 7.5000000000000009 1979.5000000000002
decision_type=2 2 2 2
left_child=-1 3 -3 -2
right_child=1 2 -4 -5
leaf_value=-0.017408976893183655 -0.011801078727352435 0.0077413857525045222 0.021921098170509974 0.001443045777268708
leaf_weight=69 50 55 59 50
leaf_count=69 50 55 59 50
internal_value=0 0.00561317 0.01508 -0.00517902
internal_weight=0 214 114 100
internal_count=283 214 114 100
is_linear=0
shrinkage=0.05


Tree=21
num_leaves=4
num_cat=0
split_feature=9 9 3
split_gain=10.3354 4.63065 1.47244
threshold=6.5000000000000009 12.000000000000002 22.187500000000004
decision_type=2 2 2
left_child=-1 -2 -3
right_child=1 2 -4
leaf_value=-0.016990440248285749 0.014627510026035585 -0.0064098567348615885 0.0042302471774353367
leaf_weight=68 83 58 74
leaf_count=68 83 58 74
internal_value=0 0.00537372 -0.00044495
internal_weight=0 215 132
internal_count=283 215 132
is_linear=0
shrinkage=0.05


Tree=22
num_leaves=4
num_cat=0
split_feature=1 0 6
split_gain=10.2699 7.58494 4.38061
threshold=2003.5000000000002 12.500000000000002 1.7875000000000003
decision_type=2 2 2
left_child=1 2 -1
right_child=-2 -3 -4
leaf_value=-0.0047806787342133542 0.020561409338377416 -0.017007804639885039 0.012461462828281077
leaf_weight=93 50 79 61
leaf_count=93 50 79 61
internal_value=0 -0.00441232 0.002049
internal_weight=0 233 154
internal_count=283 233 154
is_linear=0
shrinkage=0.05


Tree=23
num_leaves=5
num_cat=0
split_feature=8 1 0 1
split_gain=9.65829 7.57939 2.28214 1.59359
threshold=6.4500000000000002 1987.5000000000002 7.5000000000000009 1979.5000000000002
decision_type=2 2 2 2
left_child=-1 3 -3 -2
right_child=1 2 -4 -5
leaf_value=-0.016267063731219677 -0.011113801701460035 0.0067309531620280312 0.020888430666636235 0.001509952842257917
leaf_weight=69 50 55 59 50
leaf_count=69 50 55 59 50
internal_value=0 0.00524499 0.0140581 -0.00480192
internal_weight=0 214 114 100
internal_count=283 214 114 100
is_linear=0
shrinkage=0.05


Tree=24
num_leaves=4
num_cat=0
split_feature=1 8 1
split_gain=9.32116 7.46201 2.89693
threshold=1999.5000000000002 6.5163793105000005 1987.5000000000002
decision_type=2 2 2
left_child=1 -1 -3
right_child=-2 2 -4
leaf_value=-0.022137781967609831 0.014842257688620263 -0.005898303188150749 0.0079541585264870755
leaf_weight=51 77 90 65
leaf_count=51 77 90 65
internal_value=0 -0.00554783 -8.92063e-05
internal_weight=0 206 155
internal_count=283 206 155
is_linear=0
shrinkage=0.05


Tree=25
num_leaves=5
num_cat=0
split_feature=4 1 4 2
split_gain=8.73662 6.89389 5.33817 1.07356
threshold=270.37500000000006 2000.5000000000002 192.75000000000003 36.937500000000007
decision_type=2 2 2 2
left_child=1 2 3 -1
right_child=-2 -3 -4 -5
leaf_value=-0.012093899522281799 -0.01788687791759995 0.018385220935109945 0.011661084285852585 -0.0022000786561805468
leaf_weight=58 55 63 55 52
leaf_count=58 55 63 55 52
internal_value=0 0.00431482 -0.00105752 -0.00741682
internal_weight=0 228 165 110
internal_count=283 228 165 110
is_linear=0
shrinkage=0.05


Tree=26
num_leaves=5
num_cat=0
split_feature=8 0 2 2
split_gain=8.29892 1.89319 2.24761 1.11239
threshold=6.0921428570000007 7.5000000000000009 37.07500000000001 36.112500000000004
decision_type=2 2 2 2
left_child=-1 3 -3 -2
right_child=1 2 -4 -5
leaf_value=-0.018483346022432671 0.0041836354313418275 0.0022841175160525987 0.015522706513625703 -0.0062614390393719082
leaf_weight=50 50 75 56 52
leaf_count=50 50 75 56 52
internal_value=0 0.00396638 0.00794336 -0.0011413
internal_weight=0 233 131 102
internal_count=283 233 131 102
is_linear=0
shrinkage=0.05


Tree=27
num_leaves=4
num_cat=0
split_feature=1 8 6
split_gain=7.68681 6.15929 4.45268
threshold=1999.5000000000002 6.5375000000000005 1.5625000000000002
decision_type=2 2 2
left_child=1 -1 -3
right_child=-2 2 -4
leaf_value=-0.019727627741379386 0.013478396690674369 -0.010283293679822237 0.0070911205107612278
leaf_weight=53 77 62 91
leaf_count=53 77 62 91
internal_value=0 -0.00503804 5.05082e-05
internal_weight=0 206 153
internal_count=283 206 153
is_linear=0
shrinkage=0.05


Tree=28
num_leaves=4
num_cat=0
split_feature=9 1 9
split_gain=8.69271 8.60199 6.55373
threshold=6.5000000000000009 1994.5000000000002 19.500000000000004
decision_type=2 2 2
left_child=-1 2 -2
right_child=1 -3 -4
leaf_value=-0.015581859140451449 0.0077144867608634135 0.016168546756778503 -0.01565524552948773
leaf_weight=68 60 95 60
leaf_count=68 60 95 60
internal_value=0 0.00492822 -0.00397038
internal_weight=0 215 120
internal_count=283 215 120
is_linear=0
shrinkage=0.05


Tree=29
num_leaves=4
num_cat=0
split_feature=9 1 9
split_gain=7.84517 7.7633 5.91474
threshold=6.5000000000000009 1994.5000000000002 19.500000000000004
decision_type=2 2 2
left_child=-1 2 -2
right_child=1 -3 -4
leaf_value=-0.014802765966776541 0.007328762381318181 0.015360119213399135 -0.014872483496243755
leaf_weight=68 60 95 60
leaf_count=68 60 95 60
internal_value=0 0.0046818 -0.00377186
internal_weight=0 215 120
internal_count=283 215 120
is_linear=0
shrinkage=0.05


Tree=30
num_leaves=4
num_cat=0
split_feature=9 9 7
split_gain=7.08027 3.0239 0.880012
threshold=6.5000000000000009 12.000000000000002 3.6375000000000006
decision_type=2 2 2
left_child=-1 -2 -3
right_child=1 2 -4
leaf_value=-0.014062627309399165 0.011925665227168925 -0.0054824952334165573 0.0029335757270284998
leaf_weight=68 83 50 82
leaf_count=68 83 50 82
internal_value=0 0.00444771 -0.00025433
internal_weight=0 215 132
internal_count=283 215 132
is_linear=0
shrinkage=0.05


Tree=31
num_leaves=4
num_cat=0
split_feature=8 1 1
split_gain=7.2024 5.01876 1.72127
threshold=6.4500000000000002 1979.5000000000002 1995.5000000000002
decision_type=2 2 2
left_child=-1 -2 -3
right_child=1 2 -4
leaf_value=-0.014047454155819573 -0.0093381775738962461 0.0040549404210191266 0.014337247161815565
leaf_weight=69 50 89 75
leaf_count=69 50 89 75
internal_value=0 0.00452932 0.00875721
internal_weight=0 214 164
internal_count=283 214 164
is_linear=0
shrinkage=0.05


Tree=32
num_leaves=4
num_cat=0
split_feature=8 1 0
split_gain=6.50016 4.52943 1.63406
threshold=6.4500000000000002 1979.5000000000002 7.5000000000000009
decision_type=2 2 2
left_child=-1 -2 -3
right_child=1 2 -4
leaf_value=-0.013345081415837227 -0.0088712687250226737 0.002882515451560418 0.012900959398712587
leaf_weight=69 50 75 89
leaf_count=69 50 75 89
internal_value=0 0.00430285 0.00831935
internal_weight=0 214 164
internal_count=283 214 164
is_linear=0
shrinkage=0.05


Tree=33
num_leaves=4
num_cat=0
split_feature=9 1 9
split_gain=6.34612 6.4501 5.09597
threshold=6.5000000000000009 1994.5000000000002 19.500000000000004
decision_type=2 2 2
left_child=-1 2 -2
right_child=1 -3 -4
leaf_value=-0.013313601044116214 0.0068089278680660455 0.013944170866161586 -0.013798450905208787
leaf_weight=68 60 95 60
leaf_count=68 60 95 60
internal_value=0 0.00421081 -0.00349476
internal_weight=0 215 120
internal_count=283 215 120
is_linear=0
shrinkage=0.05


Tree=34
num_leaves=4
num_cat=0
split_feature=8 1 6
split_gain=5.95864 5.13515 2.5907
threshold=6.0921428570000007 1995.5000000000002 1.8875000000000002
decision_type=2 2 2
left_child=-1 2 -2
right_child=1 -3 -4
leaf_value=-0.015661854341626168 -0.0073517091256836732 0.013155587243518847 0.0063377598419108172
leaf_weight=50 93 85 55
leaf_count=50 93 85 55
internal_value=0 0.00336091 -0.00226441
internal_weight=0 233 148
internal_count=283 233 148
is_linear=0
shrinkage=0.05


Tree=35
num_leaves=4
num_cat=0
split_feature=9 1 9
split_gain=5.62066 5.48405 4.49784
threshold=6.5000000000000009 1994.5000000000002 19.500000000000004
decision_type=2 2 2
left_child=-1 2 -2
right_child=1 -3 -4
leaf_value=-0.012529542053679883 0.0065378231696862112 0.012937743586295064 -0.012822436525796852
leaf_weight=68 60 95 60
leaf_count=68 60 95 60
internal_value=0 0.00396283 -0.00314231
internal_weight=0 215 120
internal_count=283 215 120
is_linear=0
shrinkage=0.05


Tree=36
num_leaves=5
num_cat=0
split_feature=4 1 6 1
split_gain=5.43944 4.05127 3.84545 1.65929
threshold=270.37500000000006 1985.5000000000002 1.9875000000000003 1998.5000000000002
decision_type=2 2 2 2
left_child=1 -1 3 -3
right_child=-2 2 -4 -5
leaf_value=-0.0066086962634497983 -0.014113674736475913 -0.0038782441733791586 0.018977844722282429 0.0086332050222411479
leaf_weight=70 55 53 52 53
leaf_count=70 55 53 52 53
internal_value=0 0.00340461 0.00784089 0.00237748
internal_weight=0 228 158 106
internal_count=283 228 158 106
is_linear=0
shrinkage=0.05


Tree=37
num_leaves=4
num_cat=0
split_feature=1 3 1
split_gain=4.97295 4.68251 2.37451
threshold=1977.5000000000002 23.562500000000004 1994.5000000000002
decision_type=2 2 2
left_child=-1 2 -2
right_child=1 -3 -4
leaf_value=-0.014307934973854573 0.001942507671605375 -0.0087011717950865146 0.013772002144012219
leaf_weight=50 93 62 78
leaf_count=50 93 62 78
internal_value=0 0.00307037 0.00733842
internal_weight=0 233 171
internal_count=283 233 171
is_linear=0
shrinkage=0.05


Tree=38
num_leaves=4
num_cat=0
split_feature=8 8 2
split_gain=5.4205 2.91063 1.19981
threshold=6.4500000000000002 6.7625000000000011 37.437500000000007
decision_type=2 2 2
left_child=-1 -2 -3
right_child=1 2 -4
leaf_value=-0.012186489799532338 0.012856420726166107 -0.003233460055162141 0.0060827599527935186
leaf_weight=69 64 96 54
leaf_count=69 64 96 54
internal_value=0 0.00392929 0.000120379
internal_weight=0 214 150
internal_count=283 214 150
is_linear=0
shrinkage=0.05


Tree=39
num_leaves=4
num_cat=0
split_feature=8 8 2
split_gain=4.892 2.62684 1.08283
threshold=6.4500000000000002 6.7625000000000011 37.437500000000007
decision_type=2 2 2
left_child=-1 -2 -3
right_child=1 2 -4
leaf_value=-0.011577165040416995 0.012213599613824046 -0.0030717871155502511 0.0057786220753634418
leaf_weight=69 64 96 54
leaf_count=69 64 96 54
internal_value=0 0.00373282 0.00011436
internal_weight=0 214 150
internal_count=283 214 150
is_linear=0
shrinkage=0.05


Tree=40
num_leaves=4
num_cat=0
split_feature=9 1 9
split_gain=4.65385 4.21823 4.05089
threshold=6.5000000000000009 1994.5000000000002 19.500000000000004
decision_type=2 2 2
left_child=-1 2 -2
right_child=1 -3 -4
leaf_value=-0.011401129294844235 0.0065611115350232771 0.011477207812529646 -0.01181207798110942
leaf_weight=68 60 95 60
leaf_count=68 60 95 60
internal_value=0 0.00360594 -0.00262548
internal_weight=0 215 120
internal_count=283 215 120
is_linear=0
shrinkage=0.05


Tree=41
num_leaves=5
num_cat=0
split_feature=8 1 9 8
split_gain=4.4427 3.32928 2.31316 2.36199
threshold=6.0921428570000007 2000.5000000000002 19.500000000000004 6.9125000000000005
decision_type=2 2 2 2
left_child=-1 2 3 -2
right_child=1 -3 -4 -5
leaf_value=-0.013523623637855054 0.01183036845535613 0.013916576214415846 -0.0077904201126798543 -0.0026194960798039254
leaf_weight=50 52 53 66 62
leaf_count=50 52 53 66 62
internal_value=0 0.00290207 -0.000341096 0.00397167
internal_weight=0 233 180 114
internal_count=283 233 180 114
is_linear=0
shrinkage=0.05


Tree=42
num_leaves=5
num_cat=0
split_feature=4 2 4 2
split_gain=4.24267 2.82717 3.3888 1.84419
threshold=270.37500000000006 35.38750000000001 190.62500000000003 37.437500000000007
decision_type=2 2 2 2
left_child=1 -1 3 -3
right_child=-2 2 -4 -5
leaf_value=-0.0072362966226557123 -0.012464716477658261 -0.0042333934666553084 0.01689514458343825 0.0079227501208273075
leaf_weight=52 55 65 51 60
leaf_count=52 55 65 51 60
internal_value=0 0.00300684 0.00603322 0.00160156
internal_weight=0 228 176 125
internal_count=283 228 176 125
is_linear=0
shrinkage=0.05


Tree=43
num_leaves=4
num_cat=0
split_feature=9 1 8
split_gain=4.1907 3.5284 1.6807
threshold=6.5000000000000009 1989.5000000000002 6.7375000000000007
decision_type=2 2 2
left_child=-1 -2 -3
right_child=1 2 -4
leaf_value=-0.010818937465356773 -0.0035116749907364003 0.015788052338434177 0.0037223998922854664
leaf_weight=68 99 54 62
leaf_count=68 99 54 62
internal_value=0 0.0034218 0.00933917
internal_weight=0 215 116
internal_count=283 215 116
is_linear=0
shrinkage=0.05


Tree=44
num_leaves=5
num_cat=0
split_feature=8 1 2 8
split_gain=4.11089 2.40658 1.07532 0.289724
threshold=6.4500000000000002 1979.5000000000002 37.07500000000001 6.8375000000000012
decision_type=2 2 2 2
left_child=-1 -2 3 -3
right_child=1 2 -4 -5
leaf_value=-0.010612725969943879 -0.0061810006620362408 0.0058018893571570515 0.011410453668213451 0.00041929226787760859
leaf_weight=69 50 50 64 50
leaf_count=69 50 50 64 50
internal_value=0 0.00342186 0.00634956 0.00311059
internal_weight=0 214 164 100
internal_count=283 214 164 100
is_linear=0
shrinkage=0.05


Tree=45
num_leaves=5
num_cat=0
split_feature=1 8 8 8
split_gain=3.80476 6.93299 3.43463 1.39303
threshold=2003.5000000000002 6.4500000000000002 6.7625000000000011 7.1375000000000011
decision_type=2 2 2 2
left_child=1 -1 -3 -4
right_child=-2 2 3 -5
leaf_value=-0.018978712643843657 0.012515072836540639 0.01205167166659968 -0.0088106713637157719 0.0018449534084910239
leaf_weight=51 50 57 54 71
leaf_count=51 50 57 54 71
internal_value=0 -0.00268564 0.00188 -0.00275828
internal_weight=0 233 182 125
internal_count=283 233 182 125
is_linear=0
shrinkage=0.05


Tree=46
num_leaves=5
num_cat=0
split_feature=1 3 1 8
split_gain=3.61238 3.94273 1.52872 1.4484
threshold=1977.5000000000002 23.562500000000004 1989.5000000000002 6.7375000000000007
decision_type=2 2 2 2
left_child=-1 2 -2 -4
right_child=1 -3 3 -5
leaf_value=-0.012194570761173964 0.00064328327156436532 -0.0081848552311590359 0.016116002102312194 0.0043125777925346418
leaf_weight=50 67 62 53 51
leaf_count=50 67 62 53 51
internal_value=0 0.00261686 0.00653327 0.0103278
internal_weight=0 233 171 104
internal_count=283 233 171 104
is_linear=0
shrinkage=0.05


Tree=47
num_leaves=5
num_cat=0
split_feature=8 5 0 5
split_gain=3.46046 1.97247 1.80271 0.297641
threshold=6.4500000000000002 76.125000000000014 7.5000000000000009 72.625000000000014
decision_type=2 2 2 2
left_child=-1 3 -3 -2
right_child=1 2 -4 -5
leaf_value=-0.009737015829381088 -0.0045433983267284929 0.00099367002720314587 0.013880547670775963 0.00078681995922868912
leaf_weight=69 50 51 58 55
leaf_count=69 50 51 58 55
internal_value=0 0.00313951 0.00785091 -0.00175138
internal_weight=0 214 109 105
internal_count=283 214 109 105
is_linear=0
shrinkage=0.05


Tree=48
num_leaves=4
num_cat=0
split_feature=9 1 8
split_gain=3.68251 2.69577 1.59154
threshold=6.5000000000000009 1989.5000000000002 6.7375000000000007
decision_type=2 2 2
left_child=-1 -2 -3
right_child=1 2 -4
leaf_value=-0.010141769792757903 -0.0028527996289976544 0.014655405824952242 0.0029141227414290751
leaf_weight=68 99 54 62
leaf_count=68 99 54 62
internal_value=0 0.00320763 0.00837989
internal_weight=0 215 116
internal_count=283 215 116
is_linear=0
shrinkage=0.05


Tree=49
num_leaves=4
num_cat=0
split_feature=9 1 9
split_gain=3.32347 2.46576 3.46731
threshold=6.5000000000000009 1994.5000000000002 19.500000000000004
decision_type=2 2 2
left_child=-1 2 -2
right_child=1 -3 -4
leaf_value=-0.0096346814116901342 0.0067821193676597131 0.0090652840171854855 -0.010216179680234444
leaf_weight=68 60 95 60
leaf_count=68 60 95 60
internal_value=0 0.00304725 -0.00171703
internal_weight=0 215 120
internal_count=283 215 120
is_linear=0
shrinkage=0.05


Tree=50
num_leaves=5
num_cat=0
split_feature=8 5 8 5
split_gain=3.23783 1.84999 1.25692 0.246694
threshold=6.4500000000000002 76.125000000000014 6.8375000000000012 72.625000000000014
decision_type=2 2 2 2
left_child=-1 3 -3 -2
right_child=1 2 -4 -5
leaf_value=-0.0094186028357649207 -0.0042416097579989582 0.013325448777051828 0.002564822784464421 0.00061102703891017227
leaf_weight=69 50 51 58 55
leaf_count=69 50 51 58 55
internal_value=0 0.00303684 0.00759961 -0.00169975
internal_weight=0 214 109 105
internal_count=283 214 109 105
is_linear=0
shrinkage=0.05


Tree=51
num_leaves=5
num_cat=0
split_feature=1 0 3 0
split_gain=3.17732 3.90058 8.41644 2.8612
threshold=2003.5000000000002 10.500000000000002 22.562500000000004 6.5000000000000009
decision_type=2 2 2 2
left_child=1 3 -3 -1
right_child=-2 2 -4 -5
leaf_value=-0.0030836434422494615 0.011436693675816061 0.0039001870316199283 -0.024443900646409021 0.012017382400279697
leaf_weight=73 50 55 50 55
leaf_count=73 50 55 50 55
internal_value=0 -0.00245423 -0.009597 0.00340508
internal_weight=0 233 105 128
internal_count=283 233 105 128
is_linear=0
shrinkage=0.05


Tree=52
num_leaves=4
num_cat=0
split_feature=4 4 2
split_gain=2.96601 2.35204 2.54961
threshold=270.37500000000006 192.75000000000003 37.437500000000007
decision_type=2 2 2
left_child=1 2 -1
right_child=-2 -3 -4
leaf_value=-0.0065447370694385158 -0.010421961418099025 0.0095565057061135009 0.0067259352150388432
leaf_weight=89 55 78 61
leaf_count=89 55 78 61
internal_value=0 0.00251407 -0.001148
internal_weight=0 228 150
internal_count=283 228 150
is_linear=0
shrinkage=0.05


Tree=53
num_leaves=5
num_cat=0
split_feature=1 9 5 6
split_gain=2.96704 3.659 1.69715 1.61364
threshold=1977.5000000000002 6.5000000000000009 78.375000000000014 1.7875000000000003
decision_type=2 2 2 2
left_child=-1 -2 3 -3
right_child=1 2 -4 -5
leaf_value=-0.011051757709821686 -0.0085121175137765955 -0.0022713540958753534 0.013656600015968377 0.0092095911908175124
leaf_weight=50 58 69 51 55
leaf_count=50 58 69 51 55
internal_value=0 0.00237162 0.0059788 0.002821
internal_weight=0 233 175 124
internal_count=283 233 175 124
is_linear=0
shrinkage=0.05


Tree=54
num_leaves=4
num_cat=0
split_feature=8 8 1
split_gain=2.85747 1.73098 2.61651
threshold=6.4500000000000002 6.7625000000000011 1994.5000000000002
decision_type=2 2 2
left_child=-1 -2 -3
right_child=1 2 -4
leaf_value=-0.008848098819346532 0.0097372691656346447 -0.0053277514614266065 0.0082325296883999696
leaf_weight=69 64 92 58
leaf_count=69 64 92 58
internal_value=0 0.00285289 -8.44428e-05
internal_weight=0 214 150
internal_count=283 214 150
is_linear=0
shrinkage=0.05


Tree=55
num_leaves=4
num_cat=0
split_feature=1 8 5
split_gain=2.6191 5.15616 2.81603
threshold=2003.5000000000002 6.4500000000000002 76.125000000000014
decision_type=2 2 2
left_child=1 -1 -3
right_child=-2 2 -4
leaf_value=-0.016279189237484747 0.010383548193611205 -0.0048619860597767031 0.0075957504125350782
leaf_weight=51 50 86 96
leaf_count=51 50 86 96
internal_value=0 -0.00222823 0.00170913
internal_weight=0 233 182
internal_count=283 233 182
is_linear=0
shrinkage=0.05


Tree=56
num_leaves=5
num_cat=0
split_feature=9 1 5 3
split_gain=2.62873 1.84194 1.72208 1.98274
threshold=6.5000000000000009 1981.5000000000002 78.375000000000014 22.837500000000002
decision_type=2 2 2 2
left_child=-1 -2 3 -3
right_child=1 2 -4 -5
leaf_value=-0.0085686876181759603 -0.0056969833802431825 -0.0054876980974393735 0.012894687759598681 0.0077740227877502403
leaf_weight=68 50 51 51 63
leaf_count=68 50 51 51 63
internal_value=0 0.0027101 0.0052577 0.00184115
internal_weight=0 215 165 114
internal_count=283 215 165 114
is_linear=0
shrinkage=0.05


Tree=57
num_leaves=4
num_cat=0
split_feature=1 9 2
split_gain=2.408 3.01346 1.41528
threshold=1977.5000000000002 6.5000000000000009 36.587500000000013
decision_type=2 2 2
left_child=-1 -2 -3
right_child=1 2 -4
leaf_value=-0.0099562938902527098 -0.0077405612466150313 0.009779892107989227 0.00078325807089533886
leaf_weight=50 58 90 85
leaf_count=50 58 90 85
internal_value=0 0.00213654 0.0054101
internal_weight=0 233 175
internal_count=283 233 175
is_linear=0
shrinkage=0.05


Tree=58
num_leaves=4
num_cat=0
split_feature=8 0 0
split_gain=2.39058 1.54738 2.44839
threshold=6.4500000000000002 7.5000000000000009 11.500000000000002
decision_type=2 2 2
left_child=-1 -2 -3
right_child=1 2 -4
leaf_value=-0.008093027370995369 -0.002104317120635339 0.014699443689017905 0.00016062250004650387
leaf_weight=69 96 51 67
leaf_count=69 96 51 67
internal_value=0 0.00260943 0.00644435
internal_weight=0 214 118
internal_count=283 214 118
is_linear=0
shrinkage=0.05


Tree=59
num_leaves=5
num_cat=0
split_feature=4 2 4 1
split_gain=2.29825 2.12151 2.89169 1.88744
threshold=270.37500000000006 35.38750000000001 190.62500000000003 1996.5000000000002
decision_type=2 2 2 2
left_child=1 -1 3 -3
right_child=-2 2 -4 -5
leaf_value=-0.0066601546294315569 -0.009174050105820326 -0.004884232626543107 0.014868329722872553 0.0074516459270135352
leaf_weight=52 55 68 51 57
leaf_count=52 55 68 51 57
internal_value=0 0.00221304 0.00483466 0.000740928
internal_weight=0 228 176 125
internal_count=283 228 176 125
is_linear=0
shrinkage=0.05


Tree=60
num_leaves=4
num_cat=0
split_feature=9 1 2
split_gain=2.25186 1.4581 3.17487
threshold=6.5000000000000009 1999.5000000000002 36.712500000000013
decision_type=2 2 2
left_child=-1 2 -2
right_child=1 -3 -4
leaf_value=-0.0079307070371749649 0.0058322935994550747 0.0089766884057392044 -0.0088387955289949936
leaf_weight=68 91 62 62
leaf_count=68 91 62 62
internal_value=0 0.00250832 -0.000112854
internal_weight=0 215 153
internal_count=283 215 153
is_linear=0
shrinkage=0.05


Tree=61
num_leaves=5
num_cat=0
split_feature=4 2 4 1
split_gain=2.07352 1.98457 2.56506 1.57581
threshold=270.37500000000006 35.38750000000001 190.62500000000003 1996.5000000000002
decision_type=2 2 2 2
left_child=1 -1 3 -3
right_child=-2 2 -4 -5
leaf_value=-0.0064799820791589663 -0.0087139853039248424 -0.0043577876928098062 0.014087674167011774 0.0069137969993773784
leaf_weight=52 55 68 51 57
leaf_count=52 55 68 51 57
internal_value=0 0.00210206 0.00463766 0.000782055
internal_weight=0 228 176 125
internal_count=283 228 176 125
is_linear=0
shrinkage=0.05


Tree=62
num_leaves=4
num_cat=0
split_feature=8 1 9
split_gain=2.15465 1.3523 1.8535
threshold=6.0921428570000007 2000.5000000000002 12.000000000000002
decision_type=2 2 2
left_child=-1 2 -2
right_child=1 -3 -4
leaf_value=-0.0094179924894124273 0.004543457842190019 0.0090408737466171965 -0.0056551730766156577
leaf_weight=50 99 53 81
leaf_count=50 99 53 81
internal_value=0 0.00202103 -4.59261e-05
internal_weight=0 233 180
internal_count=283 233 180
is_linear=0
shrinkage=0.05


Tree=63
num_leaves=4
num_cat=0
split_feature=9 5 2
split_gain=2.06164 1.52215 1.17207
threshold=6.5000000000000009 78.375000000000014 37.462500000000013
decision_type=2 2 2
left_child=-1 2 -2
right_child=1 -3 -4
leaf_value=-0.007588355970459388 -0.00349901030842577 0.0090846320072219509 0.0056045033770020722
leaf_weight=68 99 61 55
leaf_count=68 99 61 55
internal_value=0 0.00240004 -0.000247755
internal_weight=0 215 154
internal_count=283 215 154
is_linear=0
shrinkage=0.05


Tree=64
num_leaves=4
num_cat=0
split_feature=8 0 0
split_gain=1.9832 1.54009 2.33684
threshold=6.4500000000000002 7.5000000000000009 11.500000000000002
decision_type=2 2 2
left_child=-1 -2 -3
right_child=1 2 -4
leaf_value=-0.0073712620020344637 -0.0023259187380437157 0.01426742782578895 6.3678593750097858e-05
leaf_weight=69 96 51 67
leaf_count=69 96 51 67
internal_value=0 0.00237672 0.00620259
internal_weight=0 214 118
internal_count=283 214 118
is_linear=0
shrinkage=0.05


Tree=65
num_leaves=4
num_cat=0
split_feature=9 5 6
split_gain=1.98567 1.40814 2.14484
threshold=6.5000000000000009 78.375000000000014 1.7875000000000003
decision_type=2 2 2
left_child=-1 2 -2
right_child=1 -3 -4
leaf_value=-0.007447237666586743 -0.005438312320011603 0.0087847945952146764 0.0064446258433984924
leaf_weight=68 86 61 68
leaf_count=68 86 61 68
internal_value=0 0.00235541 -0.000191301
internal_weight=0 215 154
internal_count=283 215 154
is_linear=0
shrinkage=0.05


Tree=66
num_leaves=5
num_cat=0
split_feature=1 3 0 3
split_gain=1.87889 2.6372 1.11134 0.666544
threshold=1977.5000000000002 23.562500000000004 13.500000000000002 22.912500000000005
decision_type=2 2 2 2
left_child=-1 2 3 -2
right_child=1 -3 -4 -5
leaf_value=-0.0087946762954816231 -0.0014261672226712108 -0.0069468990464003821 0.010643954818547404 0.0063080432041785501
leaf_weight=50 60 62 59 52
leaf_count=50 60 62 59 52
internal_value=0 0.00188727 0.0050903 0.00216472
internal_weight=0 233 171 112
internal_count=283 233 171 112
is_linear=0
shrinkage=0.05


Tree=67
num_leaves=4
num_cat=0
split_feature=0 3 0
split_gain=1.91457 8.31364 2.81023
threshold=10.500000000000002 22.912500000000005 6.5000000000000009
decision_type=2 2 2
left_child=2 -2 -1
right_child=1 -3 -4
leaf_value=-0.0018753758627357649 0.006067613845895211 -0.020397370776161553 0.011616821805230127
leaf_weight=95 73 50 65
leaf_count=95 73 50 65
internal_value=0 -0.00469051 0.00360583
internal_weight=0 123 160
internal_count=283 123 160
is_linear=0
shrinkage=0.05


Tree=68
num_leaves=4
num_cat=0
split_feature=1 0 0
split_gain=1.79369 3.05429 3.07103
threshold=2003.5000000000002 12.500000000000002 8.5000000000000018
decision_type=2 2 2
left_child=1 2 -1
right_child=-2 -3 -4
leaf_value=-0.003081268193414055 0.0085929808858782059 -0.0098366994139608699 0.011596687264890146
leaf_weight=98 50 79 56
leaf_count=98 50 79 56
internal_value=0 -0.00184399 0.00225617
internal_weight=0 233 154
internal_count=283 233 154
is_linear=0
shrinkage=0.05


Tree=69
num_leaves=4
num_cat=0
split_feature=8 8 1
split_gain=1.72867 1.428 1.52749
threshold=6.4500000000000002 6.7625000000000011 1994.5000000000002
decision_type=2 2 2
left_child=-1 -2 -3
right_child=1 2 -4
leaf_value=-0.0068820088386427674 0.0084718897862330785 -0.0044551523526340881 0.0059057185875958408
leaf_weight=69 64 92 58
leaf_count=69 64 92 58
internal_value=0 0.00221897 -0.000448949
internal_weight=0 214 150
internal_count=283 214 150
is_linear=0
shrinkage=0.05


Tree=70
num_leaves=5
num_cat=0
split_feature=9 5 7 1
split_gain=1.68573 1.23575 0.97818 0.920047
threshold=6.5000000000000009 78.375000000000014 3.9375000000000004 1991.5000000000002
decision_type=2 2 2 2
left_child=-1 2 3 -2
right_child=1 -3 -4 -5
leaf_value=-0.0068617576640784082 -0.0078272993031514842 0.0081932203966330313 0.005285502679400006 0.0017174739204347134
leaf_weight=68 51 61 53 50
leaf_count=68 51 61 53 50
internal_value=0 0.00217023 -0.0002155 -0.00310216
internal_weight=0 215 154 101
internal_count=283 215 154 101
is_linear=0
shrinkage=0.05


Tree=71
num_leaves=4
num_cat=0
split_feature=0 0 0
split_gain=1.61271 4.36706 2.46757
threshold=10.500000000000002 14.500000000000002 6.5000000000000009
decision_type=2 2 2
left_child=2 -2 -1
right_child=1 -3 -4
leaf_value=-0.001826785992291805 -0.013204473827858099 0.0056687610721665215 0.010816112081878462
leaf_weight=95 65 58 65
leaf_count=95 65 58 65
internal_value=0 -0.0043049 0.00330939
internal_weight=0 123 160
internal_count=283 123 160
is_linear=0
shrinkage=0.05


Tree=72
num_leaves=5
num_cat=0
split_feature=1 3 0 9
split_gain=1.61356 2.18837 1.12753 1.04948
threshold=1977.5000000000002 23.562500000000004 13.500000000000002 12.000000000000002
decision_type=2 2 2 2
left_child=-1 2 3 -2
right_child=1 -3 -4 -5
leaf_value=-0.0081500783581286672 0.0061454491067647202 -0.0062984333403648873 0.010260656750682048 -0.0035734193198675036
leaf_weight=50 61 62 59 51
leaf_count=50 61 62 59 51
internal_value=0 0.00174894 0.00466671 0.00171989
internal_weight=0 233 171 112
internal_count=283 233 171 112
is_linear=0
shrinkage=0.05


Tree=73
num_leaves=4
num_cat=0
split_feature=8 0 0
split_gain=1.62208 1.26018 1.97211
threshold=6.4500000000000002 7.5000000000000009 11.500000000000002
decision_type=2 2 2
left_child=-1 -2 -3
right_child=1 2 -4
leaf_value=-0.0066664519874999927 -0.0021044192491293263 0.013019026534668372 -2.9267323787199031e-05
leaf_weight=69 96 51 67
leaf_count=69 96 51 67
internal_value=0 0.00214946 0.00561025
internal_weight=0 214 118
internal_count=283 214 118
is_linear=0
shrinkage=0.05


Tree=74
num_leaves=5
num_cat=0
split_feature=1 8 8 8
split_gain=1.61574 3.41339 2.00865 1.38001
threshold=2003.5000000000002 6.4500000000000002 6.7625000000000011 7.1375000000000011
decision_type=2 2 2 2
left_child=1 -1 -3 -4
right_child=-2 2 3 -5
leaf_value=-0.013182486433024502 0.0081555965780280536 0.0092320860326780309 -0.0081176591847367859 0.0024880522175062397
leaf_weight=51 50 57 54 71
leaf_count=51 50 57 54 71
internal_value=0 -0.00175013 0.00145345 -0.00209362
internal_weight=0 233 182 125
internal_count=283 233 182 125
is_linear=0
shrinkage=0.05


Tree=75
num_leaves=4
num_cat=0
split_feature=0 3 3
split_gain=1.50149 7.01558 2.29061
threshold=10.500000000000002 22.912500000000005 23.387500000000003
decision_type=2 2 2
left_child=2 -2 -1
right_child=1 -3 -4
leaf_value=-0.0018197164524029544 0.0057288334854840211 -0.018582449686247858 0.01033289347083844
leaf_weight=94 73 50 66
leaf_count=94 73 50 66
internal_value=0 -0.0041538 0.00319324
internal_weight=0 123 160
internal_count=283 123 160
is_linear=0
shrinkage=0.05


Tree=76
num_leaves=5
num_cat=0
split_feature=4 4 2 3
split_gain=1.46947 1.79314 1.36739 1.26756
threshold=270.37500000000006 210.12500000000003 37.437500000000007 22.887500000000003
decision_type=2 2 2 2
left_child=1 2 3 -1
right_child=-2 -3 -4 -5
leaf_value=0.0019998510051518681 -0.0073357327477159831 0.0098269114622248806 0.0052961422753850787 -0.0086621330101190816
leaf_weight=50 55 53 62 63
leaf_count=50 55 53 62 63
internal_value=0 0.00176958 -0.000670634 -0.00394444
internal_weight=0 228 175 113
internal_count=283 228 175 113
is_linear=0
shrinkage=0.05


Tree=77
num_leaves=4
num_cat=0
split_feature=1 8 5
split_gain=1.42635 2.88528 1.88543
threshold=2003.5000000000002 6.4500000000000002 76.125000000000014
decision_type=2 2 2
left_child=1 -1 -3
right_child=-2 2 -4
leaf_value=-0.012155174241200382 0.0076627298900857569 -0.0040758559612968813 0.0061177190763070637
leaf_weight=51 50 86 96
leaf_count=51 50 86 96
internal_value=0 -0.00164436 0.00130097
internal_weight=0 233 182
internal_count=283 233 182
is_linear=0
shrinkage=0.05


Tree=78
num_leaves=5
num_cat=0
split_feature=9 6 4 7
split_gain=1.40755 1.09866 0.79169 0.226531
threshold=6.5000000000000009 1.2875000000000003 204.00000000000003 3.7375000000000003
decision_type=2 2 2 2
left_child=-1 -2 3 -3
right_child=1 2 -4 -5
leaf_value=-0.0062700844362980736 -0.0042657790468337972 0.0037496575731784105 0.0085848528333008298 -0.00096388514189479446
leaf_weight=68 53 50 60 52
leaf_count=68 53 50 60 52
internal_value=0 0.0019831 0.00402748 0.00134668
internal_weight=0 215 162 102
internal_count=283 215 162 102
is_linear=0
shrinkage=0.05


Tree=79
num_leaves=4
num_cat=0
split_feature=1 9 2
split_gain=1.39442 1.67554 1.13984
threshold=1977.5000000000002 6.5000000000000009 36.587500000000013
decision_type=2 2 2
left_child=-1 -2 -3
right_child=1 2 -4
leaf_value=-0.0075764569062739609 -0.0057391799813746635 0.0079884156486433426 -8.5436494692283529e-05
leaf_weight=50 58 90 85
leaf_count=50 58 90 85
internal_value=0 0.00162585 0.00406683
internal_weight=0 233 175
internal_count=283 233 175
is_linear=0
shrinkage=0.05


Tree=80
num_leaves=4
num_cat=0
split_feature=0 0 0
split_gain=1.29361 3.42064 2.11295
threshold=10.500000000000002 14.500000000000002 6.5000000000000009
decision_type=2 2 2
left_child=2 -2 -1
right_child=1 -3 -4
leaf_value=-0.0017888447484246603 -0.011731957157787222 0.0049714662728766942 0.0099103451119019435
leaf_weight=95 65 58 65
leaf_count=95 65 58 65
internal_value=0 -0.00385555 0.00296395
internal_weight=0 123 160
internal_count=283 123 160
is_linear=0
shrinkage=0.05


Tree=81
num_leaves=5
num_cat=0
split_feature=1 8 8 8
split_gain=1.2886 2.65695 1.76915 1.24922
threshold=2003.5000000000002 6.4500000000000002 6.7625000000000011 7.1375000000000011
decision_type=2 2 2 2
left_child=1 -1 -3 -4
right_child=-2 2 3 -5
leaf_value=-0.011649299478706193 0.0072833212835248561 0.0085636384115276628 -0.007796910242177546 0.0022937179339761046
leaf_weight=51 50 57 54 71
leaf_count=51 50 57 54 71
internal_value=0 -0.00156294 0.00126345 -0.00206543
internal_weight=0 233 182 125
internal_count=283 233 182 125
is_linear=0
shrinkage=0.05


Tree=82
num_leaves=5
num_cat=0
split_feature=1 3 8 8
split_gain=1.24742 1.79361 1.04214 0.369858
threshold=1977.5000000000002 23.562500000000004 6.5163793105000005 7.0375000000000005
decision_type=2 2 2 2
left_child=-1 2 -2 -4
right_child=1 -3 3 -5
leaf_value=-0.0071659978348761798 0.010084101206246907 -0.005747719573968601 -0.00094167055884519443 0.0046572932990750779
leaf_weight=50 52 62 65 54
leaf_count=50 52 62 65 54
internal_value=0 0.00153777 0.00417929 0.00159904
internal_weight=0 233 171 119
internal_count=283 233 171 119
is_linear=0
shrinkage=0.05


Tree=83
num_leaves=4
num_cat=0
split_feature=0 0 2
split_gain=1.23223 2.49048 1.30582
threshold=12.500000000000002 7.5000000000000009 35.937500000000007
decision_type=2 2 2
left_child=1 2 -1
right_child=-2 -3 -4
leaf_value=0.0034347387827001509 -0.0048314840936412411 0.0089318359788093295 -0.0074255173485125274
leaf_weight=50 90 81 62
leaf_count=50 90 81 62
internal_value=0 0.00225302 -0.00257719
internal_weight=0 193 112
internal_count=283 193 112
is_linear=0
shrinkage=0.05


Tree=84
num_leaves=5
num_cat=0
split_feature=4 4 7 1
split_gain=1.19062 1.45779 1.22326 1.15039
threshold=270.37500000000006 210.12500000000003 3.9625000000000008 1994.5000000000002
decision_type=2 2 2 2
left_child=1 2 3 -1
right_child=-2 -3 -4 -5
leaf_value=-0.0021188574870500492 -0.0066031125831333068 0.0088577825848434894 -0.0068649526185321601 0.0077075180096797787
leaf_weight=68 55 53 54 53
leaf_count=68 55 53 54 53
internal_value=0 0.00159286 -0.000607379 0.00218526
internal_weight=0 228 175 121
internal_count=283 228 175 121
is_linear=0
shrinkage=0.05


Tree=85
num_leaves=4
num_cat=0
split_feature=2 9 6
split_gain=1.11407 5.95758 2.39031
threshold=36.13750000000001 9.5000000000000018 1.8875000000000002
decision_type=2 2 2
left_child=1 -1 -2
right_child=2 -3 -4
leaf_value=-0.015624880734749401 -0.0022644072884715916 0.0053180485815530467 0.010932971302676819
leaf_weight=57 84 84 58
leaf_count=57 84 84 58
internal_value=0 -0.00314824 0.00312607
internal_weight=0 141 142
internal_count=283 141 142
is_linear=0
shrinkage=0.05


Tree=86
num_leaves=5
num_cat=0
split_feature=0 3 0 2
split_gain=1.16274 3.39885 2.90394 1.21664
threshold=11.500000000000002 22.512500000000003 7.5000000000000009 35.937500000000007
decision_type=2 2 2 2
left_child=2 -2 3 -1
right_child=1 -3 -4 -5
leaf_value=0.0034042625922302248 0.0044801363264295188 -0.01343923391701252 0.010886967238038779 -0.007078589728541463
leaf_weight=50 55 51 65 62
leaf_count=50 55 51 65 62
internal_value=0 -0.00414145 0.00248019 -0.00239874
internal_weight=0 106 177 112
internal_count=283 106 177 112
is_linear=0
shrinkage=0.05


Tree=87
num_leaves=4
num_cat=0
split_feature=0 0 0
split_gain=1.12888 2.92933 2.08379
threshold=9.5000000000000018 13.500000000000002 6.5000000000000009
decision_type=2 2 2
left_child=2 -2 -1
right_child=1 -3 -4
leaf_value=-0.0014153787982650102 -0.011541066919259418 0.0032812130631258091 0.010959132553412104
leaf_weight=95 60 75 53
leaf_count=95 60 75 53
internal_value=0 -0.00330647 0.00301603
internal_weight=0 135 148
internal_count=283 135 148
is_linear=0
shrinkage=0.05


Tree=88
num_leaves=5
num_cat=0
split_feature=1 3 0 9
split_gain=1.12609 1.48512 0.971271 0.763845
threshold=1977.5000000000002 23.562500000000004 13.500000000000002 12.000000000000002
decision_type=2 2 2 2
left_child=-1 2 3 -2
right_child=1 -3 -4 -5
leaf_value=-0.0068085664659738553 0.004905283172446929 -0.0051683511577486517 0.009056599216804035 -0.0033861866159200227
leaf_weight=50 61 62 59 51
leaf_count=50 61 62 59 51
internal_value=0 0.00146107 0.00386471 0.0011297
internal_weight=0 233 171 112
internal_count=283 233 171 112
is_linear=0
shrinkage=0.05


Tree=89
num_leaves=4
num_cat=0
split_feature=0 0 2
split_gain=1.17353 2.07637 1.0798
threshold=12.500000000000002 7.5000000000000009 35.937500000000007
decision_type=2 2 2
left_child=1 2 -1
right_child=-2 -3 -4
leaf_value=0.0032552317979279905 -0.0047149933972913359 0.0082970164227586848 -0.0066204921763968628
leaf_weight=50 90 81 62
leaf_count=50 90 81 62
internal_value=0 0.0021987 -0.00221169
internal_weight=0 193 112
internal_count=283 193 112
is_linear=0
shrinkage=0.05


Tree=90
num_leaves=4
num_cat=0
split_feature=2 9 0
split_gain=1.08627 5.26006 2.53817
threshold=36.13750000000001 9.5000000000000018 7.5000000000000009
decision_type=2 2 2
left_child=1 -1 -2
right_child=2 -3 -4
leaf_value=-0.014832226841724805 -0.0051972083547817812 0.0048465406576204788 0.0084810602188998361
leaf_weight=57 56 84 86
leaf_count=57 56 84 86
internal_value=0 -0.00310871 0.00308681
internal_weight=0 141 142
internal_count=283 141 142
is_linear=0
shrinkage=0.05


Tree=91
num_leaves=4
num_cat=0
split_feature=0 0 2
split_gain=1.14344 1.7677 0.940978
threshold=12.500000000000002 7.5000000000000009 35.937500000000007
decision_type=2 2 2
left_child=1 2 -1
right_child=-2 -3 -4
leaf_value=0.003204361001495272 -0.0046541559691023497 0.0077971481557153628 -0.0060147259114009723
leaf_weight=50 90 81 62
leaf_count=50 90 81 62
internal_value=0 0.00217033 -0.00189906
internal_weight=0 193 112
internal_count=283 193 112
is_linear=0
shrinkage=0.05


Tree=92
num_leaves=4
num_cat=0
split_feature=0 3 3
split_gain=1.12475 4.78626 2.0372
threshold=9.5000000000000018 22.987500000000001 23.387500000000003
decision_type=2 2 2
left_child=2 -2 -1
right_child=1 -3 -4
leaf_value=-0.0022523465867313307 0.0040353795075567349 -0.015382885697352536 0.0095492079917510811
leaf_weight=82 84 51 66
leaf_count=82 84 51 66
internal_value=0 -0.00330041 0.00301051
internal_weight=0 135 148
internal_count=283 135 148
is_linear=0
shrinkage=0.05


Tree=93
num_leaves=4
num_cat=0
split_feature=1 0 0
split_gain=1.09303 2.12851 2.26247
threshold=2003.5000000000002 12.500000000000002 8.5000000000000018
decision_type=2 2 2
left_child=1 2 -1
right_child=-2 -3 -4
leaf_value=-0.0025978748914690653 0.0067078789528459311 -0.0081117739361604747 0.010000498561021233
leaf_weight=98 50 79 56
leaf_count=98 50 79 56
internal_value=0 -0.00143946 0.00198335
internal_weight=0 233 154
internal_count=283 233 154
is_linear=0
shrinkage=0.05


Tree=94
num_leaves=5
num_cat=0
split_feature=1 3 8 9
split_gain=1.02377 1.33674 0.923366 0.384108
threshold=1977.5000000000002 23.562500000000004 6.5163793105000005 19.500000000000004
decision_type=2 2 2 2
left_child=-1 2 -2 -4
right_child=1 -3 3 -5
leaf_value=-0.0064918847768567507 0.0092316765007266297 -0.0048964181058709661 -0.0013444375898689033 0.0043613599561568772
leaf_weight=50 52 62 65 54
leaf_count=50 52 62 65 54
internal_value=0 0.00139311 0.00367352 0.00124475
internal_weight=0 233 171 119
internal_count=283 233 171 119
is_linear=0
shrinkage=0.05


Tree=95
num_leaves=4
num_cat=0
split_feature=0 3 3
split_gain=1.02372 4.2829 1.8441
threshold=9.5000000000000018 22.987500000000001 23.387500000000003
decision_type=2 2 2
left_child=2 -2 -1
right_child=1 -3 -4
leaf_value=-0.0021350923603366515 0.0037906265994977388 -0.01457818642523432 0.0090932188978926701
leaf_weight=82 84 51 66
leaf_count=82 84 51 66
internal_value=0 -0.0031487 0.00287213
internal_weight=0 135 148
internal_count=283 135 148
is_linear=0
shrinkage=0.05


Tree=96
num_leaves=4
num_cat=0
split_feature=1 6 3
split_gain=0.97389 1.29035 1.41299
threshold=2003.5000000000002 1.7875000000000003 22.437500000000004
decision_type=2 2 2
left_child=1 2 -1
right_child=-2 -3 -4
leaf_value=0.0017820595440028583 0.0063317643540212881 0.0035059349316302253 -0.0082186378695372365
leaf_weight=59 50 86 88
leaf_count=59 50 86 88
internal_value=0 -0.00135875 -0.00420475
internal_weight=0 233 147
internal_count=283 233 147
is_linear=0
shrinkage=0.05


Tree=97
num_leaves=5
num_cat=0
split_feature=4 2 4 1
split_gain=0.954141 1.37781 2.18265 1.31809
threshold=270.37500000000006 35.487500000000004 180.62500000000003 1996.5000000000002
decision_type=2 2 2 2
left_child=1 -1 3 -3
right_child=-2 2 -4 -5
leaf_value=-0.0050052576013230035 -0.005911110661585223 -0.0053083604849719756 0.011822723937699007 0.0056247232600535255
leaf_weight=61 55 60 56 51
leaf_count=61 55 60 56 51
internal_value=0 0.00142593 0.00377504 -0.000285052
internal_weight=0 228 167 111
internal_count=283 228 167 111
is_linear=0
shrinkage=0.05


Tree=98
num_leaves=4
num_cat=0
split_feature=0 3 3
split_gain=0.898772 3.80498 1.63743
threshold=9.5000000000000018 22.987500000000001 23.387500000000003
decision_type=2 2 2
left_child=2 -2 -1
right_child=1 -3 -4
leaf_value=-0.0020271587372961935 0.0035904125005583321 -0.013723227933195293 0.0085532876565897215
leaf_weight=82 84 51 66
leaf_count=82 84 51 66
internal_value=0 -0.0029503 0.00269115
internal_weight=0 135 148
internal_count=283 135 148
is_linear=0
shrinkage=0.05


Tree=99
num_leaves=5
num_cat=0
split_feature=1 3 8 3
split_gain=0.868964 1.22707 0.806679 0.360178
threshold=1977.5000000000002 23.562500000000004 6.5163793105000005 22.887500000000003
decision_type=2 2 2 2
left_child=-1 2 -2 -4
right_child=1 -3 3 -5
leaf_value=-0.0059809556771069769 0.0086634378139234091 -0.0047425359660278887 -0.0012251629921565975 0.0043206189624750277
leaf_weight=50 52 62 67 52
leaf_count=50 52 62 67 52
internal_value=0 0.00128347 0.00346833 0.0011982
internal_weight=0 233 171 119
internal_count=283 233 171 119
is_linear=0
shrinkage=0.05


Tree=100
num_leaves=5
num_cat=0
split_feature=8 8 8 7
split_gain=0.875937 0.900209 1.03496 0.402716
threshold=6.4500000000000002 6.7625000000000011 7.3125000000000009 3.7375000000000003
decision_type=2 2 2 2
left_child=-1 -2 3 -3
right_child=1 2 -4 -5
leaf_value=-0.0048988654588659614 0.0065442101142252802 -0.00030250492994673555 0.0053348464295268063 -0.0066484959460794933
leaf_weight=69 64 50 50 50
leaf_count=69 64 50 50 50
internal_value=0 0.00157954 -0.000538718 -0.0034755
internal_weight=0 214 150 100
internal_count=283 214 150 100
is_linear=0
shrinkage=0.05


Tree=101
num_leaves=4
num_cat=0
split_feature=2 9 0
split_gain=0.847016 4.26911 2.30994
threshold=36.13750000000001 9.5000000000000018 7.5000000000000009
decision_type=2 2 2
left_child=1 -1 -2
right_child=2 -3 -4
leaf_value=-0.013306738462364465 -0.0051770507081528201 0.004421735043693583 0.0078717812933931323
leaf_weight=57 56 84 86
leaf_count=57 56 84 86
internal_value=0 -0.00274509 0.00272576
internal_weight=0 141 142
internal_count=283 141 142
is_linear=0
shrinkage=0.05


Tree=102
num_leaves=5
num_cat=0
split_feature=4 4 7 1
split_gain=0.818694 1.30131 1.11311 0.88733
threshold=270.37500000000006 210.12500000000003 3.9625000000000008 1994.5000000000002
decision_type=2 2 2 2
left_child=1 2 3 -1
right_child=-2 -3 -4 -5
leaf_value=-0.0018741130000254251 -0.0054754977978088643 0.0081847893527735305 -0.0067271467871419357 0.0067559269230531641
leaf_weight=68 55 53 54 53
leaf_count=68 55 53 54 53
internal_value=0 0.00132084 -0.000757951 0.00190599
internal_weight=0 228 175 121
internal_count=283 228 175 121
is_linear=0
shrinkage=0.05


Tree=103
num_leaves=4
num_cat=0
split_feature=0 0 0
split_gain=0.882785 2.12418 1.40539
threshold=9.5000000000000018 13.500000000000002 6.5000000000000009
decision_type=2 2 2
left_child=2 -2 -1
right_child=1 -3 -4
leaf_value=-0.00097215996699799839 -0.0099361337737839985 0.0026858191631423931 0.0091903171778814682
leaf_weight=95 60 75 53
leaf_count=95 60 75 53
internal_value=0 -0.00292394 0.00266711
internal_weight=0 135 148
internal_count=283 135 148
is_linear=0
shrinkage=0.05


Tree=104
num_leaves=4
num_cat=0
split_feature=0 0 2
split_gain=0.866123 1.66443 0.776123
threshold=12.500000000000002 8.5000000000000018 35.937500000000007
decision_type=2 2 2
left_child=1 2 -1
right_child=-2 -3 -4
leaf_value=0.0033410457856953148 -0.0040506426087813449 0.0082564514861859159 -0.0046799565288605854
leaf_weight=50 90 67 76
leaf_count=50 90 67 76
internal_value=0 0.0018889 -0.00149702
internal_weight=0 193 126
internal_count=283 193 126
is_linear=0
shrinkage=0.05


Tree=105
num_leaves=5
num_cat=0
split_feature=0 0 3 2
split_gain=0.800633 2.11861 2.06893 0.700969
threshold=11.500000000000002 8.5000000000000018 22.512500000000003 36.63750000000001
decision_type=2 2 2 2
left_child=1 3 -2 -1
right_child=2 -3 -4 -5
leaf_value=0.002077466734240193 0.0032899800332432446 0.010656301442227857 -0.010690727161800527 -0.0053963297701803813
leaf_weight=67 55 51 51 59
leaf_count=67 55 51 51 59
internal_value=0 0.00205807 -0.00343659 -0.00142217
internal_weight=0 177 106 126
internal_count=283 177 106 126
is_linear=0
shrinkage=0.05


Tree=106
num_leaves=4
num_cat=0
split_feature=2 9 3
split_gain=0.80717 3.83852 1.96073
threshold=36.13750000000001 9.5000000000000018 22.887500000000003
decision_type=2 2 2
left_child=1 -1 -2
right_child=2 -3 -4
leaf_value=-0.012694604554634312 -0.0053088578023016454 0.0041160487032140649 0.0069922522706252974
leaf_weight=57 50 84 92
leaf_count=57 50 84 92
internal_value=0 -0.00267975 0.00266088
internal_weight=0 141 142
internal_count=283 141 142
is_linear=0
shrinkage=0.05


Tree=107
num_leaves=5
num_cat=0
split_feature=1 3 7 3
split_gain=0.774056 1.03856 0.682146 0.557538
threshold=1977.5000000000002 23.562500000000004 4.0375000000000005 22.787500000000005
decision_type=2 2 2 2
left_child=-1 2 3 -2
right_child=1 -3 -4 -5
leaf_value=-0.0056448958455584952 -0.0028099847768855938 -0.0043324814493497536 0.0072541982472802587 0.0044437485420180918
leaf_weight=50 54 62 65 52
leaf_count=50 54 62 65 52
internal_value=0 0.00121135 0.0032214 0.00074845
internal_weight=0 233 171 106
internal_count=283 233 171 106
is_linear=0
shrinkage=0.05


Tree=108
num_leaves=4
num_cat=0
split_feature=0 3 3
split_gain=0.773503 3.0186 1.42653
threshold=9.5000000000000018 22.987500000000001 23.387500000000003
decision_type=2 2 2
left_child=2 -2 -1
right_child=1 -3 -4
leaf_value=-0.0019074040382004503 0.003088763751466537 -0.012332322750487091 0.0079681732578936858
leaf_weight=82 84 51 66
leaf_count=82 84 51 66
internal_value=0 -0.00273698 0.00249657
internal_weight=0 135 148
internal_count=283 135 148
is_linear=0
shrinkage=0.05


Tree=109
num_leaves=4
num_cat=0
split_feature=2 3 0
split_gain=0.730115 3.44991 1.97352
threshold=36.13750000000001 22.762500000000003 7.5000000000000009
decision_type=2 2 2
left_child=1 -1 -2
right_child=2 -3 -4
leaf_value=0.005670822071217334 -0.0047740111651364721 -0.0099905682834670762 0.0072872279303928108
leaf_weight=67 56 74 86
leaf_count=67 56 74 86
internal_value=0 -0.00254863 0.00253068
internal_weight=0 141 142
internal_count=283 141 142
is_linear=0
shrinkage=0.05


Tree=110
num_leaves=4
num_cat=0
split_feature=0 3 3
split_gain=0.767522 2.60471 1.29018
threshold=9.5000000000000018 22.987500000000001 23.387500000000003
decision_type=2 2 2
left_child=2 -2 -1
right_child=1 -3 -4
leaf_value=-0.0017013114590265948 0.0026852515193500691 -0.011639653482730043 0.0076904352345136991
leaf_weight=82 84 51 66
leaf_count=82 84 51 66
internal_value=0 -0.00272638 0.0024869
internal_weight=0 135 148
internal_count=283 135 148
is_linear=0
shrinkage=0.05


Tree=111
num_leaves=5
num_cat=0
split_feature=0 0 3 2
split_gain=0.711012 1.94526 1.50776 0.718349
threshold=11.500000000000002 8.5000000000000018 22.512500000000003 35.937500000000007
decision_type=2 2 2 2
left_child=1 3 -2 -1
right_child=2 -3 -4 -5
leaf_value=0.0032591572767123583 0.0025037735632874748 0.010178428159697968 -0.0094312282690011406 -0.0044575339048414644
leaf_weight=50 55 51 51 76
leaf_count=50 55 51 51 76
internal_value=0 0.00193946 -0.00323854 -0.00139535
internal_weight=0 177 106 126
internal_count=283 177 106 126
is_linear=0
shrinkage=0.05


Tree=112
num_leaves=4
num_cat=0
split_feature=1 0 0
split_gain=0.758685 1.67857 1.70476
threshold=2003.5000000000002 12.500000000000002 8.5000000000000018
decision_type=2 2 2
left_child=1 2 -1
right_child=-2 -3 -4
leaf_value=-0.0021363652686645488 0.005588567711645738 -0.0071245463765403144 0.0087995459814140167
leaf_weight=98 50 79 56
leaf_count=98 50 79 56
internal_value=0 -0.00119926 0.00184033
internal_weight=0 233 154
internal_count=283 233 154
is_linear=0
shrinkage=0.05


Tree=113
num_leaves=5
num_cat=0
split_feature=1 0 8 2
split_gain=0.708261 1.08886 1.61268 1.00107
threshold=1977.5000000000002 13.500000000000002 6.5375000000000005 36.13750000000001
decision_type=2 2 2 2
left_child=-1 2 -2 -4
right_child=1 -3 3 -5
leaf_value=-0.005399661004543305 -0.0083476189441759798 0.0068352332879458707 -0.0031374341831542554 0.0061256981740838712
leaf_weight=50 51 62 50 70
leaf_count=50 51 62 50 70
internal_value=0 0.00115873 -0.000899423 0.00226606
internal_weight=0 233 171 120
internal_count=283 233 171 120
is_linear=0
shrinkage=0.05


Tree=114
num_leaves=4
num_cat=0
split_feature=0 3 3
split_gain=0.684698 2.24584 1.094
threshold=9.5000000000000018 22.987500000000001 23.387500000000003
decision_type=2 2 2
left_child=2 -2 -1
right_child=1 -3 -4
leaf_value=-0.0015077880931441054 0.0024499413162370081 -0.010851578747251017 0.0071405161694256649
leaf_weight=82 84 51 66
leaf_count=82 84 51 66
internal_value=0 -0.00257508 0.00234889
internal_weight=0 135 148
internal_count=283 135 148
is_linear=0
shrinkage=0.05


Tree=115
num_leaves=5
num_cat=0
split_feature=4 4 7 7
split_gain=0.661141 1.20181 1.03804 0.753749
threshold=270.37500000000006 210.12500000000003 3.9625000000000008 3.4875000000000003
decision_type=2 2 2 2
left_child=1 2 3 -1
right_child=-2 -3 -4 -5
leaf_value=-0.0025612031389027835 -0.0049205092747103092 0.0077832801437734654 -0.0065751600480224524 0.0053642268553658421
leaf_weight=55 55 53 54 66
leaf_count=55 55 53 54 66
internal_value=0 0.00118696 -0.000810776 0.00176176
internal_weight=0 228 175 121
internal_count=283 228 175 121
is_linear=0
shrinkage=0.05


Tree=116
num_leaves=4
num_cat=0
split_feature=1 0 0
split_gain=0.661692 1.17558 1.5169
threshold=2002.5000000000002 12.500000000000002 8.5000000000000018
decision_type=2 2 2
left_child=1 2 -1
right_child=-2 -3 -4
leaf_value=-0.002369528181346444 0.0049225560605356648 -0.0061662885145499155 0.0081056411866383214
leaf_weight=96 55 78 54
leaf_count=96 55 78 54
internal_value=0 -0.00118746 0.00140153
internal_weight=0 228 150
internal_count=283 228 150
is_linear=0
shrinkage=0.05


Tree=117
num_leaves=5
num_cat=0
split_feature=1 0 8 2
split_gain=0.623189 1.05287 1.40254 0.886508
threshold=1977.5000000000002 13.500000000000002 6.5375000000000005 36.13750000000001
decision_type=2 2 2 2
left_child=-1 2 -2 -4
right_child=1 -3 3 -5
leaf_value=-0.0050650023240596063 -0.0078829330894365623 0.0066687917787461512 -0.0030698052868247034 0.005647212626479034
leaf_weight=50 51 62 50 70
leaf_count=50 51 62 50 70
internal_value=0 0.00108691 -0.00093693 0.00201512
internal_weight=0 233 171 120
internal_count=283 233 171 120
is_linear=0
shrinkage=0.05


Tree=118
num_leaves=4
num_cat=0
split_feature=0 3 3
split_gain=0.628555 2.03738 0.952417
threshold=9.5000000000000018 22.987500000000001 23.387500000000003
decision_type=2 2 2
left_child=2 -2 -1
right_child=1 -3 -4
leaf_value=-0.0013479417233966382 0.002318881572933779 -0.010350276412917119 0.0067213526672937661
leaf_weight=82 84 51 66
leaf_count=82 84 51 66
internal_value=0 -0.00246724 0.00225053
internal_weight=0 135 148
internal_count=283 135 148
is_linear=0
shrinkage=0.05


Tree=119
num_leaves=4
num_cat=0
split_feature=1 0 8
split_gain=0.589783 1.08989 1.40565
threshold=2002.5000000000002 11.500000000000002 6.7875000000000005
decision_type=2 2 2
left_child=1 2 -1
right_child=-2 -3 -4
leaf_value=0.008261551146564421 0.0046473895275795998 -0.0054017523893465603 -0.0021929634609206142
leaf_weight=51 55 90 87
leaf_count=51 55 90 87
internal_value=0 -0.00112108 0.00167066
internal_weight=0 228 138
internal_count=283 228 138
is_linear=0
shrinkage=0.05


Tree=120
num_leaves=4
num_cat=0
split_feature=8 9 3
split_gain=0.551724 1.09659 0.779433
threshold=7.3125000000000009 9.5000000000000018 22.687500000000004
decision_type=2 2 2
left_child=1 -1 -3
right_child=-2 2 -4
leaf_value=-0.0051568977958767826 0.0047657418856397278 -0.0011438899588606813 0.0065820540116994456
leaf_weight=95 50 85 53
leaf_count=95 50 85 53
internal_value=0 -0.00102269 0.00182332
internal_weight=0 233 138
internal_count=283 233 138
is_linear=0
shrinkage=0.05


Tree=121
num_leaves=4
num_cat=0
split_feature=0 0 0
split_gain=0.532933 1.64387 0.900362
threshold=9.5000000000000018 13.500000000000002 6.5000000000000009
decision_type=2 2 2
left_child=2 -2 -1
right_child=1 -3 -4
leaf_value=-0.00084060464458736146 -0.0084405161836184558 0.0026631052469213803 0.0072934998234487937
leaf_weight=95 60 75 53
leaf_count=95 60 75 53
internal_value=0 -0.00227184 0.00207228
internal_weight=0 135 148
internal_count=283 135 148
is_linear=0
shrinkage=0.05


Tree=122
num_leaves=5
num_cat=0
split_feature=1 0 8 2
split_gain=0.537895 0.955811 1.18457 0.798515
threshold=1977.5000000000002 13.500000000000002 6.5375000000000005 36.13750000000001
decision_type=2 2 2 2
left_child=-1 2 -2 -4
right_child=1 -3 3 -5
leaf_value=-0.0047056388882920144 -0.0073019885503705223 0.0063281843588957861 -0.0030315075726248322 0.0052415902303099369
leaf_weight=50 51 62 50 70
leaf_count=50 51 62 50 70
internal_value=0 0.00100979 -0.000918512 0.00179447
internal_weight=0 233 171 120
internal_count=283 233 171 120
is_linear=0
shrinkage=0.05


Tree=123
num_leaves=5
num_cat=0
split_feature=0 0 3 2
split_gain=0.524745 1.63161 1.13208 0.837065
threshold=11.500000000000002 8.5000000000000018 22.512500000000003 36.63750000000001
decision_type=2 2 2 2
left_child=1 3 -2 -1
right_child=2 -3 -4 -5
leaf_value=0.0024363161061209306 0.0021935830625112759 0.0092117166274464611 -0.0081481905581027858 -0.0057308488107144333
leaf_weight=67 55 51 51 59
leaf_count=67 55 51 51 59
internal_value=0 0.00166616 -0.00278218 -0.00138799
internal_weight=0 177 106 126
internal_count=283 177 106 126
is_linear=0
shrinkage=0.05


Tree=124
num_leaves=4
num_cat=0
split_feature=2 3 8
split_gain=0.519303 1.20076 1.34566
threshold=37.737500000000004 22.462500000000002 6.6625000000000005
decision_type=2 2 2
left_child=1 -1 -3
right_child=-2 2 -4
leaf_value=0.0037883230357519575 0.0046235971894348039 -0.0095559195149689923 0.00016000284121320068
leaf_weight=84 50 59 90
leaf_count=84 50 59 90
internal_value=0 -0.000992188 -0.00368724
internal_weight=0 233 149
internal_count=283 233 149
is_linear=0
shrinkage=0.05


Tree=125
num_leaves=4
num_cat=0
split_feature=0 3 3
split_gain=0.493505 1.60857 0.834595
threshold=9.5000000000000018 22.987500000000001 23.387500000000003
decision_type=2 2 2
left_child=2 -2 -1
right_child=1 -3 -4
leaf_value=-0.0013743888271586381 0.002066549430933914 -0.0091906861990733602 0.0061793135561112487
leaf_weight=82 84 51 66
leaf_count=82 84 51 66
internal_value=0 -0.00218618 0.00199415
internal_weight=0 135 148
internal_count=283 135 148
is_linear=0
shrinkage=0.05


Tree=126
num_leaves=5
num_cat=0
split_feature=4 4 2 5
split_gain=0.48352 1.15367 0.723714 0.529492
threshold=270.37500000000006 204.00000000000003 37.437500000000007 76.375000000000014
decision_type=2 2 2 2
left_child=1 2 3 -1
right_child=-2 -3 -4 -5
leaf_value=-0.0072627407329741355 -0.0042079461162740535 0.0070345826762712605 0.003211984681641503 -0.0002204749151133001
leaf_weight=51 55 59 62 56
leaf_count=51 55 59 62 56
internal_value=0 0.00101507 -0.00108641 -0.00357707
internal_weight=0 228 169 107
internal_count=283 228 169 107
is_linear=0
shrinkage=0.05


Tree=127
num_leaves=5
num_cat=0
split_feature=1 4 7 2
split_gain=0.519922 1.04731 1.41715 0.0694784
threshold=2002.5000000000002 182.62500000000003 4.0375000000000005 36.937500000000007
decision_type=2 2 2 2
left_child=1 3 -3 -1
right_child=-2 2 -4 -5
leaf_value=-0.0062044619885273282 0.0043634694171222777 -0.004216062067576719 0.0064368772370791113 -0.0035685858866199849
leaf_weight=50 55 54 74 50
leaf_count=50 55 54 74 50
internal_value=0 -0.00105259 0.00194267 -0.00488652
internal_weight=0 228 128 100
internal_count=283 228 128 100
is_linear=0
shrinkage=0.05


Tree=128
num_leaves=5
num_cat=0
split_feature=1 0 9 4
split_gain=0.470711 1.32772 1.42422 1.83246
threshold=2003.5000000000002 12.500000000000002 12.000000000000002 194.12500000000003
decision_type=2 2 2 2
left_child=1 2 3 -1
right_child=-2 -3 -4 -5
leaf_value=-0.0015920009779031661 0.004401968464255333 -0.00621441354904371 -0.0050746082351086482 0.011746871461554502
leaf_weight=51 50 79 51 52
leaf_count=51 50 79 51 52
internal_value=0 -0.000944628 0.0017587 0.00514219
internal_weight=0 233 154 103
internal_count=283 233 154 103
is_linear=0
shrinkage=0.05


Tree=129
num_leaves=5
num_cat=0
split_feature=4 2 4 1
split_gain=0.484987 0.963022 1.78858 0.952627
threshold=270.37500000000006 35.487500000000004 180.62500000000003 1996.5000000000002
decision_type=2 2 2 2
left_child=1 -1 3 -3
right_child=-2 2 -4 -5
leaf_value=-0.0043600647168264527 -0.0042143239487301221 -0.0049653107281483243 0.010265623635132216 0.0043293234125217966
leaf_weight=61 55 60 56 51
leaf_count=61 55 60 56 51
internal_value=0 0.00101661 0.00298055 -0.000694803
internal_weight=0 228 167 111
internal_count=283 228 167 111
is_linear=0
shrinkage=0.05


Tree=130
num_leaves=5
num_cat=0
split_feature=2 0 0 2
split_gain=0.468872 0.857871 1.80158 1.31554
threshold=37.737500000000004 12.500000000000002 8.5000000000000018 35.937500000000007
decision_type=2 2 2 2
left_child=1 2 3 -1
right_child=-2 -3 -4 -5
leaf_value=0.0032686443645507097 0.0043933604899793867 -0.0053033805819914532 0.008779054769099905 -0.0079373487364500766
leaf_weight=50 50 76 52 55
leaf_count=50 50 76 52 55
internal_value=0 -0.000942781 0.00116808 -0.00260116
internal_weight=0 233 157 105
internal_count=283 233 157 105
is_linear=0
shrinkage=0.05


Tree=131
num_leaves=4
num_cat=0
split_feature=3 0 6
split_gain=0.508735 0.626594 0.745118
threshold=23.512500000000003 13.500000000000002 1.7625000000000002
decision_type=2 2 2
left_child=1 2 -1
right_child=-2 -3 -4
leaf_value=0.0030646406166936059 -0.0032355338477474804 0.0051925173534878664 -0.0045659919276774402
leaf_weight=65 85 70 63
leaf_count=65 85 70 63
internal_value=0 0.00138899 -0.000691061
internal_weight=0 198 128
internal_count=283 198 128
is_linear=0
shrinkage=0.05


Tree=132
num_leaves=4
num_cat=0
split_feature=8 9 3
split_gain=0.467656 0.955894 0.792296
threshold=7.3125000000000009 9.5000000000000018 22.687500000000004
decision_type=2 2 2
left_child=1 -1 -3
right_child=-2 2 -4
leaf_value=-0.0048014447377308419 0.0043876597997732462 -0.0012759828282629742 0.0065134493932830842
leaf_weight=95 50 85 53
leaf_count=95 50 85 53
internal_value=0 -0.000941558 0.00171561
internal_weight=0 233 138
internal_count=283 233 138
is_linear=0
shrinkage=0.05


Tree=133
num_leaves=4
num_cat=0
split_feature=3 8 5
split_gain=0.449586 0.460951 0.356781
threshold=23.512500000000003 6.7625000000000011 74.125000000000014
decision_type=2 2 2
left_child=1 -1 -3
right_child=-2 2 -4
leaf_value=0.0037674753782675438 -0.0030416292719104713 0.0019428240512497726 -0.0040009375323778861
leaf_weight=97 85 50 51
leaf_count=97 85 50 51
internal_value=0 0.00130575 -0.00105848
internal_weight=0 198 101
internal_count=283 198 101
is_linear=0
shrinkage=0.05


Tree=134
num_leaves=4
num_cat=0
split_feature=2 3 3
split_gain=0.444635 2.5411 1.72032
threshold=36.13750000000001 22.712500000000002 22.887500000000003
decision_type=2 2 2
left_child=1 -1 -2
right_child=2 -3 -4
leaf_value=0.0051664332732219596 -0.005490275830961764 -0.0082855946946268286 0.0060320522474206009
leaf_weight=66 50 75 92
leaf_count=66 50 75 92
internal_value=0 -0.0019889 0.00197489
internal_weight=0 141 142
internal_count=283 141 142
is_linear=0
shrinkage=0.05


Tree=135
num_leaves=4
num_cat=0
split_feature=0 3 0
split_gain=0.444173 1.42879 0.753032
threshold=9.5000000000000018 22.987500000000001 6.5000000000000009
decision_type=2 2 2
left_child=2 -2 -1
right_child=1 -3 -4
leaf_value=-0.00077206514212057784 0.0019340129657870249 -0.0086755371693631299 0.0066668211662579543
leaf_weight=95 84 51 53
leaf_count=95 84 51 53
internal_value=0 -0.00207404 0.00189186
internal_weight=0 135 148
internal_count=283 135 148
is_linear=0
shrinkage=0.05


Tree=136
num_leaves=4
num_cat=0
split_feature=1 0 2
split_gain=0.422569 0.860019 0.623128
threshold=1977.5000000000002 13.500000000000002 36.13750000000001
decision_type=2 2 2
left_child=-1 2 -2
right_child=1 -3 -4
leaf_value=-0.0041707903360947967 -0.0040785872963790947 0.005939869534584784 0.0019630534312781995
leaf_weight=50 82 62 89
leaf_count=50 82 62 89
internal_value=0 0.000895019 -0.000934108
internal_weight=0 233 171
internal_count=283 233 171
is_linear=0
shrinkage=0.05


Tree=137
num_leaves=4
num_cat=0
split_feature=0 3 3
split_gain=0.427996 1.26185 0.675043
threshold=9.5000000000000018 22.987500000000001 23.387500000000003
decision_type=2 2 2
left_child=2 -2 -1
right_child=1 -3 -4
leaf_value=-0.0011724046814800583 0.0017307045636698604 -0.0082397711682407303 0.0056210047212626908
leaf_weight=82 84 51 66
leaf_count=82 84 51 66
internal_value=0 -0.00203592 0.00185709
internal_weight=0 135 148
internal_count=283 135 148
is_linear=0
shrinkage=0.05


Tree=138
num_leaves=5
num_cat=0
split_feature=4 4 7 7
split_gain=0.402524 0.937815 0.852656 0.68456
threshold=270.37500000000006 210.12500000000003 3.9625000000000008 3.4875000000000003
decision_type=2 2 2 2
left_child=1 2 3 -1
right_child=-2 -3 -4 -5
leaf_value=-0.0026268151038410991 -0.0038393614949150524 0.0067531250281048548 -0.0060629438880520567 0.0049261068822957126
leaf_weight=55 55 53 54 66
leaf_count=55 55 53 54 66
internal_value=0 0.000926162 -0.000838576 0.00149296
internal_weight=0 228 175 121
internal_count=283 228 175 121
is_linear=0
shrinkage=0.05


Tree=139
num_leaves=5
num_cat=0
split_feature=0 0 2 2
split_gain=0.398038 1.4175 0.820341 0.777851
threshold=11.500000000000002 8.5000000000000018 36.63750000000001 36.13750000000001
decision_type=2 2 2 2
left_child=1 2 -1 -2
right_child=3 -3 -4 -5
leaf_value=0.0023903176449100254 -0.006706277292467794 0.0084842018892659857 -0.0056948512496616125 0.001860063275287174
leaf_weight=67 53 51 59 53
leaf_count=67 53 51 59 53
internal_value=0 0.00145113 -0.00139559 -0.00242311
internal_weight=0 177 126 106
internal_count=283 177 126 106
is_linear=0
shrinkage=0.05


Tree=140
num_leaves=5
num_cat=0
split_feature=8 0 0 8
split_gain=0.402004 0.676393 0.874933 1.59058
threshold=7.3125000000000009 13.500000000000002 9.5000000000000018 6.8147727275000012
decision_type=2 2 2 2
left_child=1 2 3 -1
right_child=-2 -3 -4 -5
leaf_value=0.0062353104094250338 0.0040680389292538166 0.0035523620241927722 -0.0075634486286026807 -0.0056405245831583524
leaf_weight=54 50 63 57 59
leaf_count=54 50 63 57 59
internal_value=0 -0.00087297 -0.00251295 3.46532e-05
internal_weight=0 233 170 113
internal_count=283 233 170 113
is_linear=0
shrinkage=0.05


Tree=141
num_leaves=4
num_cat=0
split_feature=3 0 6
split_gain=0.377781 0.445527 0.667249
threshold=23.512500000000003 13.500000000000002 1.7625000000000002
decision_type=2 2 2
left_child=1 2 -1
right_child=-2 -3 -4
leaf_value=0.0029970293477302994 -0.0027881750185042623 0.0044041766598820684 -0.0042238795272414647
leaf_weight=65 85 70 63
leaf_count=65 85 70 63
internal_value=0 0.00119694 -0.000557012
internal_weight=0 198 128
internal_count=283 198 128
is_linear=0
shrinkage=0.05


Tree=142
num_leaves=5
num_cat=0
split_feature=1 4 7 2
split_gain=0.375763 0.832236 1.32213 0.0399168
threshold=2002.5000000000002 182.62500000000003 4.0375000000000005 36.937500000000007
decision_type=2 2 2 2
left_child=1 3 -3 -1
right_child=-2 2 -4 -5
leaf_value=-0.0053114799968898303 0.0037095402750525288 -0.0041734632837620604 0.0061161392896964747 -0.0033135603750124574
leaf_weight=50 55 54 74 50
leaf_count=50 55 54 74 50
internal_value=0 -0.000894845 0.00177521 -0.00431252
internal_weight=0 228 128 100
internal_count=283 228 128 100
is_linear=0
shrinkage=0.05


end of trees

feature_importances:
Column_0=95
Column_1=91
Column_8=67
Column_3=57
Column_2=48
Column_9=44
Column_4=33
Column_5=23
Column_6=15
Column_7=13

parameters:
[boosting: gbdt]
[objective: regression]
[metric: rmse]
[tree_learner: serial]
[device_type: cpu]
[linear_tree: 0]
[data: ]
[valid: ]
[num_iterations: 10000]
[learning_rate: 0.05]
[num_leaves: 15]
[num_threads: 0]
[deterministic: 0]
[force_col_wise: 0]
[force_row_wise: 0]
[histogram_pool_size: -1]
[max_depth: -1]
[min_data_in_leaf: 50]
[min_sum_hessian_in_leaf: 0.001]
[bagging_fraction: 0.5]
[pos_bagging_fraction: 1]
[neg_bagging_fraction: 1]
[bagging_freq: 0]
[bagging_seed: 10961]
[feature_fraction: 0.8]
[feature_fraction_bynode: 1]
[feature_fraction_seed: 53]
[extra_trees: 0]
[extra_seed: 11644]
[early_stopping_round: 50]
[first_metric_only: 0]
[max_delta_step: 0]
[lambda_l1: 0]
[lambda_l2: 0]
[linear_lambda: 0]
[min_gain_to_split: 0]
[drop_rate: 0.1]
[max_drop: 50]
[skip_drop: 0.5]
[xgboost_dart_mode: 0]
[uniform_drop: 0]
[drop_seed: 30626]
[top_rate: 0.2]
[other_rate: 0.1]
[min_data_per_group: 100]
[max_cat_threshold: 32]
[cat_l2: 10]
[cat_smooth: 10]
[max_cat_to_onehot: 4]
[top_k: 20]
[monotone_constraints: ]
[monotone_constraints_method: basic]
[monotone_penalty: 0]
[feature_contri: ]
[forcedsplits_filename: ]
[refit_decay_rate: 0.9]
[cegb_tradeoff: 1]
[cegb_penalty_split: 0]
[cegb_penalty_feature_lazy: ]
[cegb_penalty_feature_coupled: ]
[path_smooth: 0]
[interaction_constraints: ]
[verbosity: -1]
[saved_feature_importance_type: 0]
[max_bin: 255]
[max_bin_by_feature: ]
[min_data_in_bin: 3]
[bin_construct_sample_cnt: 200000]
[data_random_seed: 4071]
[is_enable_sparse: 1]
[enable_bundle: 1]
[use_missing: 1]
[zero_as_missing: 0]
[feature_pre_filter: 1]
[pre_partition: 0]
[two_round: 0]
[header: 0]
[label_column: ]
[weight_column: ]
[group_column: ]
[ignore_column: ]
[categorical_feature: ]
[forcedbins_filename: ]
[objective_seed: 602]
[num_class: 1]
[is_unbalance: 0]
[scale_pos_weight: 1]
[sigmoid: 1]
[boost_from_average: 1]
[reg_sqrt: 0]
[alpha: 0.9]
[fair_c: 1]
[poisson_max_delta_step: 0.7]
[tweedie_variance_power: 1.5]
[lambdarank_truncation_level: 30]
[lambdarank_norm: 1]
[label_gain: ]
[eval_at: ]
[multi_error_top_k: 1]
[auc_mu_weights: ]
[num_machines: 1]
[local_listen_port: 12400]
[time_out: 120]
[machine_list_filename: ]
[machines: ]
[gpu_platform_id: -1]
[gpu_device_id: -1]
[gpu_use_dp: 0]
[num_gpu: 1]

end of parameters

pandas_categorical:null
