tree
version=v3
num_class=1
num_tree_per_iteration=1
label_index=0
max_feature_idx=9
objective=regression
feature_names=Column_0 Column_1 Column_2 Column_3 Column_4 Column_5 Column_6 Column_7 Column_8 Column_9
feature_infos=[1:18] [1970:2013] [32.533333329999998:41.399999999999999] [21.533333330000001:26.466666669999999] [39.333333330000002:757.33333330000005] [64:88] [0.20000000000000001:5.8666666669999996] [2.6333333329999999:6.4333333330000002] [3.5:8.6333333329999995] [3:63]
tree_sizes=568 559 559 559 476 557 477 561 559 558 479 562 560 562 563 477 477 560 564 564 564 561 558 562 645 564 478 561 564 646 559 565 566 565 558 558 562 561 565 562 642 566 563 645 563 480 564 482 644 645 645 567 567 562 560 482 648 483 559 563 566 562 564 478 565 567 484 480 564 567 569 565 565 484 482 569 649 644 569 567 569 565 482 482 566 650 484 568 569 570 569 568 563 568 652 482 653 570 569 570 570 485 570 569 572 485 571 572 570 572 484 571 487 652 654 570 572 570 571 573 485 570 572 573 570 569 485 572 572 486 487 571 570 569 573 571 570 570 571 573

Tree=0
num_leaves=5
num_cat=0
split_feature=2 5 8 4
split_gain=55.0413 5.99627 5.71858 1.62391
threshold=36.250000000000007 79.500000000000014 6.8166666665000006 318.00000000000006
decision_type=2 2 2 2
left_child=1 -1 -2 -3
right_child=2 3 -4 -5
leaf_value=-0.034692980214615587 0.028193146518121166 -0.0084052416239865126 0.0088283158256672323 -0.020477322618815103
leaf_weight=51 99 60 62 52
leaf_count=51 99 60 62 52
internal_value=-5.23869e-10 -0.0204815 0.0207359 -0.0140101
internal_weight=0 163 161 112
internal_count=324 163 161 112
is_linear=0
shrinkage=1


Tree=1
num_leaves=5
num_cat=0
split_feature=1 1 9 1
split_gain=116.423 45.9529 11.5407 5.3295
threshold=2004.5000000000002 1978.5000000000002 6.5000000000000009 1988.5000000000002
decision_type=2 2 2 2
left_child=1 -1 -3 -4
right_child=-2 2 3 -5
leaf_value=-0.04868192711294117 0.062869856792191675 -0.020759916636494125 -0.0056795713541630127 0.014380700151521549
leaf_weight=71 60 56 56 81
leaf_count=71 60 56 56 81
internal_value=0 -0.0142886 -0.00163614 0.00618088
internal_weight=0 264 193 137
internal_count=324 264 193 137
is_linear=0
shrinkage=0.05


Tree=2
num_leaves=5
num_cat=0
split_feature=1 1 9 4
split_gain=105.071 41.4725 10.4155 4.92964
threshold=2004.5000000000002 1978.5000000000002 6.5000000000000009 273.66666670000006
decision_type=2 2 2 2
left_child=1 -1 -3 -4
right_child=-2 2 3 -5
leaf_value=-0.046247831128642593 0.05972636317213377 -0.019721920668546642 0.01306206310077921 -0.0066391556542366743
leaf_weight=71 60 56 87 50
leaf_count=71 60 56 87 50
internal_value=0 -0.0135742 -0.00155433 0.00587184
internal_weight=0 264 193 137
internal_count=324 264 193 137
is_linear=0
shrinkage=0.05


Tree=3
num_leaves=5
num_cat=0
split_feature=1 1 9 1
split_gain=94.8269 37.429 9.39997 4.77147
threshold=2004.5000000000002 1978.5000000000002 6.5000000000000009 1988.5000000000002
decision_type=2 2 2 2
left_child=1 -1 -3 -4
right_child=-2 2 3 -5
leaf_value=-0.043935439678591114 0.056740045261879757 -0.018735824693119088 -0.0056441171394128889 0.01333691605458749
leaf_weight=71 60 56 56 81
leaf_count=71 60 56 56 81
internal_value=0 -0.0128955 -0.00147661 0.00557825
internal_weight=0 264 193 137
internal_count=324 264 193 137
is_linear=0
shrinkage=0.05


Tree=4
num_leaves=4
num_cat=0
split_feature=1 1 0
split_gain=86.246 28.7001 7.97575
threshold=2001.5000000000002 1978.5000000000002 8.5000000000000018
decision_type=2 2 2
left_child=1 -1 -3
right_child=-2 2 -4
leaf_value=-0.041738667183155588 0.044316722283412407 0.0071976505982947643 -0.014408305241853337
leaf_weight=71 82 83 88
leaf_count=71 82 83 88
internal_value=0 -0.0150164 -0.0039212
internal_weight=0 242 171
internal_count=324 242 171
is_linear=0
shrinkage=0.05


Tree=5
num_leaves=5
num_cat=0
split_feature=1 1 8 1
split_gain=78.6898 30.2495 7.95258 2.6033
threshold=2004.5000000000002 1978.5000000000002 6.0166666665000008 1988.5000000000002
decision_type=2 2 2 2
left_child=1 -1 -3 -4
right_child=-2 2 3 -5
leaf_value=-0.039651733499125277 0.051687207793196049 -0.018417405573578152 -0.0034288330358784587 0.0103087894035032
leaf_weight=71 60 51 59 83
leaf_count=71 60 51 59 83
internal_value=0 -0.0117471 -0.00148165 0.0046009
internal_weight=0 264 193 142
internal_count=324 264 193 142
is_linear=0
shrinkage=0.05


Tree=6
num_leaves=4
num_cat=0
split_feature=1 1 2
split_gain=71.1321 23.2119 7.21354
threshold=2001.5000000000002 1978.5000000000002 36.250000000000007
decision_type=2 2 2
left_child=1 -1 -3
right_child=-2 2 -4
leaf_value=-0.037669147253298847 0.04024676271464403 -0.014110407461772584 0.0064315999634617441
leaf_weight=71 82 84 87
leaf_count=71 82 84 87
internal_value=0 -0.0136373 -0.00365921
internal_weight=0 242 171
internal_count=324 242 171
is_linear=0
shrinkage=0.05


Tree=7
num_leaves=5
num_cat=0
split_feature=1 1 9 9
split_gain=65.3159 24.4419 8.24694 4.07555
threshold=2004.5000000000002 1978.5000000000002 6.5000000000000009 16.500000000000004
decision_type=2 2 2 2
left_child=1 -1 -3 -4
right_child=-2 2 3 -5
leaf_value=-0.035785690043900413 0.047090507394944636 -0.017640907539836399 0.013694332774553071 -0.0035538922426948216
leaf_weight=71 60 56 69 68
leaf_count=71 60 56 69 68
internal_value=0 -0.0107024 -0.00147485 0.00513317
internal_weight=0 264 193 137
internal_count=324 264 193 137
is_linear=0
shrinkage=0.05


Tree=8
num_leaves=5
num_cat=0
split_feature=1 1 9 4
split_gain=58.9476 22.0588 7.44286 3.9259
threshold=2004.5000000000002 1978.5000000000002 6.5000000000000009 273.66666670000006
decision_type=2 2 2 2
left_child=1 -1 -3 -4
right_child=-2 2 3 -5
leaf_value=-0.033996405121935927 0.044735984091336528 -0.016758862062124538 0.01129311004964014 -0.0062883700570091601
leaf_weight=71 60 56 87 50
leaf_count=71 60 56 87 50
internal_value=0 -0.0101673 -0.00140111 0.00487651
internal_weight=0 264 193 137
internal_count=324 264 193 137
is_linear=0
shrinkage=0.05


Tree=9
num_leaves=5
num_cat=0
split_feature=9 3 3 5
split_gain=13.838 17.6811 3.94142 0.465129
threshold=5.0000000000000009 23.816666665000003 24.683333335000004 78.833333335000006
decision_type=2 2 2 2
left_child=-1 -2 3 -3
right_child=1 2 -4 -5
leaf_value=-0.023105719972281131 -0.013625652768408485 0.011383415549924529 0.023332766141516692 0.0050118844776765488
leaf_weight=54 89 54 66 61
leaf_count=54 89 54 66 61
internal_value=0 0.00462114 0.0135933 0.00800373
internal_weight=0 270 181 115
internal_count=324 270 181 115
is_linear=0
shrinkage=0.05


Tree=10
num_leaves=4
num_cat=0
split_feature=1 1 0
split_gain=53.1503 16.7808 6.43996
threshold=2001.5000000000002 1978.5000000000002 8.5000000000000018
decision_type=2 2 2
left_child=1 -1 -3
right_child=-2 2 -4
leaf_value=-0.032221522866945032 0.034789726083598489 0.0066868912658642936 -0.012727742372556928
leaf_weight=71 82 83 88
leaf_count=71 82 83 88
internal_value=0 -0.0117883 -0.00330427
internal_weight=0 242 171
internal_count=324 242 171
is_linear=0
shrinkage=0.05


Tree=11
num_leaves=5
num_cat=0
split_feature=1 1 9 5
split_gain=48.1584 19.2288 5.73807 1.79996
threshold=2004.5000000000002 1988.5000000000002 16.500000000000004 80.500000000000014
decision_type=2 2 2 2
left_child=1 2 -1 -3
right_child=-2 3 -4 -5
leaf_value=-0.013192699323134389 0.040435212285568317 0.012715017312325026 -0.033488141349122182 0.00032755279562611517
leaf_weight=85 60 51 59 69
leaf_count=85 60 51 59 69
internal_value=0 -0.00918982 -0.0215082 0.00559223
internal_weight=0 264 144 120
internal_count=324 264 144 120
is_linear=0
shrinkage=0.05


Tree=12
num_leaves=5
num_cat=0
split_feature=1 1 8 4
split_gain=43.6324 14.3566 8.34739 0.812297
threshold=2001.5000000000002 1980.5000000000002 6.1500000000000012 215.66666665000002
decision_type=2 2 2 2
left_child=1 -1 -3 -4
right_child=-2 2 3 -5
leaf_value=-0.027231918950976038 0.031521187781174555 -0.017420432096855207 0.011208050132856943 0.002284096163131443
leaf_weight=85 82 55 51 51
leaf_count=85 82 55 51 51
internal_value=0 -0.0106807 -0.0017199 0.00674607
internal_weight=0 242 157 102
internal_count=324 242 157 102
is_linear=0
shrinkage=0.05


Tree=13
num_leaves=5
num_cat=0
split_feature=1 1 0 5
split_gain=39.9696 15.9337 12.4302 1.53613
threshold=2004.5000000000002 1988.5000000000002 8.5000000000000018 80.500000000000014
decision_type=2 2 2 2
left_child=1 2 -1 -3
right_child=-2 3 -4 -5
leaf_value=-0.0031613386498065667 0.036837392449378968 0.011664016391424573 -0.032724824867909778 0.00022033732873725072
leaf_weight=64 60 51 80 69
leaf_count=64 60 51 80 69
internal_value=0 -0.00837213 -0.0195855 0.0050839
internal_weight=0 264 144 120
internal_count=324 264 144 120
is_linear=0
shrinkage=0.05


Tree=14
num_leaves=5
num_cat=0
split_feature=1 1 9 9
split_gain=36.0726 14.3922 7.26668 2.89774
threshold=2004.5000000000002 1980.5000000000002 6.5000000000000009 16.500000000000004
decision_type=2 2 2 2
left_child=1 -1 -3 -4
right_child=-2 2 3 -5
leaf_value=-0.024894912454354413 0.034995523123070603 -0.015441856887806558 0.014207572074207878 -0.0009574987053398102
leaf_weight=85 60 53 63 63
leaf_count=85 60 53 63 63
internal_value=0 -0.00795353 9.12637e-05 0.00662504
internal_weight=0 264 179 126
internal_count=324 264 179 126
is_linear=0
shrinkage=0.05


Tree=15
num_leaves=4
num_cat=0
split_feature=2 0 2
split_gain=19.5423 9.54246 3.29493
threshold=36.250000000000007 8.5000000000000018 37.683333335000007
decision_type=2 2 2
left_child=1 -1 -2
right_child=2 -3 -4
leaf_value=0.0015671153670885195 0.0063936814381495904 -0.022831815154716859 0.020937303857256971
leaf_weight=71 95 92 66
leaf_count=71 95 92 66
internal_value=0 -0.0122041 0.0123557
internal_weight=0 163 161
internal_count=324 163 161
is_linear=0
shrinkage=0.05


Tree=16
num_leaves=4
num_cat=0
split_feature=2 0 2
split_gain=17.6369 8.61207 2.97368
threshold=36.250000000000007 8.5000000000000018 37.683333335000007
decision_type=2 2 2
left_child=1 -1 -2
right_child=2 -3 -4
leaf_value=0.0014887596257555655 0.0060739974113867478 -0.021690224437865571 0.019890438581139529
leaf_weight=71 95 92 66
leaf_count=71 95 92 66
internal_value=0 -0.0115939 0.0117379
internal_weight=0 163 161
internal_count=324 163 161
is_linear=0
shrinkage=0.05


Tree=17
num_leaves=5
num_cat=0
split_feature=1 1 0 2
split_gain=31.9842 13.7631 9.87938 1.4622
threshold=1988.5000000000002 2005.5000000000002 8.5000000000000018 36.250000000000007
decision_type=2 2 2 2
left_child=2 3 -1 -2
right_child=1 -3 -4 -5
leaf_value=-0.0029215917369583622 -0.0001893546927483782 0.035742840914127348 -0.029277692167088389 0.010499982565211563
leaf_weight=64 63 52 80 65
leaf_count=64 63 52 80 65
internal_value=0 0.0140511 -0.0175639 0.00523882
internal_weight=0 180 144 128
internal_count=324 180 144 128
is_linear=0
shrinkage=0.05


Tree=18
num_leaves=5
num_cat=0
split_feature=1 1 0 1
split_gain=29.0806 10.2603 6.35647 1.04281
threshold=2001.5000000000002 1976.5000000000002 12.500000000000002 1988.5000000000002
decision_type=2 2 2 2
left_child=1 -1 3 -3
right_child=-2 2 -4 -5
leaf_value=-0.027482711572000492 0.025733578249971134 -0.0020419246775026504 -0.018314796979655514 0.0067231463051965123
leaf_weight=56 82 65 50 71
leaf_count=56 82 65 50 71
internal_value=0 -0.00871964 -0.00307055 0.00253396
internal_weight=0 242 186 136
internal_count=324 242 186 136
is_linear=0
shrinkage=0.05


Tree=19
num_leaves=5
num_cat=0
split_feature=1 1 0 2
split_gain=26.4431 11.5484 8.65243 1.30652
threshold=2005.5000000000002 1988.5000000000002 8.5000000000000018 36.250000000000007
decision_type=2 2 2 2
left_child=1 2 -1 -3
right_child=-2 3 -4 -5
leaf_value=-0.002256028150441125 0.032669019960583405 -0.00044907192655262493 -0.026921271539613375 0.0096552312499485343
leaf_weight=64 52 63 80 65
leaf_count=64 52 63 80 65
internal_value=0 -0.00624555 -0.0159589 0.00468202
internal_weight=0 272 144 128
internal_count=324 272 144 128
is_linear=0
shrinkage=0.05


Tree=20
num_leaves=5
num_cat=0
split_feature=1 8 1 5
split_gain=23.8829 8.84444 7.72985 1.45983
threshold=2001.5000000000002 6.0482758620000014 1980.5000000000002 79.166666665000022
decision_type=2 2 2 2
left_child=1 -1 -3 -4
right_child=-2 2 3 -5
leaf_value=-0.025322528294886334 0.023320688393603014 -0.015483002442245684 0.010717372623745537 -0.00062676299328230471
leaf_weight=56 82 72 61 53
leaf_count=56 82 72 61 53
internal_value=0 -0.00790205 -0.00265718 0.00544334
internal_weight=0 242 186 114
internal_count=324 242 186 114
is_linear=0
shrinkage=0.05


Tree=21
num_leaves=5
num_cat=0
split_feature=9 3 8 8
split_gain=11.9596 9.62594 2.79721 0.683175
threshold=5.0000000000000009 23.816666665000003 6.0833333335000006 6.8166666665000006
decision_type=2 2 2 2
left_child=-1 -2 -3 -4
right_child=1 2 3 -5
leaf_value=-0.021480342655666864 -0.0091673107754983267 0.020575810824674644 0.010087161864575049 0.0027081523226066069
leaf_weight=54 89 53 73 55
leaf_count=54 89 53 73 55
internal_value=0 0.00429607 0.0109162 0.00691649
internal_weight=0 270 181 128
internal_count=324 270 181 128
is_linear=0
shrinkage=0.05


Tree=22
num_leaves=5
num_cat=0
split_feature=1 1 0 3
split_gain=21.8675 9.5012 7.48041 1.08459
threshold=1988.5000000000002 2005.5000000000002 8.5000000000000018 24.450000000000003
decision_type=2 2 2 2
left_child=2 3 -1 -2
right_child=1 -3 -4 -5
leaf_value=-0.0017817600903072162 0.0081035352618384522 0.029641250871981568 -0.024715720095409781 -0.0012677593114159
leaf_weight=64 76 52 80 52
leaf_count=64 76 52 80 52
internal_value=0 0.0116183 -0.0145228 0.00429645
internal_weight=0 180 144 128
internal_count=324 180 144 128
is_linear=0
shrinkage=0.05


Tree=23
num_leaves=5
num_cat=0
split_feature=1 1 0 2
split_gain=19.7354 8.57484 6.75107 1.05244
threshold=1988.5000000000002 2005.5000000000002 8.5000000000000018 36.250000000000007
decision_type=2 2 2 2
left_child=2 3 -1 -2
right_child=1 -3 -4 -5
leaf_value=-0.001692672055651201 -0.00052358774091338831 0.028159188464857068 -0.023479934068163857 0.0085451377076186386
leaf_weight=64 63 52 80 65
leaf_count=64 63 52 80 65
internal_value=0 0.0110374 -0.0137967 0.00408162
internal_weight=0 180 144 128
internal_count=324 180 144 128
is_linear=0
shrinkage=0.05


Tree=24
num_leaves=6
num_cat=0
split_feature=1 0 1 7 1
split_gain=17.8121 6.71207 3.31922 0.936061 0.881801
threshold=1999.5000000000002 8.5000000000000018 1981.5000000000002 4.716666666500001 1984.5000000000002
decision_type=2 2 2 2 2
left_child=1 4 -3 -2 -1
right_child=3 2 -4 -5 -6
leaf_value=-0.003033710857226442 0.022383569357916716 -0.025686764522455635 -0.0088690600561266639 0.012708545148372649 0.0062193865773688059
leaf_weight=52 50 50 71 50 51
leaf_count=52 50 50 71 50 51
internal_value=0 -0.00783306 -0.0158185 0.0175461 0.00154792
internal_weight=0 224 121 100 103
internal_count=324 224 121 100 103
is_linear=0
shrinkage=0.05


Tree=25
num_leaves=5
num_cat=0
split_feature=1 8 1 5
split_gain=16.5154 8.16668 6.95511 1.60598
threshold=2005.5000000000002 5.7666666665000008 1980.5000000000002 79.166666665000022
decision_type=2 2 2 2
left_child=1 -1 -3 -4
right_child=-2 2 3 -5
leaf_value=-0.023191567502915858 0.025818108810255161 -0.013467947374633632 0.010885020256308574 0.00048412002162209159
leaf_weight=50 52 73 70 79
leaf_count=50 52 73 70 79
internal_value=0 -0.00493581 -0.000824159 0.00537045
internal_weight=0 272 222 149
internal_count=324 272 222 149
is_linear=0
shrinkage=0.05


Tree=26
num_leaves=4
num_cat=0
split_feature=2 0 2
split_gain=9.55102 5.39032 2.44494
threshold=36.250000000000007 8.5000000000000018 37.683333335000007
decision_type=2 2 2
left_child=1 -1 -2
right_child=2 -3 -4
leaf_value=0.0018183692660130248 0.0035020838501422027 -0.016519459975255734 0.016030123330314051
leaf_weight=71 95 92 66
leaf_count=71 95 92 66
internal_value=0 -0.00853182 0.0086378
internal_weight=0 163 161
internal_count=324 163 161
is_linear=0
shrinkage=0.05


Tree=27
num_leaves=5
num_cat=0
split_feature=1 5 1 5
split_gain=14.9578 5.41135 4.5889 4.69976
threshold=1995.5000000000002 79.833333335000006 1976.5000000000002 77.833333335000006
decision_type=2 2 2 2
left_child=2 -2 -1 -4
right_child=1 -3 3 -5
leaf_value=-0.020866045963235335 0.025419692608158823 0.0046604624132976519 0.0072699218140249815 -0.011520931129301217
leaf_weight=56 53 77 56 82
leaf_count=56 53 77 56 82
internal_value=0 0.0131238 -0.00879433 -0.00389566
internal_weight=0 130 194 138
internal_count=324 130 194 138
is_linear=0
shrinkage=0.05


Tree=28
num_leaves=5
num_cat=0
split_feature=1 1 0 8
split_gain=13.7076 5.99593 5.05314 0.749095
threshold=1988.5000000000002 2005.5000000000002 8.5000000000000018 6.2500000000000009
decision_type=2 2 2 2
left_child=2 3 -1 -2
right_child=1 -3 -4 -5
leaf_value=-0.0010264000913593919 -0.0010955149945975453 0.023516060308051798 -0.019875771318620537 0.0066496482361233919
leaf_weight=64 54 52 80 74
leaf_count=64 54 52 80 74
internal_value=0 0.00919862 -0.0114983 0.00338216
internal_weight=0 180 144 128
internal_count=324 180 144 128
is_linear=0
shrinkage=0.05


Tree=29
num_leaves=6
num_cat=0
split_feature=1 1 8 5 3
split_gain=12.4022 4.77647 4.61345 1.24476 0.0176802
threshold=1999.5000000000002 1976.5000000000002 6.2006172840000007 79.166666665000022 24.450000000000003
decision_type=2 2 2 2 2
left_child=1 -1 -3 -4 -2
right_child=4 2 3 -5 -6
leaf_value=-0.019182380844306735 0.013976193476468324 -0.014696060162000672 0.0077349006713396222 -0.0027239561754977331 0.015305862873792648
leaf_weight=56 50 52 66 50 50
leaf_count=56 50 52 66 50 50
internal_value=0 -0.00653617 -0.00232077 0.00322677 0.014641
internal_weight=0 224 168 116 100
internal_count=324 224 168 116 100
is_linear=0
shrinkage=0.05


Tree=30
num_leaves=5
num_cat=0
split_feature=9 9 2 0
split_gain=10.065 6.60975 6.30098 1.83078
threshold=5.0000000000000009 16.500000000000004 36.183333335000007 6.5000000000000009
decision_type=2 2 2 2
left_child=-1 3 -3 -2
right_child=1 2 -4 -5
leaf_value=-0.019705562890265829 0.0044026244445093217 -0.017011336529893534 0.0057914593017123865 0.015700446416345566
leaf_weight=54 61 56 66 87
leaf_count=54 61 56 66 87
internal_value=0 0.00394111 -0.0046754 0.0110439
internal_weight=0 270 122 148
internal_count=324 270 122 148
is_linear=0
shrinkage=0.05


Tree=31
num_leaves=5
num_cat=0
split_feature=1 8 1 3
split_gain=11.5736 5.95636 4.67258 1.36155
threshold=2005.5000000000002 5.7666666665000008 1980.5000000000002 24.616666665000004
decision_type=2 2 2 2
left_child=1 -1 -3 -4
right_child=-2 2 3 -5
leaf_value=-0.019722651430405677 0.021612959265565643 -0.010983891708597746 0.0079564625007273234 -0.0020710400332553456
leaf_weight=50 52 73 97 52
leaf_count=50 52 73 97 52
internal_value=0 -0.00413189 -0.000620456 0.00445693
internal_weight=0 272 222 149
internal_count=324 272 222 149
is_linear=0
shrinkage=0.05


Tree=32
num_leaves=5
num_cat=0
split_feature=1 1 0 8
split_gain=10.6124 4.52551 4.09566 0.484968
threshold=1988.5000000000002 2005.5000000000002 8.5000000000000018 6.2500000000000009
decision_type=2 2 2 2
left_child=2 3 -1 -2
right_child=1 -3 -4 -5
leaf_value=-0.00068947059917263693 -0.00056223922271143509 0.020532311246139356 -0.017659330475653406 0.0056696391702201719
leaf_weight=64 54 52 80 74
leaf_count=64 54 52 80 74
internal_value=0 0.00809374 -0.0101172 0.00304057
internal_weight=0 180 144 128
internal_count=324 180 144 128
is_linear=0
shrinkage=0.05


Tree=33
num_leaves=5
num_cat=0
split_feature=1 1 9 3
split_gain=9.57768 4.08427 3.43455 0.944389
threshold=1988.5000000000002 2005.5000000000002 16.500000000000004 24.450000000000003
decision_type=2 2 2 2
left_child=2 3 -1 -2
right_child=1 -3 -4 -5
leaf_value=-0.0031779193396077442 0.0064410470818218437 0.019505695522261356 -0.018879759081213154 -0.0023035923954851639
leaf_weight=85 76 52 59 52
leaf_count=85 76 52 59 52
internal_value=0 0.00768905 -0.00961131 0.00288854
internal_weight=0 180 144 128
internal_count=324 180 144 128
is_linear=0
shrinkage=0.05


Tree=34
num_leaves=5
num_cat=0
split_feature=9 1 9 6
split_gain=9.0752 9.9446 6.53971 1.78066
threshold=5.0000000000000009 2001.5000000000002 16.500000000000004 2.1166666665000005
decision_type=2 2 2 2
left_child=-1 2 3 -2
right_child=1 -3 -4 -5
leaf_value=-0.018711590383167345 0.012889083788536912 0.020612695618447932 -0.011892004184597538 0.000407337187038314
leaf_weight=54 53 66 89 62
leaf_count=54 53 66 89 62
internal_value=0 0.00374232 -0.00171575 0.00615979
internal_weight=0 270 204 115
internal_count=324 270 204 115
is_linear=0
shrinkage=0.05


Tree=35
num_leaves=5
num_cat=0
split_feature=9 1 9 6
split_gain=8.19037 8.975 5.90209 1.60704
threshold=5.0000000000000009 2001.5000000000002 16.500000000000004 2.1166666665000005
decision_type=2 2 2 2
left_child=-1 2 3 -2
right_child=1 -3 -4 -5
leaf_value=-0.017776011000387372 0.012244629809624111 0.019582061146943351 -0.011297403990155025 0.00038697029118456186
leaf_weight=54 53 66 89 62
leaf_count=54 53 66 89 62
internal_value=0 0.0035552 -0.00162996 0.0058518
internal_weight=0 270 204 115
internal_count=324 270 204 115
is_linear=0
shrinkage=0.05


Tree=36
num_leaves=5
num_cat=0
split_feature=1 5 1 5
split_gain=7.75474 3.51454 3.86347 2.94158
threshold=1988.5000000000002 81.833333335000006 2002.5000000000002 78.166666665000022
decision_type=2 2 2 2
left_child=3 2 -2 -1
right_child=1 -3 -4 -5
leaf_value=-0.0005453080749638113 0.0038476088303000186 -0.0028396248443388061 0.021974448205788956 -0.01495082007698071
leaf_weight=63 66 61 53 81
leaf_count=63 66 61 53 81
internal_value=0 0.00691873 0.0119209 -0.00864841
internal_weight=0 180 119 144
internal_count=324 180 119 144
is_linear=0
shrinkage=0.05


Tree=37
num_leaves=5
num_cat=0
split_feature=1 0 0 1
split_gain=6.99865 3.27942 3.23781 2.4022
threshold=1988.5000000000002 12.500000000000002 8.5000000000000018 2002.5000000000002
decision_type=2 2 2 2
left_child=2 3 -1 -2
right_child=1 -3 -4 -5
leaf_value=0.00016643387498334051 0.005391291923542786 -0.0038743145974739547 -0.014921925555390772 0.019466229484416547
leaf_weight=64 77 53 80 50
leaf_count=64 77 53 80 50
internal_value=0 0.00657279 -0.00821599 0.0109326
internal_weight=0 180 144 127
internal_count=324 180 144 127
is_linear=0
shrinkage=0.05


Tree=38
num_leaves=5
num_cat=0
split_feature=9 4 3 5
split_gain=7.23615 4.97427 1.85353 0.933007
threshold=5.0000000000000009 349.16666670000006 24.383333335000003 77.833333335000006
decision_type=2 2 2 2
left_child=-1 2 3 -2
right_child=1 -3 -4 -5
leaf_value=-0.016708453796390032 0.0082736899356823431 -0.0089600845798110916 0.012642398567591934 -0.00066901908992024678
leaf_weight=54 50 63 87 70
leaf_count=54 50 63 87 70
internal_value=0 0.00334169 0.00708571 0.00305711
internal_weight=0 270 207 120
internal_count=324 270 207 120
is_linear=0
shrinkage=0.05


Tree=39
num_leaves=5
num_cat=0
split_feature=0 8 2 7
split_gain=5.85224 1.94529 1.44362 0.642939
threshold=12.500000000000002 6.0833333335000006 37.51666666500001 4.5500000000000007
decision_type=2 2 2 2
left_child=1 -1 3 -3
right_child=-2 2 -4 -5
leaf_value=0.011390735082234493 -0.010752654626228653 -0.0052988041238095918 0.008399160150438548 0.0021560246817799371
leaf_weight=67 91 61 50 55
leaf_count=67 91 61 50 55
internal_value=0 0.00419953 0.00129706 -0.00176419
internal_weight=0 233 166 116
internal_count=324 233 166 116
is_linear=0
shrinkage=0.05


Tree=40
num_leaves=6
num_cat=0
split_feature=9 1 4 1 8
split_gain=6.4748 7.42158 4.99111 2.96869 0.43142
threshold=5.0000000000000009 1976.5000000000002 349.16666670000006 2001.5000000000002 6.5500000000000007
decision_type=2 2 2 2 2
left_child=-1 -2 3 4 -3
right_child=1 2 -4 -5 -6
leaf_value=-0.015805041540524045 -0.014227517127990722 0.0038700074027693864 -0.0060913257447450806 0.021308624243829399 0.010022692927772629
leaf_weight=54 50 58 54 52 56
leaf_count=54 50 58 54 52 56
internal_value=0 0.00316101 0.00711295 0.0114083 0.00689238
internal_weight=0 270 220 166 114
internal_count=324 270 220 166 114
is_linear=0
shrinkage=0.05


Tree=41
num_leaves=5
num_cat=0
split_feature=1 8 1 5
split_gain=5.91929 4.03577 2.86797 0.838107
threshold=2005.5000000000002 5.7666666665000008 1980.5000000000002 78.833333335000006
decision_type=2 2 2 2
left_child=1 -1 -3 -4
right_child=-2 2 3 -5
leaf_value=-0.015788297203835101 0.015456640393061279 -0.0081837380253901217 0.0081762491531956662 0.00061459821140271657
leaf_weight=50 52 73 65 84
leaf_count=50 52 73 65 84
internal_value=0 -0.00295495 -6.45515e-05 0.0039133
internal_weight=0 272 222 149
internal_count=324 272 222 149
is_linear=0
shrinkage=0.05


Tree=42
num_leaves=5
num_cat=0
split_feature=0 8 2 7
split_gain=5.21304 1.80107 1.15962 0.600644
threshold=12.500000000000002 6.0833333335000006 37.51666666500001 4.5500000000000007
decision_type=2 2 2 2
left_child=1 -1 3 -3
right_child=-2 2 -4 -5
leaf_value=0.010883055389650278 -0.010148459568090103 -0.0049892881611547221 0.0075360498595982792 0.0022161675583232533
leaf_weight=67 91 61 50 55
leaf_count=67 91 61 50 55
internal_value=0 0.00396356 0.00117075 -0.00157291
internal_weight=0 233 166 116
internal_count=324 233 166 116
is_linear=0
shrinkage=0.05


Tree=43
num_leaves=6
num_cat=0
split_feature=9 1 1 8 9
split_gain=5.72451 6.30483 3.38504 1.178 0.962947
threshold=5.0000000000000009 1976.5000000000002 2003.5000000000002 6.6166666665000013 12.000000000000002
decision_type=2 2 2 2 2
left_child=-1 -2 3 4 -3
right_child=1 2 -4 -5 -6
leaf_value=-0.014861119835189097 -0.013054733850993218 0.0045617505675181746 0.017488928486084292 0.0087495511713421951 -0.004928553443348322
leaf_weight=54 50 55 54 59 52
leaf_count=54 50 55 54 59 52
internal_value=0 0.00297222 0.00661471 0.00307732 -5.03598e-05
internal_weight=0 270 220 166 107
internal_count=324 270 220 166 107
is_linear=0
shrinkage=0.05


Tree=44
num_leaves=5
num_cat=0
split_feature=1 5 1 5
split_gain=5.00683 2.39711 2.7215 2.09438
threshold=1988.5000000000002 81.833333335000006 2002.5000000000002 78.166666665000022
decision_type=2 2 2 2
left_child=3 2 -2 -1
right_child=1 -3 -4 -5
leaf_value=-0.00011182551453303961 0.0029145851711897802 -0.002499744913647654 0.018128396558821341 -0.012267138365725126
leaf_weight=63 66 61 53 81
leaf_count=63 66 61 53 81
internal_value=0 0.00555935 0.00969048 -0.00694919
internal_weight=0 180 119 144
internal_count=324 180 119 144
is_linear=0
shrinkage=0.05


Tree=45
num_leaves=4
num_cat=0
split_feature=0 1 1
split_gain=4.70008 4.26216 1.10099
threshold=12.500000000000002 1997.5000000000002 1980.5000000000002
decision_type=2 2 2
left_child=1 2 -1
right_child=-2 -3 -4
leaf_value=-0.0059271836893237907 -0.0096362357565130188 0.013296420423779263 0.0025951770369716911
leaf_weight=66 91 78 89
leaf_count=66 91 78 89
internal_value=0 0.00376351 -0.0010337
internal_weight=0 233 155
internal_count=324 233 155
is_linear=0
shrinkage=0.05


Tree=46
num_leaves=5
num_cat=0
split_feature=1 8 1 3
split_gain=4.2878 3.30984 2.00214 1.33884
threshold=2005.5000000000002 5.7666666665000008 1980.5000000000002 24.616666665000004
decision_type=2 2 2 2
left_child=1 -1 -3 -4
right_child=-2 2 3 -5
leaf_value=-0.014136951542895987 0.013155195317981103 -0.0066811941682093151 0.0068964243986519031 -0.0030470881866326988
leaf_weight=50 52 73 97 52
leaf_count=50 52 73 97 52
internal_value=0 -0.00251496 0.000102601 0.00342621
internal_weight=0 272 222 149
internal_count=324 272 222 149
is_linear=0
shrinkage=0.05


Tree=47
num_leaves=4
num_cat=0
split_feature=0 1 0
split_gain=4.21258 3.64023 0.91866
threshold=12.500000000000002 1997.5000000000002 8.5000000000000018
decision_type=2 2 2
left_child=1 2 -1
right_child=-2 -3 -4
leaf_value=0.0021472514765870682 -0.0091228143772581118 0.012372965490421614 -0.0057805313886601034
leaf_weight=96 91 78 59
leaf_count=96 91 78 59
internal_value=0 0.00356299 -0.000870421
internal_weight=0 233 155
internal_count=324 233 155
is_linear=0
shrinkage=0.05


Tree=48
num_leaves=6
num_cat=0
split_feature=9 1 1 8 9
split_gain=4.96425 4.73922 2.27298 1.05614 0.751846
threshold=5.0000000000000009 1976.5000000000002 2003.5000000000002 6.6166666665000013 12.000000000000002
decision_type=2 2 2 2 2
left_child=-1 -2 3 4 -3
right_child=1 2 -4 -5 -6
leaf_value=-0.01383915100207863 -0.01112747096689418 0.0041410157004032628 0.014836593545731847 0.0083980218096936145 -0.004244759868687162
leaf_weight=54 50 55 54 59 52
leaf_count=54 50 55 54 59 52
internal_value=0 0.00276783 0.00592585 0.00302718 6.56855e-05
internal_weight=0 270 220 166 107
internal_count=324 270 220 166 107
is_linear=0
shrinkage=0.05


Tree=49
num_leaves=6
num_cat=0
split_feature=9 1 4 1 5
split_gain=4.48024 4.27715 3.88006 1.59625 0.318862
threshold=5.0000000000000009 1976.5000000000002 349.16666670000006 2001.5000000000002 77.500000000000014
decision_type=2 2 2 2 2
left_child=-1 -2 3 4 -3
right_child=1 2 -4 -5 -6
leaf_value=-0.013147193102108927 -0.010571097509935498 0.008942264834866983 -0.0060126468315030695 0.016676464732853887 0.0036404925635176119
leaf_weight=54 50 53 54 52 61
leaf_count=54 50 53 54 52 61
internal_value=0 0.00262944 0.00562956 0.00941678 0.00610535
internal_weight=0 270 220 166 114
internal_count=324 270 220 166 114
is_linear=0
shrinkage=0.05


Tree=50
num_leaves=6
num_cat=0
split_feature=9 1 4 1 5
split_gain=4.04342 3.86013 3.50176 1.44062 0.287773
threshold=5.0000000000000009 1976.5000000000002 349.16666670000006 2001.5000000000002 77.500000000000014
decision_type=2 2 2 2 2
left_child=-1 -2 3 4 -3
right_child=1 2 -4 -5 -6
leaf_value=-0.012489833855242641 -0.010042542515322567 0.0084951519469712976 -0.005712014724741931 0.015842641514833444 0.0034584679801139191
leaf_weight=54 50 53 54 52 61
leaf_count=54 50 53 54 52 61
internal_value=0 0.00249797 0.00534808 0.00894595 0.00580008
internal_weight=0 270 220 166 114
internal_count=324 270 220 166 114
is_linear=0
shrinkage=0.05


Tree=51
num_leaves=5
num_cat=0
split_feature=0 1 4 5
split_gain=3.76427 2.75152 0.724821 1.22821
threshold=12.500000000000002 1997.5000000000002 283.66666665000008 78.166666665000022
decision_type=2 2 2 2
left_child=1 2 3 -1
right_child=-2 -3 -4 -5
leaf_value=0.0027186521000283608 -0.0086237255125664741 0.011027498830644153 0.0044684757525101301 -0.0081011282905280868
leaf_weight=51 91 78 50 54
leaf_count=51 91 78 50 54
internal_value=0 0.00336806 -0.000486361 -0.00284581
internal_weight=0 233 155 105
internal_count=324 233 155 105
is_linear=0
shrinkage=0.05


Tree=52
num_leaves=5
num_cat=0
split_feature=0 8 2 7
split_gain=3.39725 1.42497 0.716582 0.581708
threshold=12.500000000000002 6.0833333335000006 37.51666666500001 4.5500000000000007
decision_type=2 2 2 2
left_child=1 -1 3 -3
right_child=-2 2 -4 -5
leaf_value=0.0093544168764405616 -0.0081925391190132684 -0.0048033569626449073 0.0057192329792305832 0.0022876049332659354
leaf_weight=67 91 61 50 55
leaf_count=67 91 61 50 55
internal_value=0 0.00319966 0.000715513 -0.00144126
internal_weight=0 233 166 116
internal_count=324 233 166 116
is_linear=0
shrinkage=0.05


Tree=53
num_leaves=5
num_cat=0
split_feature=9 1 4 0
split_gain=3.55527 3.39727 1.93622 1.18076
threshold=5.0000000000000009 1980.5000000000002 341.16666670000006 11.500000000000002
decision_type=2 2 2 2
left_child=-1 -2 3 -3
right_child=1 2 -4 -5
leaf_value=-0.011711663035977702 -0.0067012334428727637 0.0052191702509298927 -0.0026639315187931062 0.01451806477101689
leaf_weight=54 75 90 50 55
leaf_count=54 75 90 50 55
internal_value=0 0.00234233 0.00582063 0.00874634
internal_weight=0 270 195 145
internal_count=324 270 195 145
is_linear=0
shrinkage=0.05


Tree=54
num_leaves=5
num_cat=0
split_feature=9 9 1 0
split_gain=3.20863 3.19167 4.3214 1.52988
threshold=5.0000000000000009 16.500000000000004 1987.5000000000002 10.500000000000002
decision_type=2 2 2 2
left_child=-1 3 -3 -2
right_child=1 2 -4 -5
leaf_value=-0.01112608014437784 0.0033638574146837193 -0.013811293185541505 0.0050498622641540489 0.013966877541487227
leaf_weight=54 95 57 65 53
leaf_count=54 95 57 65 53
internal_value=0 0.00222522 -0.00376232 0.00716088
internal_weight=0 270 122 148
internal_count=324 270 122 148
is_linear=0
shrinkage=0.05


Tree=55
num_leaves=4
num_cat=0
split_feature=0 1 5
split_gain=3.07653 2.29707 0.673605
threshold=12.500000000000002 1999.5000000000002 79.833333335000006
decision_type=2 2 2
left_child=1 2 -1
right_child=-2 -3 -4
leaf_value=-0.0028845081604576034 -0.0077962398237374792 0.010778222266612028 0.0035795283824804104
leaf_weight=95 91 68 70
leaf_count=95 91 68 70
internal_value=0 0.00304488 -0.00014219
internal_weight=0 233 165
internal_count=324 233 165
is_linear=0
shrinkage=0.05


Tree=56
num_leaves=6
num_cat=0
split_feature=9 1 4 0 3
split_gain=2.91702 2.92441 2.99217 1.10333 0.0852179
threshold=5.0000000000000009 1976.5000000000002 349.16666670000006 10.500000000000002 24.250000000000004
decision_type=2 2 2 2 2
left_child=-1 -2 3 4 -3
right_child=1 2 -4 -5 -6
leaf_value=-0.010608458544744214 -0.0087935607172548776 0.0031570003898814323 -0.0056212888978835612 0.012945815443174181 0.0060762108825147161
leaf_weight=54 50 50 54 66 50
leaf_count=54 50 50 54 66 50
internal_value=0 0.00212169 0.00460243 0.00792822 0.00461661
internal_weight=0 270 220 166 100
internal_count=324 270 220 166 100
is_linear=0
shrinkage=0.05


Tree=57
num_leaves=4
num_cat=0
split_feature=0 1 1
split_gain=2.84322 2.04013 0.587304
threshold=12.500000000000002 1999.5000000000002 1980.5000000000002
decision_type=2 2 2
left_child=1 2 -1
right_child=-2 -3 -4
leaf_value=-0.0037298516257468495 -0.0074947943165210714 0.010215145537821468 0.0023592583942132995
leaf_weight=66 91 68 99
leaf_count=66 91 68 99
internal_value=0 0.00292715 -7.63856e-05
internal_weight=0 233 165
internal_count=324 233 165
is_linear=0
shrinkage=0.05


Tree=58
num_leaves=5
num_cat=0
split_feature=9 9 5 0
split_gain=2.642 2.63944 3.50972 1.37953
threshold=5.0000000000000009 16.500000000000004 77.833333335000006 10.500000000000002
decision_type=2 2 2 2
left_child=-1 3 -3 -2
right_child=1 2 -4 -5
leaf_value=-0.010095983715210526 0.0029019781819691788 0.0054826860978962567 -0.011499050623388031 0.012970540504726881
leaf_weight=54 95 58 64 53
leaf_count=54 95 58 64 53
internal_value=0 0.0020192 -0.00342577 0.00650761
internal_weight=0 270 122 148
internal_count=324 270 122 148
is_linear=0
shrinkage=0.05


Tree=59
num_leaves=5
num_cat=0
split_feature=1 3 9 2
split_gain=2.58862 2.16307 3.18108 0.433027
threshold=2005.5000000000002 24.983333335000001 16.500000000000004 36.116666665000004
decision_type=2 2 2 2
left_child=1 2 3 -1
right_child=-2 -3 -4 -5
leaf_value=0.0083519150897779556 0.01022149906314623 -0.010810766633261335 -0.006380289039106527 0.0022412080583017087
leaf_weight=69 52 55 98 50
leaf_count=69 52 55 98 50
internal_value=0 -0.00195411 0.000290665 0.00578439
internal_weight=0 272 217 119
internal_count=324 272 217 119
is_linear=0
shrinkage=0.05


Tree=60
num_leaves=5
num_cat=0
split_feature=2 0 1 2
split_gain=2.49076 3.65404 1.51525 0.572456
threshold=37.483333335000005 12.500000000000002 1997.5000000000002 35.583333335000006
decision_type=2 2 2 2
left_child=1 2 3 -1
right_child=-2 -3 -4 -5
leaf_value=0.0015250068078286507 0.0076562055709655397 -0.011967363449689907 0.0082933587048054595 -0.0054823896898464723
leaf_weight=62 80 72 55 55
leaf_count=62 80 72 55 55
internal_value=0 -0.00251023 0.00144857 -0.00176907
internal_weight=0 244 172 117
internal_count=324 244 172 117
is_linear=0
shrinkage=0.05


Tree=61
num_leaves=5
num_cat=0
split_feature=9 4 1 9
split_gain=2.29989 2.51177 1.93373 0.709219
threshold=5.0000000000000009 380.16666670000006 1980.5000000000002 19.500000000000004
decision_type=2 2 2 2
left_child=-1 2 -2 -4
right_child=1 -3 3 -5
leaf_value=-0.0094196676311117632 -0.0033002232546888049 -0.0082319633383303881 0.004498291369266238 0.011400691570912993
leaf_weight=54 62 50 98 60
leaf_count=54 62 50 98 60
internal_value=0 0.00188393 0.004183 0.00711946
internal_weight=0 270 220 158
internal_count=324 270 220 158
is_linear=0
shrinkage=0.05


Tree=62
num_leaves=5
num_cat=0
split_feature=1 3 9 6
split_gain=2.2033 1.87612 2.89807 0.678279
threshold=2005.5000000000002 24.983333335000001 16.500000000000004 2.1166666665000005
decision_type=2 2 2 2
left_child=1 2 3 -1
right_child=-2 -3 -4 -5
leaf_value=0.0090308033055862321 0.009430118034987783 -0.010051107022233986 -0.0060795287589770651 0.0014594029446809806
leaf_weight=64 52 55 98 55
leaf_count=64 52 55 98 55
internal_value=0 -0.00180282 0.000287764 0.00553142
internal_weight=0 272 217 119
internal_count=324 272 217 119
is_linear=0
shrinkage=0.05


Tree=63
num_leaves=4
num_cat=0
split_feature=2 0 5
split_gain=2.1172 3.24098 1.5389
threshold=37.483333335000005 12.500000000000002 79.833333335000006
decision_type=2 2 2
left_child=1 2 -1
right_child=-2 -3 -4
leaf_value=-0.0039645719840026078 0.0070587592100491746 -0.011220926187605881 0.005572668564285046
leaf_weight=75 80 72 97
leaf_count=75 80 72 97
internal_value=0 -0.00231435 0.00141399
internal_weight=0 244 172
internal_count=324 244 172
is_linear=0
shrinkage=0.05


Tree=64
num_leaves=5
num_cat=0
split_feature=9 4 0 6
split_gain=2.0419 2.26591 1.65077 1.06828
threshold=5.0000000000000009 349.16666670000006 10.500000000000002 2.1833333335000007
decision_type=2 2 2 2
left_child=-1 2 3 -2
right_child=1 -3 -4 -5
leaf_value=-0.0088756427086924237 -0.0034424529753492349 -0.0065276671962309924 0.0097051463220157626 0.0059673050550287064
leaf_weight=54 70 63 84 53
leaf_count=54 70 63 84 53
internal_value=0 0.00177513 0.00430207 0.000612158
internal_weight=0 270 207 123
internal_count=324 270 207 123
is_linear=0
shrinkage=0.05


Tree=65
num_leaves=5
num_cat=0
split_feature=1 3 9 6
split_gain=1.95651 1.64887 2.47156 0.651074
threshold=2005.5000000000002 24.983333335000001 16.500000000000004 2.1166666665000005
decision_type=2 2 2 2
left_child=1 2 3 -1
right_child=-2 -3 -4 -5
leaf_value=0.0085319704883659152 0.0088863128764877248 -0.0094314830724827273 -0.0056190887078813902 0.0011139612107283689
leaf_weight=64 52 55 98 55
leaf_count=64 52 55 98 55
internal_value=0 -0.00169885 0.000261029 0.00510348
internal_weight=0 272 217 119
internal_count=324 272 217 119
is_linear=0
shrinkage=0.05


Tree=66
num_leaves=4
num_cat=0
split_feature=0 1 0
split_gain=1.89965 1.49403 0.636418
threshold=12.500000000000002 1997.5000000000002 8.5000000000000018
decision_type=2 2 2
left_child=1 2 -1
right_child=-2 -3 -4
leaf_value=0.0020640962776572753 -0.0061262107110111519 0.0080366908309933479 -0.0045344062155444117
leaf_weight=96 91 78 59
leaf_count=96 91 78 59
internal_value=0 0.00239264 -0.000447592
internal_weight=0 233 155
internal_count=324 233 155
is_linear=0
shrinkage=0.05


Tree=67
num_leaves=4
num_cat=0
split_feature=2 0 5
split_gain=1.79577 2.70613 1.29884
threshold=37.483333335000005 12.500000000000002 79.833333335000006
decision_type=2 2 2
left_child=1 2 -1
right_child=-2 -3 -4
leaf_value=-0.0036658783207337065 0.0065008850209051158 -0.010269992623499195 0.0050959748821153032
leaf_weight=75 80 72 97
leaf_count=75 80 72 97
internal_value=0 -0.00213144 0.0012754
internal_weight=0 244 172
internal_count=324 244 172
is_linear=0
shrinkage=0.05


Tree=68
num_leaves=5
num_cat=0
split_feature=9 1 4 0
split_gain=1.79339 2.06157 2.09246 1.08348
threshold=5.0000000000000009 1976.5000000000002 349.16666670000006 10.500000000000002
decision_type=2 2 2 2
left_child=-1 -2 3 -3
right_child=1 2 -4 -5
leaf_value=-0.0083180172261092117 -0.0075010000886395582 0.0032459582681767644 -0.0048031054247446641 0.01149992114179909
leaf_weight=54 50 100 54 66
leaf_count=54 50 100 54 66
internal_value=0 0.0016636 0.00374647 0.00652765
internal_weight=0 270 220 166
internal_count=324 270 220 166
is_linear=0
shrinkage=0.05


Tree=69
num_leaves=5
num_cat=0
split_feature=1 8 0 2
split_gain=1.64337 1.38377 0.820431 0.415939
threshold=2005.5000000000002 6.0482758620000014 10.500000000000002 35.750000000000007
decision_type=2 2 2 2
left_child=1 -1 3 -3
right_child=-2 2 -4 -5
leaf_value=-0.007733984379036188 0.0081441955211070862 0.0017308010674063482 0.0048418533857124794 -0.004019873977139047
leaf_weight=68 52 51 71 82
leaf_count=68 52 51 71 82
internal_value=0 -0.00155698 0.000502023 -0.00181473
internal_weight=0 272 204 133
internal_count=324 272 204 133
is_linear=0
shrinkage=0.05


Tree=70
num_leaves=5
num_cat=0
split_feature=0 1 4 5
split_gain=1.60327 1.25189 0.521432 0.754012
threshold=12.500000000000002 1998.5000000000002 283.66666665000008 78.166666665000022
decision_type=2 2 2 2
left_child=1 2 3 -1
right_child=-2 -3 -4 -5
leaf_value=0.0022505866619301775 -0.0056280445408557062 0.0076240084031182157 0.0039561957810074098 -0.0060506825690489208
leaf_weight=51 91 73 50 59
leaf_count=51 91 73 50 59
internal_value=0 0.00219808 -0.000277504 -0.00220191
internal_weight=0 233 160 110
internal_count=324 233 160 110
is_linear=0
shrinkage=0.05


Tree=71
num_leaves=5
num_cat=0
split_feature=9 1 1 7
split_gain=1.5511 1.82101 0.773508 0.956403
threshold=5.0000000000000009 1976.5000000000002 1999.5000000000002 4.5166666665000008
decision_type=2 2 2 2
left_child=-1 -2 3 -3
right_child=1 2 -4 -5
leaf_value=-0.0077357584977141448 -0.0070661807470023645 0.0052423791820830155 0.007388517990662361 -0.0030579292880451143
leaf_weight=54 50 72 81 67
leaf_count=54 50 72 81 67
internal_value=0 0.00154715 0.00350473 0.00124151
internal_weight=0 270 220 139
internal_count=324 270 220 139
is_linear=0
shrinkage=0.05


Tree=72
num_leaves=5
num_cat=0
split_feature=4 9 0 3
split_gain=1.46694 1.92801 1.80499 1.0177
threshold=387.83333335000003 5.0000000000000009 10.500000000000002 24.116666665000004
decision_type=2 2 2 2
left_child=1 -1 3 -3
right_child=-2 2 -4 -5
leaf_value=-0.0074196713996352625 -0.0077839465346187355 -0.005546823504415376 0.0089121855816079506 0.0033594506848721377
leaf_weight=50 51 54 90 79
leaf_count=50 51 54 90 79
internal_value=0 0.00145414 0.00344379 -0.000256631
internal_weight=0 273 223 133
internal_count=324 273 223 133
is_linear=0
shrinkage=0.05


Tree=73
num_leaves=4
num_cat=0
split_feature=0 1 0
split_gain=1.52528 1.06091 0.581069
threshold=12.500000000000002 1995.5000000000002 8.5000000000000018
decision_type=2 2 2
left_child=1 2 -1
right_child=-2 -3 -4
leaf_value=0.0020276847039672752 -0.0054894531979788469 0.0065146105516509251 -0.0044593305684559586
leaf_weight=90 91 87 56
leaf_count=90 91 87 56
internal_value=0 0.00214395 -0.000460486
internal_weight=0 233 146
internal_count=324 233 146
is_linear=0
shrinkage=0.05


Tree=74
num_leaves=4
num_cat=0
split_feature=2 3 9
split_gain=1.32902 1.17401 2.7326
threshold=37.483333335000005 24.850000000000005 16.500000000000004
decision_type=2 2 2
left_child=1 2 -1
right_child=-2 -3 -4
leaf_value=0.0062503221354943336 0.0055926012206327872 -0.0077758916646328757 -0.0060036939103479707
leaf_weight=92 80 62 90
leaf_count=92 80 62 90
internal_value=0 -0.00183364 0.000190644
internal_weight=0 244 182
internal_count=324 244 182
is_linear=0
shrinkage=0.05


Tree=75
num_leaves=5
num_cat=0
split_feature=0 8 6 8
split_gain=1.31311 1.07208 0.446736 0.343838
threshold=12.500000000000002 6.0833333335000006 1.6500000000000001 6.6166666665000013
decision_type=2 2 2 2
left_child=1 -1 -3 -4
right_child=-2 2 3 -5
leaf_value=0.0073277945102039558 -0.0050933652429503732 -0.0041162616275250913 -0.0014825190448811134 0.0039912200332764772
leaf_weight=67 91 50 52 64
leaf_count=67 91 50 52 64
internal_value=0 0.00198925 -0.000165458 0.00153747
internal_weight=0 233 166 116
internal_count=324 233 166 116
is_linear=0
shrinkage=0.05


Tree=76
num_leaves=6
num_cat=0
split_feature=1 3 6 2 2
split_gain=1.30142 1.255 1.16788 0.858244 0.697152
threshold=2005.5000000000002 24.983333335000001 1.3833333335000002 35.216666665000012 36.51666666500001
decision_type=2 2 2 2 2
left_child=1 2 -1 -4 -5
right_child=-2 -3 3 4 -6
leaf_value=-0.0058952453646010589 0.0072475217748433352 -0.0081317051478915596 -0.0027235672756467225 0.0092137866280539212 0.0011739025395529877
leaf_weight=56 52 55 53 52 56
leaf_count=56 52 55 53 52 56
internal_value=0 -0.00138556 0.000324298 0.00248762 0.00504496
internal_weight=0 272 217 161 108
internal_count=324 272 217 161 108
is_linear=0
shrinkage=0.05


Tree=77
num_leaves=6
num_cat=0
split_feature=4 9 1 9 1
split_gain=1.28499 1.60674 1.17391 1.2271 0.444473
threshold=387.83333335000003 5.0000000000000009 1978.5000000000002 19.500000000000004 1996.5000000000002
decision_type=2 2 2 2 2
left_child=1 -1 -3 4 -4
right_child=-2 2 3 -5 -6
leaf_value=-0.00673983943182975 -0.0072852397483645706 -0.0034848423263825036 -0.0010519987895506722 0.01070776405404248 0.005346920711043127
leaf_weight=50 51 51 58 63 51
leaf_count=50 51 51 58 63 51
internal_value=0 0.00136098 0.00317731 0.00515271 0.00194199
internal_weight=0 273 223 172 109
internal_count=324 273 223 172 109
is_linear=0
shrinkage=0.05


Tree=78
num_leaves=5
num_cat=0
split_feature=0 8 6 8
split_gain=1.21484 0.95662 0.391428 0.312841
threshold=12.500000000000002 6.0833333335000006 1.6500000000000001 6.6166666665000013
decision_type=2 2 2 2
left_child=1 -1 -3 -4
right_child=-2 2 3 -5
leaf_value=0.0069562504179219711 -0.0048990771748831721 -0.0038201675295713362 -0.0014086219177653011 0.0038125621755170872
leaf_weight=67 91 50 52 64
leaf_count=67 91 50 52 64
internal_value=0 0.00191337 -0.000122004 0.00147203
internal_weight=0 233 166 116
internal_count=324 233 166 116
is_linear=0
shrinkage=0.05


Tree=79
num_leaves=5
num_cat=0
split_feature=4 0 0 4
split_gain=1.15466 1.59303 1.59367 0.440931
threshold=387.83333335000003 13.500000000000002 8.5000000000000018 195.16666665000002
decision_type=2 2 2 2
left_child=1 2 3 -1
right_child=-2 -3 -4 -5
leaf_value=0.0066546433381736289 -0.006905912152290636 0.0087252681045547915 -0.0056580185171459683 0.00057657832819402123
leaf_weight=50 51 57 92 74
leaf_count=50 51 57 92 74
internal_value=0 0.00129012 -0.000671939 0.00302741
internal_weight=0 273 216 124
internal_count=324 273 216 124
is_linear=0
shrinkage=0.05


Tree=80
num_leaves=5
num_cat=0
split_feature=0 8 6 2
split_gain=1.17041 0.896546 0.362122 0.380676
threshold=12.500000000000002 6.0833333335000006 1.6500000000000001 36.983333335000005
decision_type=2 2 2 2
left_child=1 -1 -3 -4
right_child=-2 2 3 -5
leaf_value=0.0067600298631213494 -0.0048086604952254433 -0.003649400620546658 -0.0010963279946456449 0.0046744604503699376
leaf_weight=67 91 50 65 51
leaf_count=67 91 50 65 51
internal_value=0 0.00187806 -9.23727e-05 0.00144083
internal_weight=0 233 166 116
internal_count=324 233 166 116
is_linear=0
shrinkage=0.05


Tree=81
num_leaves=5
num_cat=0
split_feature=1 4 1 3
split_gain=1.1204 1.38745 0.625256 0.765485
threshold=1976.5000000000002 295.83333335000003 2002.5000000000002 24.183333335000004
decision_type=2 2 2 2
left_child=-1 2 3 -2
right_child=1 -3 -4 -5
leaf_value=-0.0064321649659957215 0.0064250835197055024 -0.0037579846702806468 0.0083768369733459424 -0.0014738285310671364
leaf_weight=56 54 89 54 71
leaf_count=56 54 89 54 71
internal_value=0 0.00134403 0.00388079 0.0019385
internal_weight=0 268 179 125
internal_count=324 268 179 125
is_linear=0
shrinkage=0.05


Tree=82
num_leaves=4
num_cat=0
split_feature=0 9 8
split_gain=1.0651 0.877804 1.17712
threshold=12.500000000000002 9.5000000000000018 6.4166666665000012
decision_type=2 2 2
left_child=1 2 -1
right_child=-2 -3 -4
leaf_value=0.0097778358716509653 -0.0045872249808640983 -0.0018423350122229187 0.00037217304798571442
leaf_weight=58 91 97 78
leaf_count=58 91 97 78
internal_value=0 0.00179158 0.00438341
internal_weight=0 233 136
internal_count=324 233 136
is_linear=0
shrinkage=0.05


Tree=83
num_leaves=4
num_cat=0
split_feature=2 0 5
split_gain=1.01388 1.65805 1.09124
threshold=37.483333335000005 12.500000000000002 79.833333335000006
decision_type=2 2 2
left_child=1 2 -1
right_child=-2 -3 -4
leaf_value=-0.0034640415903801724 0.0048847410593589307 -0.0079720363480090678 0.0045671181730474776
leaf_weight=75 80 72 97
leaf_count=75 80 72 97
internal_value=0 -0.00160155 0.00106516
internal_weight=0 244 172
internal_count=324 244 172
is_linear=0
shrinkage=0.05


Tree=84
num_leaves=5
num_cat=0
split_feature=1 3 9 6
split_gain=0.982246 1.09601 1.60758 0.621847
threshold=2005.5000000000002 24.983333335000001 16.500000000000004 2.0166666665000004
decision_type=2 2 2 2
left_child=1 2 3 -1
right_child=-2 -3 -4 -5
leaf_value=0.0081332322675734762 0.0062963725121405259 -0.0075080758716318426 -0.004348113817609466 0.0008918561377666064
leaf_weight=56 52 55 98 63
leaf_count=56 52 55 98 63
internal_value=0 -0.00120372 0.00039416 0.00429956
internal_weight=0 272 217 119
internal_count=324 272 217 119
is_linear=0
shrinkage=0.05


Tree=85
num_leaves=6
num_cat=0
split_feature=4 9 5 5 4
split_gain=0.977042 1.33645 0.683959 0.822233 0.431886
threshold=387.83333335000003 5.0000000000000009 74.833333335000006 77.833333335000006 250.50000000000003
decision_type=2 2 2 2 2
left_child=1 -1 -3 -4 -5
right_child=-2 2 3 4 -6
leaf_value=-0.006201335488236509 -0.0063525839948424092 -0.0021781830036511217 0.0094737252964276 -0.00099715093945910755 0.0050787036355327943
leaf_weight=50 51 52 54 59 58
leaf_count=50 51 52 54 59 58
internal_value=0 0.00118675 0.00284327 0.00437026 0.00201481
internal_weight=0 273 223 171 117
internal_count=324 273 223 171 117
is_linear=0
shrinkage=0.05


Tree=86
num_leaves=4
num_cat=0
split_feature=2 0 5
split_gain=0.896778 1.44596 0.985268
threshold=37.483333335000005 12.500000000000002 79.833333335000006
decision_type=2 2 2
left_child=1 2 -1
right_child=-2 -3 -4
leaf_value=-0.0033195723726724587 0.0045939891315356363 -0.007455315428928265 0.0043116650769736654
leaf_weight=75 80 72 97
leaf_count=75 80 72 97
internal_value=0 -0.00150623 0.000984091
internal_weight=0 244 172
internal_count=324 244 172
is_linear=0
shrinkage=0.05


Tree=87
num_leaves=5
num_cat=0
split_feature=4 0 0 4
split_gain=0.865579 1.72117 1.30423 0.445819
threshold=387.83333335000003 13.500000000000002 8.5000000000000018 195.16666665000002
decision_type=2 2 2 2
left_child=1 2 3 -1
right_child=-2 -3 -4 -5
leaf_value=0.0060714446878992025 -0.0059792547105519366 0.0088454022586933866 -0.0054330650343731779 -4.0218980378798536e-05
leaf_weight=50 51 57 92 74
leaf_count=50 51 57 92 74
internal_value=0 0.001117 -0.000922435 0.00242416
internal_weight=0 273 216 124
internal_count=324 273 216 124
is_linear=0
shrinkage=0.05


Tree=88
num_leaves=5
num_cat=0
split_feature=1 2 0 8
split_gain=0.899055 0.933099 1.51378 0.470428
threshold=1976.5000000000002 37.483333335000005 12.500000000000002 6.1166666665000013
decision_type=2 2 2 2
left_child=-1 2 3 -2
right_child=1 -3 -4 -5
leaf_value=-0.0057618765734202626 0.0061571190441027284 0.0060259204266962839 -0.007289655996739107 5.8216629495714303e-05
leaf_weight=56 50 73 59 86
leaf_count=56 50 73 59 86
internal_value=0 0.00120397 -0.000601165 0.00230046
internal_weight=0 268 195 136
internal_count=324 268 195 136
is_linear=0
shrinkage=0.05


Tree=89
num_leaves=5
num_cat=0
split_feature=1 8 0 2
split_gain=0.830286 0.788167 0.776715 0.412586
threshold=2005.5000000000002 6.0482758620000014 10.500000000000002 35.750000000000007
decision_type=2 2 2 2
left_child=1 -1 3 -3
right_child=-2 2 -4 -5
leaf_value=-0.0057685156452969427 0.0057888744869090333 0.0017242662836888844 0.0046698670683454884 -0.0040031774684349533
leaf_weight=68 52 51 71 82
leaf_count=68 52 51 71 82
internal_value=0 -0.0011067 0.000447243 -0.00180694
internal_weight=0 272 204 133
internal_count=324 272 204 133
is_linear=0
shrinkage=0.05


Tree=90
num_leaves=5
num_cat=0
split_feature=6 6 5 9
split_gain=0.856015 0.617847 0.939921 0.458816
threshold=1.2500000000000002 2.5166666665000004 77.833333335000006 9.5000000000000018
decision_type=2 2 2 2
left_child=-1 2 -2 -4
right_child=1 -3 3 -5
leaf_value=-0.0052310419778916102 0.0081785662631757485 -0.0024635531205627233 0.0035062290979699508 -0.0025289329631050352
leaf_weight=63 57 78 62 64
leaf_count=63 57 78 62 64
internal_value=0 0.00126267 0.00285089 0.00044075
internal_weight=0 261 183 126
internal_count=324 261 183 126
is_linear=0
shrinkage=0.05


Tree=91
num_leaves=5
num_cat=0
split_feature=1 9 8 6
split_gain=0.795106 1.20187 0.395434 0.0559287
threshold=1980.5000000000002 6.5000000000000009 6.5500000000000007 1.7833333335000001
decision_type=2 2 2 2
left_child=-1 -2 3 -3
right_child=1 2 -4 -5
leaf_value=-0.0041533597279340027 -0.0039228351395447841 0.00063127795699983839 0.0067776957387799654 0.002996203778544441
leaf_weight=85 72 50 67 50
leaf_count=85 72 50 67 50
internal_value=0 0.00147714 0.00380527 0.00181374
internal_weight=0 239 167 100
internal_count=324 239 167 100
is_linear=0
shrinkage=0.05


Tree=92
num_leaves=5
num_cat=0
split_feature=6 4 8 2
split_gain=0.756472 0.56156 1.53791 0.280199
threshold=1.2500000000000002 295.83333335000003 6.8166666665000006 36.300000000000004
decision_type=2 2 2 2
left_child=-1 2 3 -2
right_child=1 -3 -4 -5
leaf_value=-0.0049174941130100741 0.0040916948816647715 -0.002037181101969621 -0.0029212166430374635 0.0093076684630292363
leaf_weight=63 51 89 69 52
leaf_count=63 51 89 69 52
internal_value=0 0.00118698 0.0028553 0.006725
internal_weight=0 261 172 103
internal_count=324 261 172 103
is_linear=0
shrinkage=0.05


Tree=93
num_leaves=5
num_cat=0
split_feature=9 1 4 0
split_gain=0.733889 1.00266 0.988466 1.14364
threshold=5.0000000000000009 1976.5000000000002 346.50000000000006 10.500000000000002
decision_type=2 2 2 2
left_child=-1 -2 3 -3
right_child=1 2 -4 -5
leaf_value=-0.0053210557067628816 -0.0053271337337791923 0.0011744716274552048 -0.0031507688152742686 0.0097752437982264739
leaf_weight=54 50 100 57 63
leaf_count=54 50 100 57 63
internal_value=0 0.00106421 0.00251679 0.0044987
internal_weight=0 270 220 163
internal_count=324 270 220 163
is_linear=0
shrinkage=0.05


Tree=94
num_leaves=6
num_cat=0
split_feature=1 3 9 5 6
split_gain=0.703435 0.884042 1.37541 1.4031 0.774979
threshold=2005.5000000000002 25.016666665000006 12.000000000000002 77.833333335000006 2.0166666665000004
decision_type=2 2 2 2 2
left_child=1 2 4 -4 -1
right_child=-2 -3 3 -5 -6
leaf_value=0.0090176447191042831 0.0053283444668452903 -0.006813022166595988 0.0022260355332816418 -0.0088697534207061966 0.00041675882583314724
leaf_weight=50 52 53 56 58 55
leaf_count=50 52 53 56 58 55
internal_value=0 -0.00101865 0.000383636 -0.00341919 0.00451242
internal_weight=0 272 219 114 105
internal_count=324 272 219 114 105
is_linear=0
shrinkage=0.05


Tree=95
num_leaves=4
num_cat=0
split_feature=0 9 1
split_gain=0.730586 0.786796 0.587545
threshold=12.500000000000002 9.5000000000000018 1996.5000000000002
decision_type=2 2 2
left_child=1 2 -1
right_child=-2 -3 -4
leaf_value=0.0014317443917862811 -0.0037991839002123537 -0.0019565813131774443 0.0082476820079609766
leaf_weight=86 91 97 50
leaf_count=86 91 97 50
internal_value=0 0.0014838 0.0039376
internal_weight=0 233 136
internal_count=324 233 136
is_linear=0
shrinkage=0.05


Tree=96
num_leaves=6
num_cat=0
split_feature=9 1 4 9 6
split_gain=0.684261 0.873117 0.900623 0.857822 0.305733
threshold=5.0000000000000009 1976.5000000000002 346.50000000000006 19.500000000000004 2.1166666665000005
decision_type=2 2 2 2 2
left_child=-1 -2 3 4 -3
right_child=1 2 -4 -5 -6
leaf_value=-0.0051379901503592184 -0.0049365796148777008 0.0041541008260817481 -0.0030267751342698671 0.0089652881844992146 -0.0013217842159792782
leaf_weight=54 50 52 57 61 50
leaf_count=54 50 52 57 61 50
internal_value=0 0.0010276 0.00238309 0.00427489 0.00146984
internal_weight=0 270 220 163 102
internal_count=324 270 220 163 102
is_linear=0
shrinkage=0.05


Tree=97
num_leaves=5
num_cat=0
split_feature=0 1 4 5
split_gain=0.682771 0.538441 0.533942 0.519727
threshold=12.500000000000002 1998.5000000000002 283.66666665000008 78.166666665000022
decision_type=2 2 2 2
left_child=1 2 3 -1
right_child=-2 -3 -4 -5
leaf_value=0.0015601254693762053 -0.0036727573336255586 0.0049928645252518052 0.0040950747164897622 -0.005331836211873945
leaf_weight=51 91 73 50 59
leaf_count=51 91 73 50 59
internal_value=0 0.00143442 -0.000189114 -0.00213647
internal_weight=0 233 160 110
internal_count=324 233 160 110
is_linear=0
shrinkage=0.05


Tree=98
num_leaves=5
num_cat=0
split_feature=6 6 8 4
split_gain=0.672541 0.490501 0.708455 0.921271
threshold=1.2500000000000002 2.5166666665000004 6.8166666665000006 293.50000000000006
decision_type=2 2 2 2
left_child=-1 2 3 -2
right_child=1 -3 -4 -5
leaf_value=-0.0046366761374797318 0.0082041264972881559 -0.0022008773929720078 -0.0021506759308977052 -0.0004318582447562015
leaf_weight=63 74 78 56 53
leaf_count=63 74 78 56 53
internal_value=0 0.0011192 0.00253431 0.00460013
internal_weight=0 261 183 127
internal_count=324 261 183 127
is_linear=0
shrinkage=0.05


Tree=99
num_leaves=5
num_cat=0
split_feature=6 1 6 5
split_gain=0.606968 0.76612 0.577691 0.600406
threshold=1.2500000000000002 1998.5000000000002 2.3500000000000005 79.166666665000022
decision_type=2 2 2 2
left_child=-1 2 3 -2
right_child=1 -3 -4 -5
leaf_value=-0.0044048423422426578 0.0054954884750768544 0.0049955255491936227 -0.0043766363495218478 -0.0019811307280806121
leaf_weight=63 50 84 69 58
leaf_count=63 50 84 69 58
internal_value=0 0.00106324 -0.000802933 0.00148027
internal_weight=0 261 177 108
internal_count=324 261 177 108
is_linear=0
shrinkage=0.05


Tree=100
num_leaves=5
num_cat=0
split_feature=9 9 1 6
split_gain=0.604163 0.883477 1.73042 0.894088
threshold=5.0000000000000009 16.500000000000004 1987.5000000000002 1.8166666665000002
decision_type=2 2 2 2
left_child=-1 3 -3 -2
right_child=1 2 -4 -5
leaf_value=-0.0048279141662297426 0.0090030926829203963 -0.0085435527777135891 0.003391699461051478 0.00078647726700090028
leaf_weight=54 50 57 65 98
leaf_count=54 50 57 65 98
internal_value=0 0.000965583 -0.00218461 0.00356236
internal_weight=0 270 122 148
internal_count=324 270 122 148
is_linear=0
shrinkage=0.05


Tree=101
num_leaves=4
num_cat=0
split_feature=0 9 8
split_gain=0.586862 0.751399 0.859336
threshold=12.500000000000002 9.5000000000000018 6.4166666665000012
decision_type=2 2 2
left_child=1 2 -1
right_child=-2 -3 -4
leaf_value=0.0083369286353539296 -0.003405043516553693 -0.0020322362205839341 0.00030056434192467864
leaf_weight=58 91 97 78
leaf_count=58 91 97 78
internal_value=0 0.00132987 0.00372784
internal_weight=0 233 136
internal_count=324 233 136
is_linear=0
shrinkage=0.05


Tree=102
num_leaves=5
num_cat=0
split_feature=4 3 3 1
split_gain=0.596447 0.999127 0.548778 1.16227
threshold=387.83333335000003 25.050000000000004 24.416666665000005 1983.5000000000002
decision_type=2 2 2 2
left_child=1 2 3 -1
right_child=-2 -3 -4 -5
leaf_value=-0.0050989681028523574 -0.0049634059982410841 -0.0043766695418770412 0.0066310984463255375 0.0042757546400373925
leaf_weight=51 51 67 61 94
leaf_count=51 51 67 61 94
internal_value=0 0.00092723 0.00265228 0.000978438
internal_weight=0 273 206 145
internal_count=324 273 206 145
is_linear=0
shrinkage=0.05


Tree=103
num_leaves=5
num_cat=0
split_feature=9 4 0 8
split_gain=0.54895 0.749815 1.58352 0.844833
threshold=5.0000000000000009 346.50000000000006 10.500000000000002 6.4510101010000005
decision_type=2 2 2 2
left_child=-1 2 3 -2
right_child=1 -3 -4 -5
leaf_value=-0.0046020240428064161 -0.0058398576947015328 -0.0037120195939981692 0.007847593433401882 0.0025101426951722175
leaf_weight=54 54 66 81 69
leaf_count=54 54 66 81 69
internal_value=0 0.000920405 0.00241913 -0.00115571
internal_weight=0 270 204 123
internal_count=324 270 204 123
is_linear=0
shrinkage=0.05


Tree=104
num_leaves=5
num_cat=0
split_feature=0 8 4 8
split_gain=0.574843 0.711653 0.351718 0.304514
threshold=12.500000000000002 6.0649425290000005 190.50000000000003 6.5833333335000006
decision_type=2 2 2 2
left_child=1 -1 -3 -4
right_child=-2 2 3 -5
leaf_value=0.0058065237184564472 -0.0033699967064331851 0.0025744322722496852 -0.0048737665315946709 0.00048701511954681747
leaf_weight=64 91 63 52 54
leaf_count=64 91 63 52 54
internal_value=0 0.00131618 -0.000384307 -0.0021428
internal_weight=0 233 169 106
internal_count=324 233 169 106
is_linear=0
shrinkage=0.05


Tree=105
num_leaves=4
num_cat=0
split_feature=0 9 8
split_gain=0.518796 0.70574 0.792016
threshold=12.500000000000002 9.5000000000000018 6.4166666665000012
decision_type=2 2 2
left_child=1 2 -1
right_child=-2 -3 -4
leaf_value=0.0079992143701709782 -0.0032014968753843521 -0.0020079825606350741 0.00028405259423053421
leaf_weight=58 91 97 78
leaf_count=58 91 97 78
internal_value=0 0.00125037 0.00357434
internal_weight=0 233 136
internal_count=324 233 136
is_linear=0
shrinkage=0.05


Tree=106
num_leaves=5
num_cat=0
split_feature=9 9 5 0
split_gain=0.508178 0.660565 1.57271 0.856936
threshold=5.0000000000000009 16.500000000000004 77.833333335000006 10.500000000000002
decision_type=2 2 2 2
left_child=-1 3 -3 -2
right_child=1 2 -4 -5
leaf_value=-0.0044278237175334389 0.00028919754598877935 0.0041249704828228932 -0.0072426506856572816 0.0082247183693326866
leaf_weight=54 95 58 64 53
leaf_count=54 95 58 64 53
internal_value=0 0.000885565 -0.00183837 0.00313097
internal_weight=0 270 122 148
internal_count=324 270 122 148
is_linear=0
shrinkage=0.05


Tree=107
num_leaves=5
num_cat=0
split_feature=6 1 6 5
split_gain=0.500279 0.663197 0.499813 0.50529
threshold=1.2500000000000002 1998.5000000000002 2.3500000000000005 79.166666665000022
decision_type=2 2 2 2
left_child=-1 2 3 -2
right_child=1 -3 -4 -5
leaf_value=-0.0039990217395363351 0.0050361892096698292 0.0046239079325459901 -0.0040951188984394505 -0.0018226925745317393
leaf_weight=63 50 84 69 58
leaf_count=63 50 84 69 58
internal_value=0 0.000965281 -0.000771016 0.00135272
internal_weight=0 261 177 108
internal_count=324 261 177 108
is_linear=0
shrinkage=0.05


Tree=108
num_leaves=5
num_cat=0
split_feature=4 0 0 4
split_gain=0.473717 1.45566 0.984669 0.557376
threshold=387.83333335000003 13.500000000000002 9.5000000000000018 190.50000000000003
decision_type=2 2 2 2
left_child=1 2 3 -1
right_child=-2 -3 -4 -5
leaf_value=0.0052048138744274705 -0.0044233679004451803 0.0079336945314711898 -0.005924668651340264 -0.0011485732049267324
leaf_weight=56 51 57 70 90
leaf_count=56 51 57 70 90
internal_value=0 0.000826343 -0.00104921 0.00128834
internal_weight=0 273 216 146
internal_count=324 273 216 146
is_linear=0
shrinkage=0.05


Tree=109
num_leaves=5
num_cat=0
split_feature=0 8 6 0
split_gain=0.501448 0.628378 0.298877 0.261823
threshold=12.500000000000002 6.0649425290000005 1.6500000000000001 6.5000000000000009
decision_type=2 2 2 2
left_child=1 -1 -3 -4
right_child=-2 2 3 -5
leaf_value=0.0054487388020788789 -0.0031475155645019405 -0.0035226320207584652 0.0035879607769419199 -0.0011566413333639503
leaf_weight=64 91 52 54 63
leaf_count=64 91 52 54 63
internal_value=0 0.00122929 -0.000368612 0.00103318
internal_weight=0 233 169 117
internal_count=324 233 169 117
is_linear=0
shrinkage=0.05


Tree=110
num_leaves=4
num_cat=0
split_feature=0 9 8
split_gain=0.452557 0.627111 0.670855
threshold=12.500000000000002 9.5000000000000018 6.4166666665000012
decision_type=2 2 2
left_child=1 2 -1
right_child=-2 -3 -4
leaf_value=0.0074308907669358732 -0.002990139505469655 -0.001903659469668859 0.00033033337020195832
leaf_weight=58 91 97 78
leaf_count=58 91 97 78
internal_value=0 0.00116782 0.00335851
internal_weight=0 233 136
internal_count=324 233 136
is_linear=0
shrinkage=0.05


Tree=111
num_leaves=5
num_cat=0
split_feature=9 4 0 6
split_gain=0.447752 0.640406 1.43691 0.685778
threshold=5.0000000000000009 346.50000000000006 10.500000000000002 2.1833333335000007
decision_type=2 2 2 2
left_child=-1 2 3 -2
right_child=1 -3 -4 -5
leaf_value=-0.0041562462410958557 -0.0044376252718003736 -0.0034498869822445241 0.0073873863641724553 0.0031016094908821136
leaf_weight=54 70 66 81 53
leaf_count=54 70 66 81 53
internal_value=0 0.000831249 0.00221632 -0.00118901
internal_weight=0 270 204 123
internal_count=324 270 204 123
is_linear=0
shrinkage=0.05


Tree=112
num_leaves=4
num_cat=0
split_feature=0 9 7
split_gain=0.446835 0.570638 0.430507
threshold=12.500000000000002 9.5000000000000018 4.4500000000000011
decision_type=2 2 2
left_child=1 2 -1
right_child=-2 -3 -4
leaf_value=-0.00032529331393351849 -0.0029711767962038683 -0.0017695053086913739 0.0054635041825739404
leaf_weight=52 91 97 84
leaf_count=52 91 97 84
internal_value=0 0.00116042 0.00325014
internal_weight=0 233 136
internal_count=324 233 136
is_linear=0
shrinkage=0.05


Tree=113
num_leaves=6
num_cat=0
split_feature=1 3 9 5 1
split_gain=0.443338 0.785483 0.927656 1.0177 0.339702
threshold=2005.5000000000002 25.016666665000006 12.000000000000002 77.500000000000014 1986.5000000000002
decision_type=2 2 2 2 2
left_child=1 2 4 -4 -1
right_child=-2 -3 3 -5 -6
leaf_value=0.0067750820657238369 0.004230073742711774 -0.0062705187975398251 0.0022830057313496417 -0.007171203915061335 0.0010868886134253357
leaf_weight=52 52 53 55 59 53
leaf_count=52 52 53 55 59 53
internal_value=0 -0.000808691 0.000513122 -0.00260996 0.0039039
internal_weight=0 272 219 114 105
internal_count=324 272 219 114 105
is_linear=0
shrinkage=0.05


Tree=114
num_leaves=6
num_cat=0
split_feature=1 5 0 7 0
split_gain=0.419269 0.839249 1.58678 0.502851 0.188602
threshold=1976.5000000000002 78.500000000000014 11.500000000000002 4.7833333335000008 8.5000000000000018
decision_type=2 2 2 2 2
left_child=-1 4 3 -3 -2
right_child=1 2 -4 -5 -6
leaf_value=-0.0039347531641916638 0.0022502757177095523 -0.0011981690756701789 -0.0088473008652217699 0.0055292549342209219 0.0064714190988417941
leaf_weight=56 55 61 50 51 51
leaf_count=56 55 61 50 51 51
internal_value=0 0.000822187 -0.00144112 0.00186521 0.0042812
internal_weight=0 268 162 112 106
internal_count=324 268 162 112 106
is_linear=0
shrinkage=0.05


Tree=115
num_leaves=5
num_cat=0
split_feature=4 0 0 8
split_gain=0.399835 1.39485 0.83373 0.667286
threshold=387.83333335000003 13.500000000000002 9.5000000000000018 6.8166666665000006
decision_type=2 2 2 2
left_child=1 2 3 -1
right_child=-2 -3 -4 -5
leaf_value=0.0035882801991550528 -0.0040638168559263589 0.0077165015350226648 -0.0055630330994193046 -0.0034706146375705991
leaf_weight=94 51 57 70 52
leaf_count=94 51 57 70 52
internal_value=0 0.000759175 -0.00107679 0.00107415
internal_weight=0 273 216 146
internal_count=324 273 216 146
is_linear=0
shrinkage=0.05


Tree=116
num_leaves=5
num_cat=0
split_feature=6 1 6 5
split_gain=0.402305 0.57701 0.481229 0.406163
threshold=1.2500000000000002 1998.5000000000002 2.3500000000000005 79.166666665000022
decision_type=2 2 2 2
left_child=-1 2 3 -2
right_child=1 -3 -4 -5
leaf_value=-0.0035861225823210253 0.0046323990365490317 0.0042782386263189396 -0.0040156534582754411 -0.0015170033316625733
leaf_weight=63 50 84 69 58
leaf_count=63 50 84 69 58
internal_value=0 0.000865616 -0.000753934 0.00132994
internal_weight=0 261 177 108
internal_count=324 261 177 108
is_linear=0
shrinkage=0.05


Tree=117
num_leaves=5
num_cat=0
split_feature=3 9 1 1
split_gain=0.388845 0.614161 1.15068 0.375021
threshold=25.050000000000004 12.000000000000002 1983.5000000000002 1986.5000000000002
decision_type=2 2 2 2
left_child=1 3 -3 -1
right_child=-2 2 -4 -5
leaf_value=0.0066602967407132663 -0.0032995423756905702 -0.0074177560326643289 0.0021414075986660253 0.0010127332516607235
leaf_weight=53 70 50 85 66
leaf_count=53 70 50 85 66
internal_value=0 0.000909323 -0.00139902 0.00352803
internal_weight=0 254 135 119
internal_count=324 254 135 119
is_linear=0
shrinkage=0.05


Tree=118
num_leaves=5
num_cat=0
split_feature=0 8 4 8
split_gain=0.374719 0.529454 0.324932 0.295412
threshold=12.500000000000002 6.0649425290000005 190.50000000000003 6.5833333335000006
decision_type=2 2 2 2
left_child=1 -1 -3 -4
right_child=-2 2 3 -5
leaf_value=0.0049357645957570639 -0.002720867781861491 0.0024397589236734405 -0.0047841317277813617 0.0004959272212107425
leaf_weight=64 91 63 52 54
leaf_count=64 91 63 52 54
internal_value=0 0.00106266 -0.000404083 -0.00209429
internal_weight=0 233 169 106
internal_count=324 233 169 106
is_linear=0
shrinkage=0.05


Tree=119
num_leaves=5
num_cat=0
split_feature=9 1 0 1
split_gain=0.367445 0.536104 0.431612 0.297771
threshold=5.0000000000000009 1976.5000000000002 10.500000000000002 1990.5000000000002
decision_type=2 2 2 2
left_child=-1 -2 3 -3
right_child=1 2 -4 -5
leaf_value=-0.0037651205702719315 -0.0039204427842923903 0.0026461375394969118 0.0044031834554037344 -0.0022301564603047054
leaf_weight=54 50 56 93 71
leaf_count=54 50 56 93 71
internal_value=0 0.000753024 0.00181518 -7.99796e-05
internal_weight=0 270 220 127
internal_count=324 270 220 127
is_linear=0
shrinkage=0.05


Tree=120
num_leaves=4
num_cat=0
split_feature=0 9 8
split_gain=0.360631 0.49213 0.536623
threshold=12.500000000000002 9.5000000000000018 6.4166666665000012
decision_type=2 2 2
left_child=1 2 -1
right_child=-2 -3 -4
leaf_value=0.0066253864401068291 -0.0026692316940650448 -0.0016784301284489406 0.00027481298087737882
leaf_weight=58 91 97 78
leaf_count=58 91 97 78
internal_value=0 0.00104249 0.00298315
internal_weight=0 233 136
internal_count=324 233 136
is_linear=0
shrinkage=0.05


Tree=121
num_leaves=5
num_cat=0
split_feature=4 0 0 8
split_gain=0.373688 1.30101 0.751862 0.589203
threshold=387.83333335000003 13.500000000000002 9.5000000000000018 6.8166666665000006
decision_type=2 2 2 2
left_child=1 2 3 -1
right_child=-2 -3 -4 -5
leaf_value=0.0033658699308053912 -0.003928697225409469 0.0074531462318733702 -0.0052994882884169273 -0.0032671801262320237
leaf_weight=94 51 57 70 52
leaf_count=94 51 57 70 52
internal_value=0 0.000733932 -0.00103919 0.00100341
internal_weight=0 273 216 146
internal_count=324 273 216 146
is_linear=0
shrinkage=0.05


Tree=122
num_leaves=5
num_cat=0
split_feature=0 8 4 8
split_gain=0.364769 0.467336 0.304503 0.291051
threshold=12.500000000000002 6.0649425290000005 190.50000000000003 6.5833333335000006
decision_type=2 2 2 2
left_child=1 -1 -3 -4
right_child=-2 2 3 -5
leaf_value=0.0046872699578671016 -0.0026845018732474073 0.0024234343073441696 -0.0046356864022807434 0.00060525415292768565
leaf_weight=64 91 63 52 54
leaf_count=64 91 63 52 54
internal_value=0 0.00104845 -0.00032956 -0.00196577
internal_weight=0 233 169 106
internal_count=324 233 169 106
is_linear=0
shrinkage=0.05


Tree=123
num_leaves=5
num_cat=0
split_feature=6 1 6 3
split_gain=0.361237 0.592303 0.598518 0.391604
threshold=1.6500000000000001 1998.5000000000002 2.3500000000000005 24.150000000000002
decision_type=2 2 2 2
left_child=3 2 -2 -1
right_child=1 -3 -4 -5
leaf_value=-0.0047086171875360301 0.0027944818710905015 0.0055805558540480988 -0.0037446324241118159 0.00087756833389117297
leaf_weight=67 71 58 69 59
leaf_count=67 71 58 69 59
internal_value=0 0.00133182 -0.000428367 -0.00209286
internal_weight=0 198 140 126
internal_count=324 198 140 126
is_linear=0
shrinkage=0.05


Tree=124
num_leaves=5
num_cat=0
split_feature=3 4 2 9
split_gain=0.374545 0.719395 0.524632 0.422663
threshold=25.050000000000004 380.16666670000006 35.88333333500001 19.500000000000004
decision_type=2 2 2 2
left_child=1 2 -1 -4
right_child=-2 -3 3 -5
leaf_value=0.0053779827513790223 -0.0032383024968606019 -0.0044163960917834562 -0.0025033574718147963 0.0033822090685134754
leaf_weight=80 70 51 67 56
leaf_count=80 70 51 67 56
internal_value=0 0.000892446 0.00222619 0.00017625
internal_weight=0 254 203 123
internal_count=324 254 203 123
is_linear=0
shrinkage=0.05


Tree=125
num_leaves=5
num_cat=0
split_feature=3 4 0 3
split_gain=0.338027 0.649254 1.14699 0.691599
threshold=25.050000000000004 380.16666670000006 10.500000000000002 24.116666665000004
decision_type=2 2 2 2
left_child=1 2 3 -1
right_child=-2 -3 -4 -5
leaf_value=-0.005034448710336749 -0.0030763874695237197 -0.0041955761084168713 0.00672742064099437 0.0025201449514222051
leaf_weight=56 70 51 81 66
leaf_count=56 70 51 81 66
internal_value=0 0.000847823 0.00211488 -0.000947537
internal_weight=0 254 203 122
internal_count=324 254 203 122
is_linear=0
shrinkage=0.05


Tree=126
num_leaves=4
num_cat=0
split_feature=0 9 8
split_gain=0.366769 0.460068 0.447019
threshold=12.500000000000002 9.5000000000000018 6.4166666665000012
decision_type=2 2 2
left_child=1 2 -1
right_child=-2 -3 -4
leaf_value=0.0062519696761918226 -0.0026918499970074315 -0.0015794679666533301 0.00045580156610156291
leaf_weight=58 91 97 78
leaf_count=58 91 97 78
internal_value=0 0.00105132 0.0029277
internal_weight=0 233 136
internal_count=324 233 136
is_linear=0
shrinkage=0.05


Tree=127
num_leaves=5
num_cat=0
split_feature=6 1 6 3
split_gain=0.331518 0.540929 0.528717 0.339971
threshold=1.6500000000000001 1998.5000000000002 2.3500000000000005 24.150000000000002
decision_type=2 2 2 2
left_child=3 2 -2 -1
right_child=1 -3 -4 -5
leaf_value=-0.0044421424943286532 0.0026228360375914147 0.0053361573292681113 -0.0035231552700903538 0.00076275903384311723
leaf_weight=67 71 58 69 59
leaf_count=67 71 58 69 59
internal_value=0 0.00127586 -0.00040626 -0.00200493
internal_weight=0 198 140 126
internal_count=324 198 140 126
is_linear=0
shrinkage=0.05


Tree=128
num_leaves=5
num_cat=0
split_feature=3 4 0 8
split_gain=0.339106 0.595583 0.927074 0.937852
threshold=25.050000000000004 346.50000000000006 10.500000000000002 6.4510101010000005
decision_type=2 2 2 2
left_child=1 2 3 -1
right_child=-2 -3 -4 -5
leaf_value=-0.0053708822519149425 -0.0030812951403121199 -0.003195723396579999 0.0067476909715171347 0.0036875345841831256
leaf_weight=53 70 67 72 62
leaf_count=53 70 67 72 62
internal_value=0 0.000849176 0.00229842 -0.000487214
internal_weight=0 254 187 115
internal_count=324 254 187 115
is_linear=0
shrinkage=0.05


Tree=129
num_leaves=4
num_cat=0
split_feature=0 5 9
split_gain=0.35817 0.438047 0.226358
threshold=12.500000000000002 82.166666665000022 9.5000000000000018
decision_type=2 2 2
left_child=1 2 -1
right_child=-2 -3 -4
leaf_value=0.0014265964902476457 -0.0026601085532712496 0.0049390751174227766 -0.0021621809847935844
leaf_weight=99 91 55 79
leaf_count=99 91 55 79
internal_value=0 0.00103893 -0.000166176
internal_weight=0 233 178
internal_count=324 233 178
is_linear=0
shrinkage=0.05


Tree=130
num_leaves=4
num_cat=0
split_feature=0 5 9
split_gain=0.323248 0.395338 0.204288
threshold=12.500000000000002 82.166666665000022 9.5000000000000018
decision_type=2 2 2
left_child=1 2 -1
right_child=-2 -3 -4
leaf_value=0.0013552665853910524 -0.0025271033246539007 0.0046921213843267072 -0.0020540719116519243
leaf_weight=99 91 55 79
leaf_count=99 91 55 79
internal_value=0 0.00098698 -0.000157867
internal_weight=0 233 178
internal_count=324 233 178
is_linear=0
shrinkage=0.05


Tree=131
num_leaves=5
num_cat=0
split_feature=9 1 0 4
split_gain=0.3304 0.460405 0.684898 0.303358
threshold=5.0000000000000009 1978.5000000000002 10.500000000000002 225.66666670000004
decision_type=2 2 2 2
left_child=-1 -2 3 -3
right_child=1 2 -4 -5
leaf_value=-0.0035702836096148799 -0.0030285410856502873 0.0023454787243099417 0.0051975984547673517 -0.0027691187752086834
leaf_weight=54 63 50 88 69
leaf_count=54 63 50 88 69
internal_value=0 0.000714057 0.00185311 -0.000620128
internal_weight=0 270 207 119
internal_count=324 270 207 119
is_linear=0
shrinkage=0.05


Tree=132
num_leaves=5
num_cat=0
split_feature=3 4 2 1
split_gain=0.314983 0.549793 0.504337 0.567956
threshold=25.050000000000004 380.16666670000006 35.88333333500001 1988.5000000000002
decision_type=2 2 2 2
left_child=1 2 -1 -4
right_child=-2 -3 3 -5
leaf_value=0.0050746153175714424 -0.0029696745578465717 -0.0038226276426119549 -0.0041308733704499903 0.002786379380866069
leaf_weight=80 70 51 50 73
leaf_count=80 70 51 50 73
internal_value=0 0.000818414 0.00198439 -2.5512e-05
internal_weight=0 254 203 123
internal_count=324 254 203 123
is_linear=0
shrinkage=0.05


Tree=133
num_leaves=5
num_cat=0
split_feature=6 9 3 4
split_gain=0.307463 1.23424 0.485088 0.231664
threshold=1.6500000000000001 12.000000000000002 24.216666665000002 207.83333330000002
decision_type=2 2 2 2
left_child=1 -1 -2 -4
right_child=2 -3 3 -5
leaf_value=0.0040702777156861976 0.0042661410190542289 -0.006011563845910132 0.0014746893383963998 -0.0029389180733486401
leaf_weight=51 79 75 58 61
leaf_count=51 79 75 58 61
internal_value=0 -0.00193082 0.0012287 -0.000787748
internal_weight=0 126 198 119
internal_count=324 126 198 119
is_linear=0
shrinkage=0.05


Tree=134
num_leaves=5
num_cat=0
split_feature=9 1 9 1
split_gain=0.296868 0.433823 0.591907 0.840301
threshold=5.0000000000000009 1999.5000000000002 16.500000000000004 1985.5000000000002
decision_type=2 2 2 2
left_child=-1 2 3 -2
right_child=1 -3 -4 -5
leaf_value=-0.0033842643283100594 0.0060379699795573422 0.0037383427245565406 -0.0038662007352050515 -0.0027888373144938109
leaf_weight=54 56 81 81 52
leaf_count=54 56 81 81 52
internal_value=0 0.000676853 -0.000635214 0.00178803
internal_weight=0 270 189 108
internal_count=324 270 189 108
is_linear=0
shrinkage=0.05


Tree=135
num_leaves=5
num_cat=0
split_feature=2 4 9 6
split_gain=0.289088 0.661491 0.581075 1.41112
threshold=37.483333335000005 211.66666665000002 16.500000000000004 1.8166666665000002
decision_type=2 2 2 2
left_child=1 -1 3 -3
right_child=-2 2 -4 -5
leaf_value=-0.0052211853810149485 0.0026083316429139814 0.0090588747053498443 -0.002782164804456342 -0.0023894284488306496
leaf_weight=64 80 51 72 57
leaf_count=64 80 51 72 57
internal_value=0 -0.000855191 0.000697163 0.00301671
internal_weight=0 244 180 108
internal_count=324 244 180 108
is_linear=0
shrinkage=0.05


Tree=136
num_leaves=5
num_cat=0
split_feature=6 9 1 6
split_gain=0.289752 0.994711 0.475912 0.443711
threshold=1.6500000000000001 12.000000000000002 1998.5000000000002 2.3500000000000005
decision_type=2 2 2 2
left_child=1 -1 3 -2
right_child=2 -3 -4 -5
leaf_value=0.0035130132984954356 0.002389918512731961 -0.0055378104355186227 0.005001261289061372 -0.0032403663030245167
leaf_weight=51 71 75 58 69
leaf_count=51 71 75 58 69
internal_value=0 -0.00187438 0.00119279 -0.000385008
internal_weight=0 126 198 140
internal_count=324 126 198 140
is_linear=0
shrinkage=0.05


Tree=137
num_leaves=5
num_cat=0
split_feature=3 1 8 0
split_gain=0.307487 0.453949 0.300204 0.363528
threshold=24.850000000000005 1980.5000000000002 6.6166666665000013 10.500000000000002
decision_type=2 2 2 2
left_child=1 -1 3 -3
right_child=-2 2 -4 -5
leaf_value=-0.0026237029338517463 -0.0024647219449404506 -0.0015399472160039075 0.005438391129345686 0.0041121694090543318
leaf_weight=64 91 66 53 50
leaf_count=64 91 66 53 50
internal_value=0 0.000962617 0.00232075 0.00089631
internal_weight=0 233 169 116
internal_count=324 233 169 116
is_linear=0
shrinkage=0.05


Tree=138
num_leaves=5
num_cat=0
split_feature=0 5 6 9
split_gain=0.279509 0.330517 0.376127 0.43769
threshold=12.500000000000002 82.166666665000022 2.2500000000000004 12.000000000000002
decision_type=2 2 2 2
left_child=1 2 3 -1
right_child=-2 -3 -4 -5
leaf_value=0.0012272032976616174 -0.0023499173965499543 0.0043055796652862978 0.002533676205693107 -0.0053246913809114355
leaf_weight=50 91 55 76 52
leaf_count=50 91 55 76 52
internal_value=0 0.000917779 -0.000129013 -0.00211298
internal_weight=0 233 178 102
internal_count=324 233 178 102
is_linear=0
shrinkage=0.05


Tree=139
num_leaves=5
num_cat=0
split_feature=3 3 6 2
split_gain=0.293565 0.338312 0.379339 0.396454
threshold=24.850000000000005 24.416666665000005 1.3833333335000002 35.583333335000006
decision_type=2 2 2 2
left_child=1 2 -1 -4
right_child=-2 -3 3 -5
leaf_value=-0.0035253912492147982 -0.0024082791293039921 0.0043680872731122443 -0.0019749954086728397 0.0038205595473603661
leaf_weight=56 91 55 50 72
leaf_count=56 91 55 50 72
internal_value=0 0.000940573 -0.000118491 0.00144533
internal_weight=0 233 178 122
internal_count=324 233 178 122
is_linear=0
shrinkage=0.05


end of trees

feature_importances:
Column_1=137
Column_0=87
Column_9=79
Column_8=48
Column_4=46
Column_5=39
Column_6=37
Column_2=34
Column_3=34
Column_7=7

parameters:
[boosting: gbdt]
[objective: regression]
[metric: rmse]
[tree_learner: serial]
[device_type: cpu]
[linear_tree: 0]
[data: ]
[valid: ]
[num_iterations: 10000]
[learning_rate: 0.05]
[num_leaves: 15]
[num_threads: 0]
[deterministic: 0]
[force_col_wise: 0]
[force_row_wise: 0]
[histogram_pool_size: -1]
[max_depth: -1]
[min_data_in_leaf: 50]
[min_sum_hessian_in_leaf: 0.001]
[bagging_fraction: 0.5]
[pos_bagging_fraction: 1]
[neg_bagging_fraction: 1]
[bagging_freq: 0]
[bagging_seed: 10961]
[feature_fraction: 0.8]
[feature_fraction_bynode: 1]
[feature_fraction_seed: 53]
[extra_trees: 0]
[extra_seed: 11644]
[early_stopping_round: 50]
[first_metric_only: 0]
[max_delta_step: 0]
[lambda_l1: 0]
[lambda_l2: 0]
[linear_lambda: 0]
[min_gain_to_split: 0]
[drop_rate: 0.1]
[max_drop: 50]
[skip_drop: 0.5]
[xgboost_dart_mode: 0]
[uniform_drop: 0]
[drop_seed: 30626]
[top_rate: 0.2]
[other_rate: 0.1]
[min_data_per_group: 100]
[max_cat_threshold: 32]
[cat_l2: 10]
[cat_smooth: 10]
[max_cat_to_onehot: 4]
[top_k: 20]
[monotone_constraints: ]
[monotone_constraints_method: basic]
[monotone_penalty: 0]
[feature_contri: ]
[forcedsplits_filename: ]
[refit_decay_rate: 0.9]
[cegb_tradeoff: 1]
[cegb_penalty_split: 0]
[cegb_penalty_feature_lazy: ]
[cegb_penalty_feature_coupled: ]
[path_smooth: 0]
[interaction_constraints: ]
[verbosity: -1]
[saved_feature_importance_type: 0]
[max_bin: 255]
[max_bin_by_feature: ]
[min_data_in_bin: 3]
[bin_construct_sample_cnt: 200000]
[data_random_seed: 4071]
[is_enable_sparse: 1]
[enable_bundle: 1]
[use_missing: 1]
[zero_as_missing: 0]
[feature_pre_filter: 1]
[pre_partition: 0]
[two_round: 0]
[header: 0]
[label_column: ]
[weight_column: ]
[group_column: ]
[ignore_column: ]
[categorical_feature: ]
[forcedbins_filename: ]
[objective_seed: 602]
[num_class: 1]
[is_unbalance: 0]
[scale_pos_weight: 1]
[sigmoid: 1]
[boost_from_average: 1]
[reg_sqrt: 0]
[alpha: 0.9]
[fair_c: 1]
[poisson_max_delta_step: 0.7]
[tweedie_variance_power: 1.5]
[lambdarank_truncation_level: 30]
[lambdarank_norm: 1]
[label_gain: ]
[eval_at: ]
[multi_error_top_k: 1]
[auc_mu_weights: ]
[num_machines: 1]
[local_listen_port: 12400]
[time_out: 120]
[machine_list_filename: ]
[machines: ]
[gpu_platform_id: -1]
[gpu_device_id: -1]
[gpu_use_dp: 0]
[num_gpu: 1]

end of parameters

pandas_categorical:null
