tree
version=v3
num_class=1
num_tree_per_iteration=1
label_index=0
max_feature_idx=9
objective=regression
feature_names=Column_0 Column_1 Column_2 Column_3 Column_4 Column_5 Column_6 Column_7 Column_8 Column_9
feature_infos=[41859:41978] [1969:2013] [31.399999999999999:38.399999999999999] [23.850000000000001:27.25] [92.5:1003.5] [78:93] [0.14999999999999999:6.2000000000000002] [3.9500000000000002:7.4000000000000004] [2.2000000000000002:6.9000000000000004] [3:63]
tree_sizes=2628 2733 2501 2551 2552 2835 2658 2627 2526 2625 2633 2614 2560 2562 2409 2453 2540 2529 2565 2798 2811 2682 2681 2777 2698 2610 2682 2795 2826 2441 2787 2564 2799 2695 2718 2614 2921 2636 2598 2846 2682 2627 2480 2714 2708 2856 2844 2839 2502 2761 2934 2499 2743 2695 2629 2506 2597 2381 2735 2658 2600 2512 2744 2621 2599 2586 2603 2639 2646 2706 2735 2584 2699 2612 2706 2809 2626 2730 2744 2870 2851 2726 2806 2628 2738 2648 2639 2786 2621 2751 2590 2581 2626 2715 2745 2881 2507 2758 2548 2842 2871 2742 2639 2725 2870 2469 2747 2620 2888 2631 2768 2660 2744 2870 2739 2759 2646 2650 2793 2652 2729 2679 2791 2904 2743 2877 2768 2530 2739 2844 2657 2645 2634 2543 2677 2768 2815 2771 2850 2656 2870 2922 2629 2904 2852 2586 2491 2684 2662 2766 2745 2671 2519 2664 2806 2893 2752 2775 2788 2553 2732 2907 2763 2764 2533 3006 2797 2754 2784 2542 2537 2849 2778

Tree=0
num_leaves=26
num_cat=0
split_feature=1 1 6 0 7 6 0 0 7 6 0 0 8 0 4 4 1 8 1 2 1 1 4 0 7
split_gain=153.405 16.6059 13.8728 8.26565 7.00338 5.10108 3.50417 11.1768 5.70868 3.3634 3.22861 7.44743 2.82474 2.57047 2.36825 2.71055 1.81822 1.07398 0.958983 0.631586 0.593712 0.569934 0.28759 0.226005 0.225824
threshold=1999.5000000000002 1994.5000000000002 1.675 41963.000000000007 6.5250000000000012 1.0250000000000001 41893.000000000007 41931.000000000007 6.3750000000000009 2.8250000000000006 41901.000000000007 41931.000000000007 4.2750000000000012 41884.500000000007 321.75000000000006 402.75000000000006 1987.5000000000002 4.7228571430000015 1996.5000000000002 34.875000000000007 1984.5000000000002 1976.5000000000002 289.25000000000006 41908.000000000007 5.7750000000000012
decision_type=2 2 2 2 2 2 2 2 2 2 2 2 2 2 2 2 2 2 2 2 2 2 2 2 2
left_child=1 3 5 6 18 -2 13 12 16 14 -7 -12 -8 20 -4 -16 21 23 -3 -15 24 -9 -19 -14 -1
right_child=2 4 9 -5 -6 10 7 8 -10 -11 11 -13 17 19 15 -17 -18 22 -20 -21 -22 -23 -24 -25 -26
leaf_value=-0.032390774498866313 0.055617740887655004 0.029826555681597009 0.041007515020991731 0.012120454262249312 -0.026044186624629116 0.040827275807530511 -0.07869812991979637 -0.030432873932152164 -0.049451144752531428 0.089216299749072928 -0.018968370680458705 0.035196518358956597 -0.051201062915354145 -0.018378182853389956 0.088905976893872807 0.054822790138649907 0.0011703782264811289 -0.046739198384313944 0.0098371507548996023 -0.0029884264312105176 -0.023222576359080916 -0.01568585285740225 -0.034747749832897565 -0.061378769892085766 -0.042228545812397378
leaf_weight=14.000000000000002 17 15.000000000000002 10.999999999999998 10.999999999999998 10.999999999999998 15.999999999999998 9.9999999999999982 10.000000000000002 14.999999999999998 13.999999999999998 11.000000000000002 14.999999999999998 10 15.000000000000002 10.000000000000002 13.999999999999998 13.999999999999998 10.000000000000002 9.9999999999999982 11.999999999999998 12.999999999999998 19 9.9999999999999982 12 9.9999999999999982
leaf_count=14 17 15 11 11 11 16 10 10 15 14 11 15 10 15 10 14 14 10 10 12 13 19 10 12 10
internal_value=1.81169e-10 -0.0238675 0.04884 -0.0299136 0.00720233 0.032509 -0.0325709 -0.0379832 -0.0228921 0.0685039 0.0231555 0.0122806 -0.0548155 -0.0232685 0.0602189 0.0690241 -0.0136273 -0.0491292 0.0218308 -0.0115383 -0.0318284 -0.020771 -0.0407435 -0.0567525 -0.0364898
internal_weight=0 221 108 185 36 59 174 110 58 49 42 26 52 64 35 24 43 42 25 27 37 29 20 22 24
internal_count=329 221 108 185 36 59 174 110 58 49 42 26 52 64 35 24 43 42 25 27 37 29 20 22 24
is_linear=0
shrinkage=1


Tree=1
num_leaves=27
num_cat=0
split_feature=1 1 6 0 1 6 0 0 6 0 0 5 8 0 4 4 4 1 1 8 2 1 6 4 4 0
split_gain=138.448 14.9868 12.5202 7.45974 5.57453 4.60373 3.16251 10.0871 3.03547 2.91382 6.7213 2.76112 2.54932 2.31985 2.13734 2.44627 2.0283 1.17052 1.07496 0.969265 0.570006 0.538953 0.448017 0.447176 0.25955 0.20397
threshold=1999.5000000000002 1994.5000000000002 1.675 41963.000000000007 1997.5000000000002 1.0250000000000001 41893.000000000007 41931.000000000007 2.8250000000000006 41901.000000000007 41931.000000000007 88.250000000000014 4.2750000000000012 41884.500000000007 321.75000000000006 402.75000000000006 437.00000000000006 1995.5000000000002 1987.5000000000002 4.7228571430000015 34.875000000000007 1977.5000000000002 2.3250000000000006 362.75000000000006 289.25000000000006 41908.000000000007
decision_type=2 2 2 2 2 2 2 2 2 2 2 2 2 2 2 2 2 2 2 2 2 2 2 2 2 2
left_child=1 3 5 6 17 -2 13 12 14 -7 -11 18 -8 21 -4 -16 -13 -3 22 25 -15 -1 -9 -23 -21 -14
right_child=2 4 8 -5 -6 9 7 11 -10 10 -12 16 19 20 15 -17 -18 -19 -20 24 -22 23 -24 -25 -26 -27
leaf_value=-0.039514536478302699 0.05283685469013804 0.035171650499105443 0.038957138901407069 0.011514431847767397 -0.017822175810579211 0.038785911910235886 -0.074763222336769117 -0.010913844169540837 0.084755484759807598 -0.018019952895966439 0.033436691798269746 -0.019458019857605296 -0.048641009181737895 -0.017459274368981519 0.084460677206516233 0.052081650409049218 -0.047964495535080254 0.012009462403754395 0.0014337548241019249 -0.044402237683534608 -0.0028390054746220512 -0.018017465695738786 -0.02488377531990409 -0.031495797913521528 -0.033010362088680266 -0.058309833457072573
leaf_weight=10.999999999999998 17 10.000000000000002 10.999999999999998 10.999999999999998 13.999999999999998 15.999999999999998 9.9999999999999982 11.000000000000002 13.999999999999998 11.000000000000002 14.999999999999998 12.000000000000002 10 15.000000000000002 10.000000000000002 13.999999999999998 12.999999999999998 11.999999999999998 9.9999999999999982 10.000000000000002 11.999999999999998 10.000000000000002 11.999999999999998 15.999999999999998 9.9999999999999982 12
leaf_count=11 17 10 11 11 14 16 10 11 14 11 15 12 10 15 10 14 13 12 10 10 12 10 12 16 10 12
internal_value=0 -0.0226742 0.046398 -0.0284179 0.00684221 0.0308836 -0.0309423 -0.036084 0.0650787 0.0219977 0.0116666 -0.0217475 -0.0520747 -0.0221051 0.057208 0.0655729 -0.0342814 0.0225377 -0.0122521 -0.0466727 -0.0109614 -0.030237 -0.0182025 -0.0263118 -0.0387063 -0.0539149
internal_weight=0 221 108 185 36 59 174 110 49 42 26 58 52 64 35 24 25 22 33 42 27 37 23 26 20 22
internal_count=329 221 108 185 36 59 174 110 49 42 26 58 52 64 35 24 25 22 33 42 27 37 23 26 20 22
is_linear=0
shrinkage=0.05


Tree=2
num_leaves=25
num_cat=0
split_feature=1 1 6 0 7 6 0 0 7 6 0 0 6 0 4 4 1 5 0 0 2 1 1 7
split_gain=124.949 13.5256 11.2995 6.73242 5.92962 4.15486 2.85416 9.10357 4.93579 2.73951 2.62972 6.06598 2.26987 2.09367 1.92895 2.20776 1.52687 1.37249 1.02436 0.517513 0.51443 0.497231 0.490777 0.199282
threshold=1999.5000000000002 1994.5000000000002 1.675 41963.000000000007 6.5250000000000012 1.0250000000000001 41893.000000000007 41931.000000000007 6.3750000000000009 2.8250000000000006 41901.000000000007 41931.000000000007 2.1250000000000004 41884.500000000007 321.75000000000006 402.75000000000006 1987.5000000000002 87.250000000000014 41926.000000000007 41916.000000000007 34.875000000000007 1984.5000000000002 1976.5000000000002 5.7750000000000012
decision_type=2 2 2 2 2 2 2 2 2 2 2 2 2 2 2 2 2 2 2 2 2 2 2 2
left_child=1 3 5 6 17 -2 13 12 16 14 -7 -12 18 21 -4 -16 22 -3 19 -8 -15 23 -9 -1
right_child=2 4 9 -5 -6 10 7 8 -10 -11 11 -13 -14 20 15 -17 -18 -19 -20 -21 -22 -23 -24 -25
leaf_value=-0.029140388007674892 0.050195011408890003 0.02952603054543336 0.03700928288427266 0.01093870916149833 -0.024091749866916378 0.036846615467220546 -0.043157244686569479 -0.027557508647441855 -0.045355917016665144 0.080517709255218506 -0.017118954895572223 0.03176485776823635 -0.064460190604714793 -0.01658631020225584 0.080237645208835584 0.049477568508258893 0.0015150476513164386 0.0056122411042451859 -0.055715407729148875 -0.02866483926773071 -0.0026970552125324806 -0.020849536044093279 -0.013872832873542058 -0.038381954580545427
leaf_weight=14.000000000000002 17 15.000000000000002 10.999999999999998 10.999999999999998 10.999999999999998 15.999999999999998 14 10.000000000000002 14.999999999999998 13.999999999999998 11.000000000000002 14.999999999999998 17 15.000000000000002 10.000000000000002 13.999999999999998 13.999999999999998 9.9999999999999982 9.9999999999999982 11 11.999999999999998 12.999999999999998 19 9.9999999999999982
leaf_count=14 17 15 11 11 11 16 14 10 15 14 11 15 17 15 10 14 14 10 10 11 12 13 19 10
internal_value=0 -0.0215404 0.0440781 -0.026997 0.0065001 0.0293394 -0.0293952 -0.0342798 -0.0206601 0.0618247 0.0208979 0.0110832 -0.049471 -0.0209998 0.0543476 0.0622943 -0.0120453 0.0199605 -0.0421905 -0.0367806 -0.0104133 -0.0287251 -0.0185917 -0.032991
internal_weight=0 221 108 185 36 59 174 110 58 49 42 26 52 64 35 24 43 25 35 25 27 37 29 24
internal_count=329 221 108 185 36 59 174 110 58 49 42 26 52 64 35 24 43 25 35 25 27 37 29 24
is_linear=0
shrinkage=0.05


Tree=3
num_leaves=25
num_cat=0
split_feature=1 1 6 6 1 7 3 1 6 0 0 1 2 4 4 4 5 7 0 0 0 5 5 9
split_gain=112.767 12.3807 10.1978 3.74977 3.71898 5.35148 4.73716 3.19158 2.47241 2.37332 5.47454 2.27046 2.15138 1.74088 1.9925 1.24615 1.23867 1.13797 0.951422 0.698475 0.835318 0.542658 0.30779 0.161609
threshold=1999.5000000000002 1987.5000000000002 1.675 1.0250000000000001 1994.5000000000002 6.5250000000000012 25.775000000000002 1985.5000000000002 2.8250000000000006 41901.000000000007 41931.000000000007 1977.5000000000002 34.475000000000009 321.75000000000006 402.75000000000006 287.75000000000006 87.250000000000014 6.2250000000000005 41931.000000000007 41931.000000000007 41901.000000000007 85.750000000000014 85.250000000000014 27.000000000000004
decision_type=2 2 2 2 2 2 2 2 2 2 2 2 2 2 2 2 2 2 2 2 2 2 2 2
left_child=1 7 3 -2 6 16 12 11 13 -5 -11 19 -3 -4 -15 -8 -6 18 22 20 23 -19 -13 -1
right_child=2 4 8 9 5 -7 15 -9 -10 10 -12 17 -14 14 -16 -17 -18 21 -20 -21 -22 -23 -24 -25
leaf_value=-0.036543620998660716 0.047685260944725839 -0.014969055964188139 0.035158817199143495 0.035004285257309677 0.028049728025992704 -0.022887162119150165 -0.037424073228612541 -0.049300687642473924 0.076491824856826249 -0.016263007609681645 0.030176614968028544 -0.037942718341946596 0.014579663079764164 0.076225760877132398 0.04700368986065899 -0.016997646088046686 0.00533162884414196 -0.0052539633022836187 -0.01587273498464908 -0.025545525497623851 -0.048254873497145523 -0.020343314551494338 -0.026363631066950884 -0.027937192171812061
leaf_weight=12.000000000000002 17 11.000000000000002 10.999999999999998 15.999999999999998 15.000000000000002 10.999999999999998 16.000000000000004 19 13.999999999999998 11.000000000000002 14.999999999999998 12.000000000000002 13.999999999999998 10.000000000000002 13.999999999999998 13.999999999999998 9.9999999999999982 13.000000000000002 13.999999999999998 13.999999999999998 13.999999999999998 10.999999999999998 10.999999999999998 9.9999999999999982
leaf_count=12 17 11 11 16 15 11 16 19 14 11 15 12 14 10 14 14 10 13 14 14 14 11 11 10
internal_value=0 -0.0204634 0.0418742 0.0278724 -0.00631861 0.0061751 -0.0144963 -0.0303648 0.0587335 0.019853 0.0105291 -0.0271235 0.00157823 0.0516302 0.0591796 -0.0278917 0.0189625 -0.0206493 -0.0261495 -0.035022 -0.0387073 -0.0121699 -0.0324049 -0.0326316
internal_weight=0 221 108 59 91 36 55 130 49 42 26 111 25 35 24 30 25 61 37 50 36 24 23 22
internal_count=329 221 108 59 91 36 55 130 49 42 26 111 25 35 24 30 25 61 37 50 36 24 23 22
is_linear=0
shrinkage=0.05


Tree=4
num_leaves=25
num_cat=0
split_feature=1 1 6 0 0 6 5 1 6 0 0 1 1 6 1 7 6 0 3 0 0 5 5 9
split_gain=101.772 11.1736 9.20351 3.57221 7.02951 3.38416 3.0019 2.8804 2.23135 2.14192 4.94078 2.04909 1.63643 1.62686 1.2454 1.02702 0.979329 0.858658 0.675159 0.630374 0.753874 0.489749 0.277781 0.145852
threshold=1999.5000000000002 1987.5000000000002 1.675 41931.000000000007 41901.000000000007 1.0250000000000001 88.750000000000014 1985.5000000000002 2.8250000000000006 41901.000000000007 41931.000000000007 1977.5000000000002 1994.5000000000002 2.1750000000000003 2010.5000000000002 6.2250000000000005 2.1250000000000004 41931.000000000007 26.075000000000006 41931.000000000007 41901.000000000007 85.750000000000014 85.250000000000014 27.000000000000004
decision_type=2 2 2 2 2 2 2 2 2 2 2 2 2 2 2 2 2 2 2 2 2 2 2 2
left_child=1 7 5 4 12 -2 16 11 13 -7 -11 19 -3 14 -4 17 -5 22 -6 20 23 -17 -13 -1
right_child=2 3 8 6 18 9 -8 -9 -10 10 -12 15 -14 -15 -16 21 -18 -19 -20 -21 -22 -23 -24 -25
leaf_value=-0.034716440613071116 0.045300997703281401 -0.0079021268151700484 0.045144502961864827 0.0069162686208361071 -0.023623229116201391 0.033254070673137903 -0.018186684648972006 -0.046835653407891337 0.072667233220168534 -0.015449857211206104 0.028667783693720902 -0.036045581536988412 0.016870044978956382 0.03200427105650306 0.067481850087642667 -0.0049912652000784867 0.026247368585318329 -0.015079098223109863 -0.040395716428756716 -0.024268249395702567 -0.045842128779206959 -0.01932614918332547 -0.025045449456030672 -0.026540332809090617
leaf_weight=12.000000000000002 17 15.000000000000002 13.000000000000002 19.000000000000004 10.000000000000002 15.999999999999998 9.9999999999999982 19 13.999999999999998 11.000000000000002 14.999999999999998 12.000000000000002 11.999999999999998 9.9999999999999982 11.999999999999998 13.000000000000002 9.9999999999999982 13.999999999999998 14.999999999999998 13.999999999999998 13.999999999999998 10.999999999999998 10.999999999999998 9.9999999999999982
leaf_count=12 17 15 13 19 10 16 10 19 14 11 15 12 12 10 12 13 10 14 15 14 14 11 11 10
internal_value=0 -0.0194402 0.0397805 -0.00600268 -0.0145819 0.0264788 0.00543631 -0.0288466 0.0557968 0.0188603 0.0100026 -0.0257673 0.00310773 0.0490487 0.0558664 -0.0196169 0.0135822 -0.024842 -0.0336867 -0.0332709 -0.036772 -0.0115614 -0.0307846 -0.031
internal_weight=0 221 108 91 52 59 39 130 49 42 26 111 27 35 25 61 29 37 25 50 36 24 23 22
internal_count=329 221 108 91 52 59 39 130 49 42 26 111 27 35 25 61 29 37 25 50 36 24 23 22
is_linear=0
shrinkage=0.05


Tree=5
num_leaves=28
num_cat=0
split_feature=1 1 1 0 7 0 0 7 0 0 7 8 0 0 6 0 5 1 8 7 2 6 8 1 1 4 0
split_gain=91.8492 10.2247 8.64295 5.50223 4.57492 4.41663 9.35103 3.93874 2.47851 7.18786 4.27226 2.22762 1.93884 1.62265 1.62182 1.11133 1.1008 1.05701 0.720852 0.704782 0.51947 0.493488 0.450419 0.522037 0.433541 0.212367 0.179834
threshold=1999.5000000000002 1994.5000000000002 2004.5000000000002 41963.000000000007 6.5250000000000012 41901.000000000007 41931.000000000007 6.5250000000000012 41893.000000000007 41931.000000000007 6.3750000000000009 4.2750000000000012 41931.000000000007 41884.500000000007 1.9750000000000003 41888.500000000007 87.250000000000014 1987.5000000000002 4.7228571430000015 6.3250000000000002 34.82500000000001 1.2250000000000003 4.9250000000000016 1981.5000000000002 1976.5000000000002 289.25000000000006 41908.000000000007
decision_type=2 2 2 2 2 2 2 2 2 2 2 2 2 2 2 2 2 2 2 2 2 2 2 2 2 2 2
left_child=1 3 12 8 16 19 -7 14 13 11 17 -10 15 22 -8 -2 -3 24 26 -4 -14 -15 23 -1 -11 -20 -13
right_child=2 4 5 -5 -6 6 7 -9 9 10 -12 18 20 21 -16 -17 -18 -19 25 -21 -22 -23 -24 -25 -26 -27 -28
leaf_value=-0.027700349582093099 0.021381227225065226 0.026301603354513637 0.075140195960799835 0.011082622612064537 -0.020959242814305154 0.002139107541491588 0.053172471577470917 0.028295037373900413 -0.064639537632465369 -0.023688944578170768 -0.040806185603141788 -0.039674683213233947 0.039050897918641553 -0.017050756830722089 0.080994209349155424 -0.0016493715007196775 0.0048851151764392857 0.0014672382867762022 -0.036663300544023503 0.057618576423688374 0.023305146904154261 -0.0030527599073727346 -0.033422947525978089 -0.013785870487873371 -0.01082698678793876 -0.026358760371804235 -0.048753432681163146
leaf_weight=14.000000000000002 10.000000000000002 15.000000000000002 12.000000000000002 10.999999999999998 10.999999999999998 11.999999999999998 11.000000000000005 9.9999999999999982 9.9999999999999982 10.000000000000002 14.999999999999998 10 10.000000000000002 10.000000000000002 9.9999999999999982 10.999999999999998 9.9999999999999982 13.999999999999998 10.000000000000002 10.999999999999998 10.999999999999998 17 9.9999999999999982 12.999999999999998 19 9.9999999999999982 12
leaf_count=14 10 15 12 11 11 12 11 10 10 10 15 10 10 10 10 11 10 14 10 11 11 17 10 13 19 10 12
internal_value=0 -0.0184682 0.0377915 -0.0232125 0.00591176 0.0490749 0.0396153 0.0541222 -0.0253805 -0.0299323 -0.0178302 -0.0434308 0.0200604 -0.0175571 0.0664209 0.00931758 0.017735 -0.00981537 -0.0383812 0.0667603 0.0308031 -0.0082372 -0.0243581 -0.0210008 -0.0152621 -0.031511 -0.0446267
internal_weight=0 221 108 185 36 66 43 31 174 110 58 52 42 64 21 21 25 43 42 23 21 27 37 27 29 20 22
internal_count=329 221 108 185 36 66 43 31 174 110 58 52 42 64 21 21 25 43 42 23 21 27 37 27 29 20 22
is_linear=0
shrinkage=0.05


Tree=6
num_leaves=26
num_cat=0
split_feature=1 1 1 3 0 0 4 1 0 1 0 1 6 0 7 8 8 8 0 8 8 0 5 4 6
split_gain=82.8939 9.41732 7.80026 4.28584 7.79676 3.61599 3.12055 2.87458 2.68119 2.57104 1.7498 1.71076 1.36083 1.00298 0.912874 0.869675 0.796735 0.891639 0.659947 0.488039 0.472028 0.370595 0.233878 0.128693 0.0407222
threshold=1999.5000000000002 1987.5000000000002 2004.5000000000002 25.925000000000001 41901.000000000007 41934.500000000007 482.50000000000006 1994.5000000000002 41931.000000000007 1985.5000000000002 41931.000000000007 1977.5000000000002 1.4750000000000003 41888.500000000007 6.2250000000000005 3.8750000000000004 4.4250000000000016 4.7228571430000015 41931.000000000007 4.1043103450000009 4.8250000000000002 41908.000000000007 85.250000000000014 378.50000000000006 1.7250000000000003
decision_type=2 2 2 2 2 2 2 2 2 2 2 2 2 2 2 2 2 2 2 2 2 2 2 2 2
left_child=1 9 10 -4 24 -6 7 8 21 11 13 16 -8 -2 18 -9 -1 -18 22 -16 -12 -3 -13 -19 -5
right_child=2 6 3 4 5 -7 12 15 -10 -11 20 14 -14 -15 19 -17 17 23 -20 -21 -22 -23 -24 -25 -26
leaf_value=-0.020926620392128826 0.02031216457486152 -0.0235728102736175 0.069144948758184915 0.061339174211025221 0.0020321524003520603 0.037465922493073678 0.00038809841789770865 -0.0061641322448849657 -0.0042580065007011099 -0.043175949452837051 0.036410360444675785 -0.032614705183853697 0.023900593407452108 -0.001566902819004926 -0.017807864457030181 0.013299568575298924 -0.046165339513258505 -0.032438343773052707 -0.014018540011186685 -0.0034980201807159649 0.021400834959931673 -0.03599917590618134 -0.022521208751608027 -0.024951062148267575 0.065851499438285832
leaf_weight=15.999999999999998 10.000000000000002 12.000000000000002 15.999999999999998 10.000000000000002 12.000000000000002 18 16.000000000000004 12.000000000000002 18 19 11.000000000000002 12.000000000000002 9.9999999999999982 10.999999999999998 11.000000000000002 10.999999999999998 10.999999999999998 12.000000000000002 13.999999999999998 12.999999999999998 9.9999999999999982 11.999999999999998 10.999999999999998 10.999999999999998 9.9999999999999982
leaf_count=16 10 12 16 10 12 18 16 12 18 19 11 12 10 11 11 11 11 12 14 13 10 12 11 11 10
internal_value=0 -0.0175448 0.0359019 0.0466212 0.0394136 0.0232924 -0.00520843 -0.0110643 -0.0188454 -0.0261803 0.0190573 -0.0232711 0.00943137 0.0088517 -0.0176513 0.00314459 -0.0301273 -0.0344571 -0.0225775 -0.0100567 0.029263 -0.029786 -0.0277874 -0.0288575 0.0635953
internal_weight=0 221 108 66 50 30 91 65 42 130 42 111 26 21 61 23 50 34 37 24 21 24 23 23 20
internal_count=329 221 108 66 50 30 91 65 42 130 42 111 26 21 61 23 50 34 37 24 21 24 23 23 20
is_linear=0
shrinkage=0.05


Tree=7
num_leaves=26
num_cat=0
split_feature=1 1 0 1 1 0 0 7 4 2 9 0 3 0 1 3 1 2 0 6 7 1 4 6 1
split_gain=74.8209 13.9125 4.70655 4.45569 2.64108 2.18723 6.06739 3.80726 1.95812 1.86029 3.46719 1.43344 3.90771 1.37041 1.35854 1.19499 0.881208 0.58111 0.477295 0.446352 0.446321 0.585666 0.312271 0.310237 0.294329
threshold=2001.5000000000002 1994.5000000000002 41963.000000000007 2010.5000000000002 1995.5000000000002 41893.000000000007 41931.000000000007 6.3750000000000009 374.00000000000006 35.025000000000006 8.0000000000000018 41901.000000000007 25.925000000000001 41884.500000000007 2005.5000000000002 26.325000000000006 1985.5000000000002 35.425000000000004 41926.000000000007 1.2250000000000003 5.7750000000000012 1979.5000000000002 374.00000000000006 1.7250000000000003 1976.5000000000002
decision_type=2 2 2 2 2 2 2 2 2 2 2 2 2 2 2 2 2 2 2 2 2 2 2 2 2
left_child=1 2 5 11 -3 13 8 16 18 10 -6 14 -13 20 -2 -5 24 -11 23 -15 21 -1 -14 -7 -8
right_child=3 4 -4 15 9 6 7 -9 -10 17 -12 12 22 19 -16 -17 -18 -19 -20 -21 -22 -23 -24 -25 -26
leaf_value=-0.025350382626056663 0.03132435137575322 0.030634398981928823 0.010767374323173004 0.071301875635981546 0.010080246741955096 -0.024800773927321031 -0.021265368163585655 -0.037803030312061309 -0.05734865870326758 0.021559835355728859 -0.028061115673997186 0.044230854570081357 0.0069463035697117431 -0.015424192848149682 0.056787968724966054 0.048671377553338453 -0.00011187765436867874 0.0055276932123188788 -0.043188134377652954 -0.002111495603971622 -0.027813528127530043 -0.0082380128931254151 0.018698737272419608 -0.035301058344981255 -0.010191199233134588
leaf_weight=10.000000000000002 11.000000000000002 9.9999999999999982 10.999999999999998 10.000000000000002 13.000000000000002 12.000000000000002 10.000000000000002 14.999999999999998 11.999999999999998 10.000000000000002 10.999999999999998 19 10.000000000000002 10.000000000000002 9.9999999999999982 13.999999999999998 18 12.999999999999998 10.999999999999998 17 17 9.9999999999999982 12.999999999999998 17 14.999999999999998
leaf_count=10 11 10 11 10 13 12 10 15 12 10 11 19 10 10 10 14 18 13 11 17 17 10 13 17 15
internal_value=0 -0.0142967 -0.0209512 0.0397678 0.00730129 -0.0229564 -0.0272324 -0.0161135 -0.0396342 0.00233679 -0.00740121 0.0327838 0.0274508 -0.0156071 0.0434499 0.0581008 -0.00854734 0.0124982 -0.0343199 -0.00704212 -0.0218571 -0.0167942 0.013589 -0.0309561 -0.0146209
internal_weight=0 242 185 87 57 174 110 58 52 47 24 63 42 64 21 24 43 23 40 27 37 20 23 29 25
internal_count=329 242 185 87 57 174 110 58 52 47 24 63 42 64 21 24 43 23 40 27 37 20 23 29 25
is_linear=0
shrinkage=0.05


Tree=8
num_leaves=25
num_cat=0
split_feature=1 1 0 6 0 0 4 1 1 0 1 0 1 3 1 7 8 8 0 8 0 4 5 4
split_gain=67.6991 7.82504 7.02395 6.5016 3.66031 2.85476 2.68336 2.66945 3.09236 2.32931 2.32125 2.21195 2.063 1.54063 1.38783 0.818293 0.642206 0.746479 0.511162 0.427877 0.339083 0.294864 0.20387 0.137685
threshold=1999.5000000000002 1987.5000000000002 41972.000000000007 1.675 41901.000000000007 41931.000000000007 579.00000000000011 1994.5000000000002 1997.5000000000002 41888.500000000007 1985.5000000000002 41931.000000000007 2004.5000000000002 26.225000000000005 1977.5000000000002 6.2250000000000005 4.4250000000000016 4.7228571430000015 41931.000000000007 4.1043103450000009 41908.000000000007 381.25000000000006 85.250000000000014 378.50000000000006
decision_type=2 2 2 2 2 2 2 2 2 2 2 2 2 2 2 2 2 2 2 2 2 2 2 2
left_child=1 10 3 4 12 -6 7 11 -9 -5 14 20 -2 -11 16 18 -1 -18 22 -17 -3 -7 -16 -19
right_child=2 6 -4 9 5 21 -8 8 -10 13 -12 -13 -14 -15 15 19 17 23 -20 -21 -22 -23 -24 -25
leaf_value=-0.018877761461772027 0.019254757384104385 -0.020745609328150744 0.072362376451492308 0.064076990187168129 -0.01482425707879222 0.022958875149488443 0.013303237739840851 0.015882522524851891 -0.016885391358907025 0.047011741699979591 -0.039876070466676829 -0.0037074864106742961 0.048989270627498631 0.025394902937114241 -0.029657374539722992 -0.015968483195386143 -0.041738319667902868 -0.029605726649363829 -0.013032609064664162 -0.0025696415883990436 -0.032401103029648465 0.010816725380718709 -0.020233632856979968 -0.02186128781600432
leaf_weight=15.999999999999998 14.000000000000002 13.000000000000002 9.9999999999999982 9.9999999999999982 11.000000000000002 10.000000000000002 17 18.000000000000004 11.999999999999998 17 19 19 9.9999999999999982 15.999999999999998 12.000000000000002 11.000000000000002 10.999999999999998 12.000000000000002 13.999999999999998 12.999999999999998 11.999999999999998 9.9999999999999982 10.999999999999998 10.999999999999998
leaf_count=16 14 13 10 10 11 10 17 18 12 17 19 19 10 16 12 11 11 12 14 13 12 10 11 11
internal_value=0 -0.0158555 0.032445 0.0283718 0.0169845 0.00563513 -0.00461025 -0.00872551 0.00277536 0.0429369 -0.0237271 -0.016567 0.0316441 0.0365309 -0.0209629 -0.0159012 -0.0271382 -0.0310254 -0.0205653 -0.00871078 -0.0263402 0.0168878 -0.0251504 -0.0259019
internal_weight=0 221 108 98 55 31 91 74 30 43 130 44 24 33 111 61 50 34 37 24 25 20 23 23
internal_count=329 221 108 98 55 31 91 74 30 43 130 44 24 33 111 61 50 34 37 24 25 20 23 23
is_linear=0
shrinkage=0.05


Tree=9
num_leaves=26
num_cat=0
split_feature=1 1 0 1 1 0 0 7 6 2 9 0 3 7 0 3 1 0 2 9 7 1 6 4 1
split_gain=61.37 11.177 4.03706 3.76139 2.33167 1.92633 5.13113 3.39555 1.78702 1.59382 2.84761 1.17262 3.17761 1.18819 1.13743 1.02224 0.753156 0.641371 0.530804 0.45385 0.415175 0.527514 0.409065 0.263831 0.244451
threshold=2001.5000000000002 1994.5000000000002 41963.000000000007 2010.5000000000002 1995.5000000000002 41893.000000000007 41931.000000000007 6.3750000000000009 2.1250000000000004 35.025000000000006 8.0000000000000018 41901.000000000007 25.925000000000001 6.4250000000000016 41884.500000000007 26.325000000000006 1985.5000000000002 41926.000000000007 35.425000000000004 9.5000000000000018 5.7750000000000012 1979.5000000000002 1.2250000000000003 374.00000000000006 1976.5000000000002
decision_type=2 2 2 2 2 2 2 2 2 2 2 2 2 2 2 2 2 2 2 2 2 2 2 2 2
left_child=1 2 5 11 -3 14 8 16 17 10 -6 13 -13 -2 20 -5 24 19 -11 -7 21 -1 -16 -14 -8
right_child=3 4 -4 15 9 6 7 -9 -10 18 -12 12 23 -15 22 -17 -18 -19 -20 -21 -22 -23 -24 -25 -26
leaf_value=-0.022803810462355606 0.051720294058322895 0.028334344588220119 0.010463635217059744 0.065070119798183432 0.0085750364340268625 -0.017846631207926702 -0.019082374572753899 -0.035040691594282788 -0.049487134200685165 0.019812010154128069 -0.025990842164240104 0.039907429622192132 0.0061701670940965394 0.027906596660614014 -0.014093858666019511 0.044139162610684124 0.00038645989778969027 -0.040429458022117615 0.004489520586167391 -0.031418376469186375 -0.025311394824701197 -0.0065632081823423505 -0.001349336434813107 0.016972678862153912 -0.0089900692303975429
leaf_weight=10.000000000000002 10.000000000000002 9.9999999999999982 10.999999999999998 10.000000000000002 13.000000000000002 11.000000000000002 10.000000000000002 14.999999999999998 17 10.000000000000002 10.999999999999998 19 10.000000000000002 10.999999999999998 10.000000000000002 13.999999999999998 18 9.9999999999999982 12.999999999999998 13.999999999999998 17 9.9999999999999982 17 12.999999999999998 14.999999999999998
leaf_count=10 10 10 11 10 13 11 10 15 17 10 11 19 10 11 10 14 18 10 13 14 17 10 17 13 15
internal_value=0 -0.012948 -0.0189125 0.0360162 0.00641059 -0.0207696 -0.0247825 -0.0145574 -0.0361874 0.00174596 -0.00726766 0.0295994 0.0247759 0.0392465 -0.0138725 0.0528604 -0.00741206 -0.0297276 0.0111515 -0.0254468 -0.0195666 -0.0146835 -0.00606953 0.0122759 -0.013027
internal_weight=0 242 185 87 57 174 110 58 52 47 24 63 42 21 64 24 43 35 23 25 37 20 27 23 25
internal_count=329 242 185 87 57 174 110 58 52 47 24 63 42 21 64 24 43 35 23 25 37 20 27 23 25
is_linear=0
shrinkage=0.05


Tree=10
num_leaves=26
num_cat=0
split_feature=1 1 0 6 6 0 0 7 8 2 0 0 6 9 1 0 3 7 1 8 2 6 1 6 4
split_gain=55.3865 10.0872 3.64345 3.45601 2.1713 1.73852 4.63084 3.06449 1.9267 1.72805 1.71001 5.38584 1.75852 1.65661 1.5327 1.02653 0.894353 0.79916 0.679724 0.504968 0.389566 0.369181 0.220617 0.157164 0.151899
threshold=2001.5000000000002 1994.5000000000002 41963.000000000007 2.8250000000000006 1.6250000000000002 41893.000000000007 41931.000000000007 6.3750000000000009 4.2750000000000012 34.82500000000001 41901.000000000007 41931.000000000007 1.7750000000000001 8.0000000000000018 2005.5000000000002 41884.500000000007 25.925000000000001 5.9750000000000005 1985.5000000000002 4.7228571430000015 34.975000000000009 1.2250000000000003 1976.5000000000002 1.675 289.25000000000006
decision_type=2 2 2 2 2 2 2 2 2 2 2 2 2 2 2 2 2 2 2 2 2 2 2 2 2
left_child=1 2 5 10 9 15 8 18 -7 13 14 -12 16 -3 -2 20 -13 -11 22 23 -1 -17 -8 -10 -21
right_child=3 4 -4 -5 -6 6 7 -9 19 17 11 12 -14 -15 -16 21 -18 -19 -20 24 -22 -23 -24 -25 -26
leaf_value=-0.023859352613281874 0.026417526602745045 0.0048448815941810599 0.0099404533478346744 0.059129101534684508 0.022419524999956291 -0.054102269783616069 -0.01812825616449117 -0.033288656671841936 -0.039538565576076497 0.00017014227807521815 -0.0014804144755804114 0.036884891241788856 0.048940080617155352 -0.023273669883862817 0.050989720076322555 -0.013389165555126962 0.01622453762049025 0.019700054688887164 0.00036713688944776859 -0.028289183042943467 -0.013594597332963818 -0.0012818696306032293 -0.0085405656447013218 -0.031051307171583178 -0.019574288767762484
leaf_weight=18 11.000000000000002 10.000000000000002 10.999999999999998 11.999999999999998 14.999999999999998 9.9999999999999982 10.000000000000002 14.999999999999998 10.000000000000002 10.000000000000002 13.999999999999998 10.000000000000002 13.999999999999998 10.999999999999998 14.999999999999998 10.000000000000002 10.999999999999998 10.999999999999998 18 10.000000000000002 19 17 14.999999999999998 11.999999999999998 9.9999999999999982
leaf_count=18 11 10 11 12 15 10 10 15 10 10 14 10 14 11 15 10 11 11 18 10 19 17 15 12 10
internal_value=0 -0.0123006 -0.0179669 0.0342154 0.00609006 -0.0197312 -0.0235434 -0.0138295 -0.0343781 0.000258106 0.0302292 0.0247297 0.0352137 -0.00988388 0.0405938 -0.0131789 0.0260628 0.0104001 -0.00704146 -0.0296818 -0.0185883 -0.00576605 -0.0123756 -0.0349092 -0.0239317
internal_weight=0 242 185 87 57 174 110 58 52 42 75 49 35 21 26 64 21 21 43 42 37 27 25 22 20
internal_count=329 242 185 87 57 174 110 58 52 42 75 49 35 21 26 64 21 21 43 42 37 27 25 22 20
is_linear=0
shrinkage=0.05


Tree=11
num_leaves=26
num_cat=0
split_feature=1 1 0 1 1 8 0 0 7 8 0 3 7 0 3 0 8 0 1 8 7 1 6 6 4
split_gain=49.9863 9.10374 3.28821 3.24536 2.11612 1.73763 1.56901 4.17934 2.79642 1.73884 0.983291 2.59553 1.02316 0.926442 0.924289 0.89976 0.882847 0.669453 1.45815 0.455733 0.375816 0.463496 0.333186 0.141841 0.137089
threshold=2001.5000000000002 1994.5000000000002 41963.000000000007 2010.5000000000002 1995.5000000000002 4.4250000000000016 41893.000000000007 41931.000000000007 6.4750000000000005 4.2750000000000012 41901.000000000007 25.925000000000001 6.4250000000000016 41884.500000000007 26.325000000000006 41931.000000000007 4.0750000000000002 41948.500000000007 1985.5000000000002 4.7228571430000015 5.7750000000000012 1979.5000000000002 1.2250000000000003 1.675 289.25000000000006
decision_type=2 2 2 2 2 2 2 2 2 2 2 2 2 2 2 2 2 2 2 2 2 2 2 2 2
left_child=1 2 6 10 -3 15 13 9 17 -8 12 -12 -2 20 -5 -6 -13 18 -9 23 21 -1 -15 -11 -21
right_child=3 4 -4 14 5 -7 7 8 -10 19 11 16 -14 22 -16 -17 -18 -19 -20 24 -22 -23 -24 -25 -26
leaf_value=-0.020624623522162433 0.046953376829624166 0.026671394072473049 0.0094434307380156096 0.059760759323835358 -0.015540756857288732 0.013012597984389255 -0.05139715472236276 -0.011259225834357109 -0.035831981626423919 -0.037561637163162222 0.035802816810380472 0.021061628117141393 0.024855315075679261 -0.012719707200303671 0.03985790161948119 0.0023852853769702571 0.0014510847240065535 -0.01540102660138574 0.012328876908868552 -0.026874723620712748 -0.023124571801985013 -0.0054013464879244565 -0.0012177760767586093 -0.029498742769161864 -0.018595574516803028
leaf_weight=10.000000000000002 10.000000000000002 9.9999999999999982 10.999999999999998 10.000000000000002 14.000000000000002 19 9.9999999999999982 19.000000000000004 10.999999999999998 10.000000000000002 19 11.000000000000002 10.999999999999998 10.000000000000002 13.999999999999998 13.999999999999998 11.999999999999998 18 9.9999999999999982 10.000000000000002 17 9.9999999999999982 17 11.999999999999998 9.9999999999999982
leaf_count=10 10 10 11 10 14 19 10 19 11 10 19 11 11 10 14 14 12 18 10 10 17 10 17 12 10
internal_value=0 -0.0116856 -0.0170685 0.0325047 0.00578556 0.00134176 -0.0187446 -0.0223662 -0.013138 -0.0326592 0.0265442 0.0221272 0.0353782 -0.0125199 0.0481508 -0.00657774 0.01083 -0.0078267 -0.0031254 -0.0281977 -0.0176588 -0.013013 -0.00547775 -0.0331637 -0.0227351
internal_weight=0 242 185 87 57 47 174 110 58 52 63 42 21 64 24 28 23 47 29 42 37 20 27 22 20
internal_count=329 242 185 87 57 47 174 110 58 52 63 42 21 64 24 28 23 47 29 42 37 20 27 22 20
is_linear=0
shrinkage=0.05


Tree=12
num_leaves=25
num_cat=0
split_feature=1 1 1 4 1 7 8 0 0 5 0 7 0 2 4 5 3 1 1 9 3 2 2 1
split_gain=45.1126 8.28543 2.92893 2.91023 2.14025 2.77247 2.13832 1.62834 2.76382 1.60273 1.45988 1.11247 0.90606 2.29867 1.15516 0.834635 0.834171 0.693209 0.683017 1.00248 0.600104 0.591879 0.302373 0.204303
threshold=2001.5000000000002 1987.5000000000002 2010.5000000000002 579.00000000000011 1994.5000000000002 6.4750000000000005 3.6250000000000004 41931.000000000007 41893.000000000007 85.750000000000014 41931.000000000007 5.9750000000000005 41956.500000000007 35.125000000000007 411.25000000000006 86.250000000000014 26.325000000000006 1996.5000000000002 1977.5000000000002 27.000000000000004 25.625000000000004 34.925000000000004 34.675000000000004 1979.5000000000002
decision_type=2 2 2 2 2 2 2 2 2 2 2 2 2 2 2 2 2 2 2 2 2 2 2 2
left_child=1 6 12 4 10 11 -1 8 18 -10 21 -6 13 22 -15 -9 -4 -13 -8 -20 -5 -3 -2 -17
right_child=2 3 16 20 5 -7 7 15 9 -11 -12 17 -14 14 -16 23 -18 -19 19 -21 -22 -23 -24 -25
leaf_value=-0.038147215758051189 0.0063611356275422226 -0.027690009027719495 0.056772721558809261 0.023702902160584918 -0.0023857224200453078 -0.020945495907217268 -0.021150090980033079 0.0015955857932567598 -0.022568352069509658 -0.044431703124816223 -0.002483663158981424 0.025388110019266597 0.038254194842143492 0.023396725161001081 0.043918695424993832 -0.019662350192666048 0.037865005553300891 0.0078777845948934562 0.001562546659260988 -0.01713026420911774 0.0067791501223109663 -0.012191284803504294 0.017744834772311154 -0.0099856272650261715
leaf_weight=13.999999999999998 14.000000000000002 14.000000000000002 10.000000000000002 11.000000000000002 13.999999999999998 9.9999999999999982 18 12.999999999999998 19 14.999999999999998 19 10.000000000000002 10.999999999999998 16.000000000000004 11.999999999999998 10.000000000000002 13.999999999999998 12.999999999999998 13.000000000000002 15.999999999999998 9.9999999999999982 10.999999999999998 9.9999999999999982 11.999999999999998
leaf_count=14 14 14 10 11 14 10 18 13 19 15 19 10 11 16 12 10 14 13 13 16 10 11 10 12
internal_value=0 -0.0111013 0.0308794 -0.00113387 -0.00500568 0.00241356 -0.0196886 -0.0174608 -0.0213549 -0.0322139 -0.0129308 0.00872682 0.025217 0.0224592 0.0321919 -0.00844881 0.0457432 0.015491 -0.0134994 -0.00875073 0.015644 -0.0208706 0.0111043 -0.0143841
internal_weight=0 242 87 112 91 47 130 116 81 34 44 37 63 52 28 35 24 23 47 29 21 25 24 22
internal_count=329 242 87 112 91 47 130 116 81 34 44 37 63 52 28 35 24 23 47 29 21 25 24 22
is_linear=0
shrinkage=0.05


Tree=13
num_leaves=25
num_cat=0
split_feature=1 0 1 1 0 0 0 1 4 1 1 0 1 7 2 7 2 8 8 0 8 9 4 4
split_gain=40.8249 5.6234 5.15899 4.28674 4.10485 3.94094 2.47034 2.003 1.79735 1.42756 2.06781 1.31755 0.900229 0.687836 0.613457 0.534856 0.53417 0.449284 0.462552 0.372438 0.340212 0.331702 0.64282 0.13316
threshold=1999.5000000000002 41972.000000000007 1987.5000000000002 2004.5000000000002 41901.000000000007 41931.000000000007 41948.500000000007 1985.5000000000002 579.00000000000011 1994.5000000000002 1997.5000000000002 41931.000000000007 1977.5000000000002 6.2250000000000005 35.175000000000004 6.3250000000000002 34.925000000000004 4.4250000000000016 4.7228571430000015 41908.000000000007 4.1043103450000009 27.000000000000004 298.50000000000006 378.50000000000006
decision_type=2 2 2 2 2 2 2 2 2 2 2 2 2 2 2 2 2 2 2 2 2 2 2 2
left_child=2 3 7 14 15 -6 -7 12 9 11 -11 16 17 21 -2 -5 -4 -1 -19 -16 -15 22 -14 -20
right_child=1 -3 8 4 5 6 -8 -9 -10 10 -12 -13 13 20 19 -17 -18 18 23 -21 -22 -23 -24 -25
leaf_value=-0.01420077505754307 0.00032654840499162673 0.060911908447742462 -0.026305508507149557 0.053666944972549861 -0.0040971543329457443 0.04719033415118852 0.016274567560425827 -0.033705282446585209 0.011478909898056265 0.012578680883679123 -0.014216669400533042 -0.0023594798618241362 -0.022101031954992897 -0.011938990550962357 0.0075009197617570541 0.038403054428371518 -0.011581720428710635 -0.032794223183935343 -0.023970651285101965 0.020566169731318952 8.6624748431719282e-06 -0.023169047633806866 -0.0059491071650492298 -0.016354532946239821
leaf_weight=15.999999999999998 14.999999999999998 9.9999999999999982 14.000000000000002 12.000000000000002 11.999999999999998 12.000000000000002 13.999999999999998 19 17 18.000000000000004 11.999999999999998 19 11.000000000000002 11.000000000000002 12.000000000000002 10.999999999999998 10.999999999999998 10.999999999999998 12.000000000000002 9.9999999999999982 12.999999999999998 11.999999999999998 13.999999999999998 10.999999999999998
leaf_count=16 15 10 14 12 12 12 14 19 17 18 12 19 11 11 12 11 11 11 12 10 13 12 14 11
internal_value=0 0.0251953 -0.0123126 0.0215507 0.0296951 0.0196043 0.0305434 -0.0187042 -0.00318185 -0.00654986 0.00186054 -0.0122842 -0.0161364 -0.0120597 0.00812354 0.0463668 -0.019827 -0.0211099 -0.0243613 0.0134397 -0.00546735 -0.0163359 -0.013056 -0.0203282
internal_weight=0 108 221 98 61 38 26 130 91 74 30 44 111 61 37 23 25 50 34 22 24 37 25 23
internal_count=329 108 221 98 61 38 26 130 91 74 30 44 111 61 37 23 25 50 34 22 24 37 25 23
is_linear=0
shrinkage=0.05


Tree=14
num_leaves=24
num_cat=0
split_feature=1 1 6 4 8 0 0 0 0 0 5 0 0 9 6 0 5 5 1 9 0 4 1
split_gain=36.9231 6.70624 2.72658 2.37205 1.90578 1.74521 3.86776 3.48496 1.41782 2.41014 1.41266 1.31637 1.79215 2.84794 1.41384 1.24727 0.933991 0.734379 0.605172 0.87822 0.495569 0.344714 0.182186
threshold=2001.5000000000002 1987.5000000000002 2.8250000000000006 579.00000000000011 3.6250000000000004 41931.000000000007 41948.500000000007 41901.000000000007 41931.000000000007 41893.000000000007 85.750000000000014 41884.500000000007 41931.000000000007 16.500000000000004 1.7750000000000001 41873.000000000007 87.250000000000014 86.250000000000014 1977.5000000000002 27.000000000000004 41916.000000000007 648.50000000000011 1979.5000000000002
decision_type=2 2 2 2 2 2 2 2 2 2 2 2 2 2 2 2 2 2 2 2 2 2 2
left_child=1 4 11 5 -1 7 -7 15 9 18 -11 -2 13 -13 16 -3 -14 -10 -6 -20 -9 -5 -19
right_child=2 3 -4 21 8 6 -8 20 17 10 -12 12 14 -15 -16 -17 -18 22 19 -21 -22 -23 -24
leaf_value=-0.03519503729684012 0.039573459265132747 -0.0092218525369058939 0.050065209157764912 0.020179298858750944 -0.019165293510175416 0.019528369899643096 -0.012815175174425045 -0.028862083171095166 0.0021653295217010263 -0.020384310636865466 -0.040910348842541383 -0.0038699320717049488 0.03190156131982802 0.028022407846791404 0.04135534316301346 0.013276939163915813 0.010788333178921181 -0.017808293476700775 0.002159084623249677 -0.015336925775045529 -0.015781970893343291 0.007352661089971662 -0.0086703568386534858
leaf_weight=13.999999999999998 11.999999999999998 11.000000000000002 11.999999999999998 11.000000000000002 18 19 18 14 12.999999999999998 19 14.999999999999998 14.000000000000002 10.000000000000002 13.999999999999998 13.999999999999998 13.999999999999998 10.999999999999998 10.000000000000002 13.000000000000002 15.999999999999998 15 9.9999999999999982 11.999999999999998
leaf_count=14 12 11 12 11 18 19 18 14 13 19 15 14 10 14 14 14 11 10 13 16 15 10 12
internal_value=0 -0.0100432 0.0279363 -0.00107587 -0.017769 -0.00457139 0.00379367 -0.010303 -0.0156658 -0.0192994 -0.0294399 0.0243957 0.0215047 0.0120762 0.0290475 0.00337747 0.0208423 -0.00725651 -0.0119638 -0.00749389 -0.0220965 0.0140714 -0.012824
internal_weight=0 242 87 112 130 91 37 54 116 81 34 75 63 28 35 25 21 35 47 29 29 21 22
internal_count=329 242 87 112 130 91 37 54 116 81 34 75 63 28 35 25 21 35 47 29 29 21 22
is_linear=0
shrinkage=0.05


Tree=15
num_leaves=24
num_cat=0
split_feature=1 1 1 3 9 1 1 9 4 1 1 3 1 7 9 4 8 8 2 8 9 4 4
split_gain=33.4205 4.16121 3.84653 2.49557 4.44121 1.76872 1.76477 1.45601 1.45159 1.24187 1.79885 0.771294 0.719377 0.620353 0.57857 0.569189 0.392069 0.387728 0.338703 0.300744 0.295283 0.541957 0.121015
threshold=1999.5000000000002 1987.5000000000002 2004.5000000000002 25.925000000000001 19.500000000000004 2011.5000000000002 1985.5000000000002 8.0000000000000018 579.00000000000011 1994.5000000000002 1997.5000000000002 25.475000000000005 1977.5000000000002 6.2250000000000005 8.0000000000000018 287.75000000000006 4.4250000000000016 4.7228571430000015 35.175000000000004 4.1750000000000016 27.000000000000004 298.50000000000006 378.50000000000006
decision_type=2 2 2 2 2 2 2 2 2 2 2 2 2 2 2 2 2 2 2 2 2 2 2
left_child=1 6 14 -4 5 7 12 -5 9 11 -11 -3 16 20 -2 -13 -1 -18 -16 -15 21 -14 -19
right_child=2 8 3 4 -6 -7 -8 -9 -10 10 -12 15 13 19 18 -17 17 22 -20 -21 -22 -23 -24
leaf_value=-0.012462004000553861 0.018083959505619373 0.00089153287932276738 0.047510933363810182 0.019552562786982607 0.047586386054754265 0.032840173766016965 -0.030961277116531211 -0.004599811688240152 0.010235527812448495 0.011874549318518902 -0.013117430948962769 -0.021766944299452008 -0.020097574862566858 -0.010162487730849531 -0.00099961079657077761 -0.0088058513278762504 -0.029674337126991968 -0.021733406061927474 0.010880037794510524 0.0010317118217547736 -0.021334154841800533 -0.0052668616441743712 -0.014472902837124739
leaf_weight=15.999999999999998 17 9.9999999999999982 15.999999999999998 13.000000000000002 14.999999999999998 9.9999999999999982 19 11.999999999999998 17 18.000000000000004 11.999999999999998 15.999999999999998 11.000000000000002 12.000000000000002 10.000000000000002 18 10.999999999999998 12.000000000000002 14.999999999999998 11.999999999999998 11.999999999999998 13.999999999999998 10.999999999999998
leaf_count=16 17 10 16 13 15 10 19 12 17 18 12 16 11 12 10 18 11 12 15 12 12 14 11
internal_value=0 -0.0111402 0.0227962 0.0303236 0.0248237 0.0150682 -0.0168805 0.00795942 -0.00293983 -0.0059666 0.00187776 -0.011315 -0.0144703 -0.010826 0.0109674 -0.0149052 -0.0189163 -0.0219535 0.00612818 -0.00456539 -0.014887 -0.0117924 -0.018261
internal_weight=0 221 108 66 50 35 130 25 91 74 30 44 111 61 42 34 50 34 25 24 37 25 23
internal_count=329 221 108 66 50 35 130 25 91 74 30 44 111 61 42 34 50 34 25 24 37 25 23
is_linear=0
shrinkage=0.05


Tree=16
num_leaves=25
num_cat=0
split_feature=1 1 0 1 1 8 0 0 7 6 3 7 0 9 5 2 0 0 0 1 0 9 2 9
split_gain=30.1915 5.57432 2.38966 2.31235 1.72256 1.25424 1.10408 2.71236 2.27003 1.49373 0.722195 0.699293 0.923007 2.28758 1.82864 0.640796 0.645456 0.594702 0.548263 1.09696 0.40821 0.359273 0.17059 0.126146
threshold=2001.5000000000002 1994.5000000000002 41963.000000000007 2010.5000000000002 1995.5000000000002 4.4250000000000016 41893.000000000007 41931.000000000007 6.4750000000000005 2.1250000000000004 26.325000000000006 6.5750000000000002 41901.000000000007 9.5000000000000018 86.750000000000014 34.07500000000001 41861.000000000007 41931.000000000007 41948.500000000007 1985.5000000000002 41926.000000000007 9.5000000000000018 35.525000000000006 34.500000000000007
decision_type=2 2 2 2 2 2 2 2 2 2 2 2 2 2 2 2 2 2 2 2 2 2 2 2
left_child=1 2 6 11 -3 17 15 9 18 20 -5 12 -2 14 -14 -1 -17 -6 19 -9 21 -8 23 -18
right_child=3 4 -4 10 5 -7 7 8 -10 -11 -12 -13 13 -15 -16 16 22 -19 -20 -21 -22 -23 -24 -25
leaf_value=-0.017820004001259805 0.034717290733869262 0.023433347716927528 0.0093072688037698914 0.048731197714805587 -0.013435029557773044 0.010495659669763164 -0.0099694927307692402 -0.0083414273826699498 -0.030773236738009885 -0.038212151299504671 0.031138239215527264 0.011565184001536931 0.044719824343919745 0.0026590849057986188 0.014482133402489127 -0.016499038878828289 0.0030054018871548266 0.0011386993873332227 -0.012395625313123068 0.012117743934504689 -0.028684539794921877 -0.022044634127191137 -0.0078939189823965233 -0.0044074282896789637
leaf_weight=17 12.999999999999998 9.9999999999999982 10.999999999999998 10.000000000000002 14.000000000000002 19 11.000000000000002 19.000000000000004 10.999999999999998 17 13.999999999999998 17 10.000000000000002 12.999999999999998 9.9999999999999982 11.999999999999998 12.000000000000002 13.999999999999998 18 9.9999999999999982 9.9999999999999982 13.999999999999998 11.999999999999998 10.999999999999998
leaf_count=17 13 10 11 10 14 19 11 19 11 17 14 17 10 13 10 12 12 14 18 10 10 14 12 11
internal_value=0 -0.00908169 -0.0132939 0.0252617 0.00458952 0.00058019 -0.0147227 -0.0177607 -0.0103265 -0.0260527 0.0384686 0.0202305 0.0234329 0.0189875 0.029601 -0.00950113 -0.00649218 -0.00614817 -0.00554108 -0.00128654 -0.0201467 -0.0167316 -0.00306125 -0.000539865
internal_weight=0 242 185 87 57 47 174 110 58 52 24 63 46 33 20 64 47 28 47 29 35 25 35 23
internal_count=329 242 185 87 57 47 174 110 58 52 24 63 46 33 20 64 47 28 47 29 35 25 35 23
is_linear=0
shrinkage=0.05


Tree=17
num_leaves=25
num_cat=0
split_feature=1 1 6 4 8 0 0 0 0 0 5 0 0 0 6 1 5 5 1 3 0 0 1 4
split_gain=27.2478 5.03904 2.24328 1.89941 1.66884 1.38709 3.29175 2.92014 1.12942 1.95801 1.55694 1.0456 1.02576 3.5986 1.20904 0.94469 0.75008 0.625636 0.549836 0.516925 0.453923 0.435718 0.168852 0.088737
threshold=2001.5000000000002 1987.5000000000002 2.8250000000000006 579.00000000000011 3.6250000000000004 41931.000000000007 41948.500000000007 41901.000000000007 41931.000000000007 41901.000000000007 85.750000000000014 41873.000000000007 41901.000000000007 41931.000000000007 1.7750000000000001 2005.5000000000002 87.250000000000014 86.250000000000014 1977.5000000000002 25.625000000000004 41873.000000000007 41916.000000000007 1979.5000000000002 378.50000000000006
decision_type=2 2 2 2 2 2 2 2 2 2 2 2 2 2 2 2 2 2 2 2 2 2 2 2
left_child=1 4 12 5 -1 7 -7 11 9 18 -11 -3 15 -14 16 -2 -15 -10 23 -5 -20 -9 -19 -6
right_child=2 3 -4 19 8 6 -8 21 17 10 -12 -13 13 14 -16 -17 -18 22 20 -21 -22 -23 -24 -25
leaf_value=-0.031631372563008756 0.017684927244078025 -0.0081051576205275252 0.044070681898544239 0.02017959687774154 -0.020169972763820123 0.017991045646761596 -0.011847060391058525 -0.026231645047664637 0.0028453790188695378 -0.017084116395562884 -0.040909159152458116 0.012494586468009014 -0.0048967370721844164 0.027420528531074514 0.036478994627084052 0.036976137359937038 0.0084998354294591339 -0.015788169205188746 -0.014272143350293235 0.0044724618457257746 -0.001850633992274341 -0.013966801930218934 -0.0069909846332545092 -0.013818987442011182
leaf_weight=13.999999999999998 11.000000000000002 11.000000000000002 11.999999999999998 11.000000000000002 11.000000000000002 19 18 14 12.999999999999998 16.000000000000004 11.999999999999998 13.999999999999998 13.999999999999998 10.000000000000002 13.999999999999998 14.999999999999998 10.999999999999998 10.000000000000002 12.000000000000002 9.9999999999999982 19 15 11.999999999999998 10.999999999999998
leaf_count=14 11 11 12 11 11 19 18 14 13 16 12 14 14 10 14 15 11 10 12 10 19 15 12 11
internal_value=0 -0.0086276 0.0239986 -0.000854416 -0.0153245 -0.00398236 0.00347521 -0.00909218 -0.0133564 -0.0165995 -0.0272948 0.0034307 0.0207871 0.0165277 0.0250974 0.0288145 0.0175097 -0.00585096 -0.0109492 0.0127 -0.00665896 -0.0198878 -0.0109897 -0.0169945
internal_weight=0 242 87 112 130 91 37 54 116 81 28 25 75 49 35 26 21 35 53 21 31 29 22 22
internal_count=329 242 87 112 130 91 37 54 116 81 28 25 75 49 35 26 21 35 53 21 31 29 22 22
is_linear=0
shrinkage=0.05


Tree=18
num_leaves=25
num_cat=0
split_feature=1 0 1 1 0 0 0 1 1 0 0 5 9 1 6 1 7 7 8 8 9 8 8 7
split_gain=24.6966 4.48349 3.13419 2.91253 1.58664 2.79033 2.64532 1.53742 1.39999 1.04268 2.51763 1.65158 0.685971 0.682223 0.549145 0.523662 0.534282 0.499413 0.308811 0.27095 0.270236 0.357204 0.254895 0.0544192
threshold=1999.5000000000002 41972.000000000007 1987.5000000000002 2010.5000000000002 41901.000000000007 41931.000000000007 41948.500000000007 1985.5000000000002 2004.5000000000002 41931.000000000007 41901.000000000007 88.750000000000014 16.500000000000004 1994.5000000000002 2.1250000000000004 1977.5000000000002 6.2250000000000005 6.1250000000000009 4.4250000000000016 4.7228571430000015 27.000000000000004 4.6163793105000002 4.1750000000000016 5.7750000000000012
decision_type=2 2 2 2 2 2 2 2 2 2 2 2 2 2 2 2 2 2 2 2 2 2 2 2
left_child=2 3 7 4 8 -6 -7 15 -2 10 13 14 -5 -4 -11 18 20 -12 -1 -20 21 -17 -18 -21
right_child=1 -3 9 12 5 6 -8 -9 -10 11 17 -13 -14 -15 -16 16 22 -19 19 23 -22 -23 -24 -25
leaf_value=-0.010373819954111241 0.010288215825955072 0.05148814767599106 -0.003617003721495469 0.024303229277332618 -0.013672682725322936 0.027509462307481206 -0.00038381193915162893 -0.027700815692936122 0.03227294913958758 0.0047709930884210685 -0.011172652555008726 -0.01380166499875486 0.042034658193588259 0.012377801351249218 0.019246559999883176 -0.0032650925600054581 -0.0085421053071816754 -0.02531780113394444 -0.025251705267212612 -0.013170456005768339 -0.019135803356766703 -0.015305401112086007 0.001763543284808596 -0.01803926918655634
leaf_weight=15.999999999999998 15.000000000000002 9.9999999999999982 15.000000000000002 12.000000000000002 12.999999999999998 17 17 19 13.999999999999998 19.000000000000004 12.000000000000002 9.9999999999999982 9.9999999999999982 11.999999999999998 9.9999999999999982 11.000000000000002 12.000000000000002 12.999999999999998 10.999999999999998 11.000000000000002 11.999999999999998 13.999999999999998 11.999999999999998 11.999999999999998
leaf_count=16 15 10 15 12 13 17 17 19 14 19 12 10 10 12 10 11 12 13 11 11 12 14 12 12
internal_value=0 0.0195963 -0.00957648 0.0163421 0.0117044 0.0060296 0.0135628 -0.0145583 0.0209015 -0.00245964 -0.00709471 0.00372046 0.032363 0.0034918 0.00976257 -0.0123086 -0.00919941 -0.0185281 -0.0161019 -0.0187975 -0.0129681 -0.0100077 -0.00338928 -0.0157107
internal_weight=0 108 221 98 76 47 34 130 29 91 52 39 22 27 29 111 61 25 50 34 37 25 24 23
internal_count=329 108 221 98 76 47 34 130 29 91 52 39 22 27 29 111 61 25 50 34 37 25 24 23
is_linear=0
shrinkage=0.05


Tree=19
num_leaves=27
num_cat=0
split_feature=0 2 3 4 8 2 9 0 0 5 0 0 7 2 4 4 0 5 6 2 4 8 2 4 2 8
split_gain=11.1302 5.29438 2.95625 1.74089 1.67228 1.66955 2.07362 1.73513 1.80336 1.44184 1.08407 2.74027 1.01424 0.744288 0.741915 0.738225 0.631039 1.0035 0.630522 0.568037 0.531269 0.459318 0.325753 0.309722 0.265478 0.10833
threshold=41972.000000000007 34.225000000000009 26.475000000000005 411.25000000000006 4.2481481480000012 35.175000000000004 34.500000000000007 41908.000000000007 41893.000000000007 87.250000000000014 41931.000000000007 41901.000000000007 6.5250000000000012 34.425000000000004 397.75000000000006 229.75000000000003 41931.000000000007 85.750000000000014 1.8250000000000004 33.32500000000001 524.00000000000011 4.1750000000000016 33.525000000000006 327.00000000000006 35.375000000000007 3.9750000000000005
decision_type=2 2 2 2 2 2 2 2 2 2 2 2 2 2 2 2 2 2 2 2 2 2 2 2 2 2
left_child=1 3 5 16 -4 10 7 8 -7 24 11 14 19 -12 -3 -6 17 23 -19 -5 25 -16 -18 -1 -9 -15
right_child=-2 2 4 12 15 6 -8 9 -10 -11 13 -13 -14 20 21 -17 22 18 -20 -21 -22 -23 -24 -25 -26 -27
leaf_value=-0.017677213165622485 0.042076720992724102 0.007956444511476618 0.029037706500717572 -0.0064199317991733536 0.017333306372165676 0.001379244519691718 0.019540168148906609 0.010464412681758397 -0.024059711811556059 -0.0067068657511845237 0.01241884955935265 -0.026016971370314852 -0.014644998762135706 -0.0017606904916465272 -0.00019170177931135347 -0.00073662965128628113 -0.014961024345830076 -0.019245012011379001 -0.036244696155190471 0.0087710191262885939 -0.012195595703087748 -0.014997782194986939 -0.0021987249702215199 -0.0065377701694766688 0.021720771097832107 0.0055989854969084266
leaf_weight=13.000000000000002 14.999999999999998 12.999999999999998 13.999999999999998 10.000000000000002 10.000000000000002 19.000000000000004 19 10.000000000000005 10.999999999999998 9.9999999999999982 10.999999999999998 17 11.999999999999998 10.000000000000005 11.000000000000002 12.999999999999998 10.000000000000002 12.000000000000002 9.9999999999999982 15.999999999999998 9.9999999999999982 9.9999999999999982 9.9999999999999982 11.999999999999998 10.999999999999998 9.9999999999999982
leaf_count=13 15 13 14 10 10 19 19 10 11 10 11 17 12 10 11 13 10 12 10 16 10 10 10 12 11 10
internal_value=0 -0.00201003 0.00259184 -0.0111699 0.0154131 -0.000166227 0.00511645 0.000623816 -0.00794837 0.00891948 -0.00475986 -0.0096263 -0.00262113 0.00129352 -0.00143096 0.00711986 -0.0160185 -0.0191839 -0.0269721 0.00292835 -0.00278577 -0.00724222 -0.00857987 -0.0123303 0.0163606 0.00191915
internal_weight=0 314 209 105 37 172 80 61 30 31 92 51 38 41 34 23 67 47 22 26 30 21 20 25 21 20
internal_count=329 314 209 105 37 172 80 61 30 31 92 51 38 41 34 23 67 47 22 26 30 21 20 25 21 20
is_linear=0
shrinkage=0.05


Tree=20
num_leaves=27
num_cat=0
split_feature=1 1 6 0 1 8 0 0 9 6 8 0 0 3 4 7 7 1 0 6 9 1 3 8 4 9
split_gain=21.2199 4.01541 1.78428 1.73921 1.65077 0.963213 0.837774 1.20359 1.87284 1.05663 0.833169 1.12209 1.94989 0.982179 0.868839 0.697194 0.582161 0.570127 0.546125 0.497783 0.491032 0.4109 0.391049 0.165574 0.106359 0.0862537
threshold=2001.5000000000002 1994.5000000000002 2.8250000000000006 41963.000000000007 1995.5000000000002 4.4250000000000016 41884.500000000007 41931.000000000007 16.500000000000004 1.7750000000000001 3.6250000000000004 41931.000000000007 41901.000000000007 26.075000000000006 313.50000000000006 6.2250000000000005 5.9250000000000016 1977.5000000000002 41861.000000000007 1.2250000000000003 8.0000000000000018 1985.5000000000002 25.725000000000005 4.7228571430000015 458.50000000000006 27.000000000000004
decision_type=2 2 2 2 2 2 2 2 2 2 2 2 2 2 2 2 2 2 2 2 2 2 2 2 2 2
left_child=1 3 6 10 -3 20 -2 8 -8 19 22 12 17 14 -14 21 -15 25 -19 -9 -6 -13 -1 24 -20 -12
right_child=2 4 -4 -5 5 -7 7 9 -10 -11 11 15 13 16 -16 -17 -18 18 23 -21 -22 -23 -24 -25 -26 -27
leaf_value=-0.028804413899779308 0.030422430050869781 0.022436415646225213 0.039079519081860782 0.0080926581539890984 0.0012807065226997317 0.0087538498796914752 -0.0046501577366143453 0.022435609458691691 0.021212365205532741 0.032829224524487347 -0.017786402534693473 -0.0040585522539913653 -0.020000898973508308 -0.023811554014682764 -0.040364420115947729 -0.013077467114531569 -0.0077649286375022861 -0.014241306825230518 0.0047161782626062619 0.007022031848318875 -0.011995880802472433 0.0087145291035994887 -0.015416699512085567 -0.0061783272987948022 -0.0025762327900156379 -0.011498877722769977
leaf_weight=10.000000000000002 11.999999999999998 9.9999999999999982 11.999999999999998 10.999999999999998 13.000000000000002 19 14.000000000000002 11.000000000000002 13.999999999999998 13.999999999999998 12.000000000000002 17.000000000000004 11.000000000000002 10.000000000000002 9.9999999999999982 13.999999999999998 12.999999999999998 11.999999999999998 10.000000000000002 9.9999999999999982 14.999999999999998 9.9999999999999982 11.999999999999998 12.999999999999998 9.9999999999999982 9.9999999999999982
leaf_count=10 12 10 12 11 13 19 14 11 14 14 12 17 11 10 10 14 13 12 10 10 15 10 12 13 10 10
internal_value=0 -0.0076137 0.0211783 -0.0111887 0.00398944 6.45558e-05 0.0183141 0.0160078 0.0082811 0.0221892 -0.0124077 -0.0110914 -0.0137023 -0.0218799 -0.0296978 -0.0040228 -0.0147417 -0.00833194 -0.00510699 0.0150958 -0.00583175 0.000672219 -0.021502 -0.00178542 0.00106997 -0.0149284
internal_weight=0 242 87 185 57 47 75 63 28 35 174 152 111 44 21 41 23 67 45 21 28 27 22 33 20 22
internal_count=329 242 87 185 57 47 75 63 28 35 174 152 111 44 21 41 23 67 45 21 28 27 22 33 20 22
is_linear=0
shrinkage=0.05


Tree=21
num_leaves=26
num_cat=0
split_feature=1 1 1 0 1 8 8 0 0 8 7 7 6 6 1 0 9 8 6 1 9 8 1 4 6
split_gain=19.151 3.62391 1.67614 1.56963 1.48982 0.8693 0.754477 0.922735 2.02912 1.37039 0.761346 0.599656 0.726619 1.47473 0.554208 0.520785 0.443156 0.338338 0.332883 0.295217 0.282515 0.214086 0.118813 0.105975 0.104548
threshold=2001.5000000000002 1994.5000000000002 2010.5000000000002 41963.000000000007 1995.5000000000002 4.4250000000000016 3.2250000000000005 41931.000000000007 41893.000000000007 4.2750000000000012 6.3750000000000009 6.5750000000000002 1.1250000000000002 1.7750000000000001 1985.5000000000002 41884.500000000007 8.0000000000000018 4.9250000000000016 1.2250000000000003 1984.5000000000002 16.500000000000004 4.7228571430000015 1976.5000000000002 289.25000000000006 1.675
decision_type=2 2 2 2 2 2 2 2 2 2 2 2 2 2 2 2 2 2 2 2 2 2 2 2 2
left_child=1 3 11 6 -3 16 -1 8 15 -10 14 12 -2 -14 22 17 -6 19 -17 -8 -4 24 -9 -23 -11
right_child=2 4 20 -5 5 -7 7 10 9 21 -12 -13 13 -15 -16 18 -18 -19 -20 -21 -22 23 -24 -25 -26
leaf_value=-0.025120659843087197 0.02740627902094275 0.021314595257863403 0.026778842242700707 0.0076880251819437199 0.0012166710749555089 0.0083161572876729473 -0.012215898717370102 -0.010716385687701401 -0.037376728095114234 -0.02396077245473861 -0.016928649558262392 0.0078116429599878537 0.0031263739864031467 0.025297875665128235 0.0059304538914667707 -0.0088404147978872038 -0.011396087010701498 -0.018972236029803753 0.0029367384516323608 -0.0013891511503607036 0.037782376259565355 -0.016676974645815783 -0.0036803872440941635 -0.0093977215606719268 -0.0170385065022856
leaf_weight=9.9999999999999982 15.999999999999998 9.9999999999999982 14.000000000000002 10.999999999999998 13.000000000000002 19 17.000000000000004 10.000000000000002 9.9999999999999982 10.000000000000002 10.999999999999998 17 15.000000000000002 14.999999999999998 13.999999999999998 10.000000000000002 14.999999999999998 9.9999999999999982 14.999999999999998 9.9999999999999982 9.9999999999999982 10.000000000000002 14.999999999999998 9.9999999999999982 11.999999999999998
leaf_count=10 16 10 14 11 13 19 17 10 10 10 11 17 15 15 14 10 15 10 15 10 10 10 15 10 12
internal_value=0 -0.00723302 0.0201194 -0.0106293 0.00378997 6.13278e-05 -0.0117873 -0.0109743 -0.0134581 -0.020742 -0.00531117 0.0158359 0.0188014 0.0142121 -0.00203444 -0.00734899 -0.00554016 -0.0111158 -0.00177412 -0.00820599 0.0313636 -0.0167814 -0.00649479 -0.0130373 -0.020185
internal_weight=0 242 87 185 57 47 174 164 114 52 50 63 46 30 39 62 28 37 25 27 24 42 25 20 22
internal_count=329 242 87 185 57 47 174 164 114 52 50 63 46 30 39 62 28 37 25 27 24 42 25 20 22
is_linear=0
shrinkage=0.05


Tree=22
num_leaves=26
num_cat=0
split_feature=1 1 6 1 4 2 2 0 0 3 9 0 5 3 4 3 1 6 2 8 4 5 8 3 5
split_gain=17.2838 3.34606 1.5466 1.40989 1.39286 0.917007 0.818252 0.790833 1.32743 0.731384 1.02704 1.71796 1.35645 0.441622 0.392247 0.379755 0.340382 0.439043 0.303914 0.221177 0.196381 0.159282 0.128949 0.120831 0.0696689
threshold=2001.5000000000002 1987.5000000000002 2.8250000000000006 1985.5000000000002 579.00000000000011 34.82500000000001 35.425000000000004 41926.000000000007 41948.500000000007 25.525000000000002 19.500000000000004 41931.000000000007 86.750000000000014 26.475000000000005 289.25000000000006 25.625000000000004 1973.5000000000002 1.4750000000000003 34.625000000000007 4.6974137930000008 378.50000000000006 85.750000000000014 4.6724137930000014 26.275000000000002 85.750000000000014
decision_type=2 2 2 2 2 2 2 2 2 2 2 2 2 2 2 2 2 2 2 2 2 2 2 2 2
left_child=1 3 9 16 5 7 14 21 -9 -2 11 13 -13 -11 -7 -6 20 19 22 -18 -1 -3 24 -8 -19
right_child=2 4 -4 -5 15 6 23 8 -10 10 -12 12 -14 -15 -16 -17 17 18 -20 -21 -22 -23 -24 -25 -26
leaf_value=-0.018567666718445251 0.0038584853708744054 -0.019063761927695433 0.035779780979889139 -0.024914153819707664 0.017480846579101948 0.016605238877236837 -0.00081315008923411349 0.007404634205158799 -0.014105462870345668 -0.0039113854849711048 0.029382282029837371 0.036399856142022381 0.014113540347251628 0.010948318149894477 0.0026008283160626889 0.0040180498082190751 -0.017464330199072717 0.0018752220700579605 -0.011205857562729056 -0.0086840764046288467 -0.010106149160613616 -0.01055488342588598 -0.007229101181460116 -0.0085858874768018727 -0.0036336975366187598
leaf_weight=16.000000000000004 9.9999999999999982 11.000000000000002 11.999999999999998 19 11.000000000000002 10.000000000000002 10.000000000000002 16.000000000000004 12.999999999999998 10.000000000000002 15.999999999999998 11.000000000000002 18 9.9999999999999982 9.9999999999999982 9.9999999999999982 16.000000000000004 11.000000000000002 18 12.999999999999998 11.999999999999998 10.999999999999998 12.999999999999998 9.9999999999999982 11.999999999999998
leaf_count=16 10 11 12 19 11 10 10 16 13 10 16 11 18 10 10 10 16 11 18 13 12 11 13 10 12
internal_value=0 -0.00687136 0.0191135 -0.0123285 -0.000537159 -0.00321573 0.00245176 -0.00766082 -0.00223782 0.0164468 0.0183835 0.0147921 0.022567 0.00351847 0.00960303 0.01107 -0.0101742 -0.00856606 -0.00590112 -0.0135284 -0.0149413 -0.0148093 -0.00324876 -0.00469952 -0.000998997
internal_weight=0 242 87 130 112 91 40 51 29 75 65 49 29 20 20 21 111 83 54 29 28 22 36 20 23
internal_count=329 242 87 130 112 91 40 51 29 75 65 49 29 20 20 21 111 83 54 29 28 22 36 20 23
is_linear=0
shrinkage=0.05


Tree=23
num_leaves=27
num_cat=0
split_feature=1 0 6 0 0 0 0 0 0 3 0 1 8 0 0 5 7 7 1 2 1 7 2 8 1 2
split_gain=15.7724 3.90299 3.13227 2.60159 1.83269 1.36164 1.32333 1.04739 0.93581 1.16726 1.51802 1.29803 0.713977 0.915941 1.54239 1.02363 0.584523 0.476526 0.458565 0.352674 0.320599 0.248655 0.173267 0.211341 0.148199 0.0561492
threshold=1994.5000000000002 41972.000000000007 1.6250000000000002 41901.000000000007 41931.000000000007 41963.000000000007 41948.500000000007 41873.000000000007 41948.500000000007 26.225000000000005 41901.000000000007 2004.5000000000002 3.6250000000000004 41931.000000000007 41901.000000000007 86.250000000000014 6.2250000000000005 6.2750000000000012 1984.5000000000002 34.525000000000006 1985.5000000000002 6.3750000000000009 34.07500000000001 4.7228571430000015 1989.5000000000002 34.07500000000001
decision_type=2 2 2 2 2 2 2 2 2 2 2 2 2 2 2 2 2 2 2 2 2 2 2 2 2 2
left_child=5 2 3 7 -5 12 -6 -2 9 11 -11 -4 19 14 18 17 20 25 22 -1 -15 -9 -14 -24 -20 -16
right_child=1 -3 8 4 6 -7 -8 21 -10 10 -12 -13 13 16 15 -17 -18 -19 24 -21 -22 -23 23 -25 -26 -27
leaf_value=-0.01337691603209047 0.00090082133188843731 0.041031784902919421 0.019230783053419801 -0.016435134175440503 0.018597624395042651 0.0074019599367271781 -0.0040877819100084405 0.025261176998416575 0.0063084307677027862 0.027736827866597605 0.0014688034795901994 0.044120840132236487 -0.01372344863290588 -0.0030121452493510918 -0.016024737297133957 -0.030927326415593811 -0.011423154148672308 -0.0052285967348143468 0.0030257154277271835 -0.026090769134461879 0.0082704428257420661 0.014853707480836998 -0.0039414862922379085 -0.012835963341322813 -0.0053844885900616651 -0.021201460063457491
leaf_weight=12.000000000000002 9.9999999999999982 10.999999999999998 11.000000000000002 18 10.000000000000002 10.999999999999998 18 12.000000000000002 10.999999999999998 11.000000000000002 10.999999999999998 9.9999999999999982 18 17.000000000000004 11.000000000000005 12.999999999999998 13.999999999999998 9.9999999999999982 11.000000000000002 9.9999999999999982 9.9999999999999982 10.999999999999998 17.000000000000004 10.999999999999998 9.9999999999999982 9.9999999999999982
leaf_count=12 10 11 11 18 10 11 18 12 11 11 11 10 18 17 11 13 14 10 11 10 10 11 17 11 10 10
internal_value=0 0.0124087 0.0100413 0.00369743 -0.00398774 -0.00965864 0.00401415 0.0144101 0.0193223 0.0226514 0.0146028 0.0310832 -0.0107372 -0.00951868 -0.0118776 -0.0191506 -0.00313235 -0.014212 -0.00710127 -0.0191559 0.00116659 0.0202837 -0.00989615 -0.00743575 -0.000979144 -0.0184898
internal_weight=0 144 133 79 46 185 28 33 54 43 22 21 174 152 111 44 41 31 67 22 27 23 46 28 21 21
internal_count=329 144 133 79 46 185 28 33 54 43 22 21 174 152 111 44 41 31 67 22 27 23 46 28 21 21
is_linear=0
shrinkage=0.05


Tree=24
num_leaves=26
num_cat=0
split_feature=1 1 1 1 0 0 6 0 0 1 3 3 3 9 8 0 3 1 9 6 2 2 8 6 8
split_gain=14.2995 2.78539 1.4105 1.26923 0.929673 2.27573 1.41363 1.80385 1.07899 0.684563 0.557316 0.50206 1.19761 1.55709 0.594467 0.475193 0.381331 0.293045 0.432558 0.287096 0.184368 0.130401 0.12245 0.122011 0.0794772
threshold=2001.5000000000002 1987.5000000000002 2010.5000000000002 1985.5000000000002 41931.000000000007 41901.000000000007 2.2250000000000005 41948.500000000007 41873.000000000007 1994.5000000000002 26.325000000000006 25.525000000000002 25.825000000000006 19.500000000000004 4.4250000000000016 41956.500000000007 26.075000000000006 1973.5000000000002 27.000000000000004 1.4750000000000003 34.675000000000004 34.125000000000007 4.6724137930000014 0.97500000000000009 4.1043103450000009
decision_type=2 2 2 2 2 2 2 2 2 2 2 2 2 2 2 2 2 2 2 2 2 2 2 2 2
left_child=1 3 11 17 5 8 7 -6 -3 -10 -4 -2 -13 14 -14 -9 -7 21 19 -19 22 -1 24 -20 -21
right_child=2 4 10 -5 6 16 -8 15 9 -11 -12 12 13 -15 -16 -17 -18 18 23 20 -22 -23 -24 -25 -26
leaf_value=-0.016151538931040297 0.0031800029799342157 -0.0079875990282744173 0.036715343445539464 -0.023170407563080326 0.015111126858167923 -0.0074396005746993127 0.020526242662559858 -0.01396068854124418 0.00067237150855362397 0.01807315951356521 0.021260574171485913 0.030980226155370473 0.011734555571133062 0.027062724220256015 -0.0022970341002711884 0.00031005516648292543 -0.0192560570831928 -0.011892253320131984 -0.0098978112265467617 -0.0028421962261199942 -0.0085837865705668398 -0.0090303457900881758 -0.0058290737525074597 -0.017528838393363087 0.0031932845168436566
leaf_weight=18.000000000000004 9.9999999999999982 11.999999999999998 10.000000000000002 19 12.999999999999998 11.000000000000002 10.999999999999998 14.000000000000002 10.000000000000002 12.999999999999998 13.999999999999998 9.9999999999999982 18.000000000000004 11.999999999999998 12.999999999999998 9.9999999999999982 18 13.999999999999998 10.000000000000002 10.000000000000002 13.999999999999998 9.9999999999999982 11.999999999999998 10.999999999999998 11.999999999999998
leaf_count=18 10 12 10 19 13 11 11 14 10 13 14 10 18 12 13 10 18 14 10 10 14 10 12 11 12
internal_value=0 -0.00625007 0.0173853 -0.0112291 -0.000470864 -0.00441595 0.00478925 0.000110691 0.00416639 0.0105076 0.0277001 0.0134558 0.0153946 0.0117701 0.00585034 -0.00801455 -0.014774 -0.00918507 -0.00769291 -0.00559219 -0.00375468 -0.0136083 -0.00176622 -0.013895 0.000449884
internal_weight=0 242 87 130 112 64 48 37 35 23 24 63 53 43 31 24 29 111 83 62 48 28 34 21 22
internal_count=329 242 87 130 112 64 48 37 35 23 24 63 53 43 31 24 29 111 83 62 48 28 34 21 22
is_linear=0
shrinkage=0.05


Tree=25
num_leaves=25
num_cat=0
split_feature=1 1 1 8 4 8 0 0 0 0 0 3 7 3 7 6 6 5 1 9 3 9 1 9
split_gain=12.9053 2.51382 1.27297 1.22557 1.11441 0.697853 1.00771 1.38251 1.05841 0.609482 1.19612 1.15216 0.592857 0.502978 0.482561 0.620018 1.14206 0.4464 0.356817 0.387338 0.314762 0.231747 0.123693 0.0715562
threshold=2001.5000000000002 1987.5000000000002 2010.5000000000002 3.6250000000000004 579.00000000000011 3.3870689655000006 41931.000000000007 41948.500000000007 41901.000000000007 41931.000000000007 41901.000000000007 26.075000000000006 5.9750000000000005 26.325000000000006 6.5750000000000002 1.1250000000000002 1.7750000000000001 86.250000000000014 1977.5000000000002 27.000000000000004 25.625000000000004 9.5000000000000018 1979.5000000000002 27.000000000000004
decision_type=2 2 2 2 2 2 2 2 2 2 2 2 2 2 2 2 2 2 2 2 2 2 2 2
left_child=1 3 14 -1 5 -3 8 -8 12 10 18 -12 -7 -4 15 -2 -17 -11 23 -20 -6 -10 -19 -5
right_child=2 4 13 9 20 6 7 -9 21 17 11 -13 -14 -15 -16 16 -18 22 19 -21 -22 -23 -24 -25
leaf_value=-0.024641991932211178 0.023391917964909227 -0.014651340466331354 0.034879576414823525 -0.014420226837197937 0.015771555460312146 -0.0060689942149276064 0.015411206839866385 -0.0062492668180941392 -0.0078168207247342365 0.0038782412096714743 -0.02916506583491961 -0.0088279742872915592 0.010001223099728425 0.020197545870074204 0.0055847059449126183 0.0014483569065729775 0.020959581422309081 -0.011915192864835259 0.0022812214540317648 -0.0089026068046223379 0.0035148247750476005 -0.01708775942142193 -0.0043857353807349375 -0.0086933943827170873
leaf_weight=13.999999999999998 15.999999999999998 10.999999999999998 10.000000000000002 12.000000000000002 11.000000000000002 11.000000000000002 17.000000000000004 12.999999999999998 14.000000000000002 12.999999999999998 15.000000000000002 12.999999999999998 11.999999999999998 13.999999999999998 17 15.000000000000002 14.999999999999998 10.000000000000002 15.000000000000002 15.999999999999998 9.9999999999999982 12.999999999999998 11.999999999999998 9.9999999999999982
leaf_count=14 16 11 10 12 11 11 17 13 14 13 15 13 12 14 17 15 15 10 15 16 10 13 12 10
internal_value=0 -0.00593757 0.016516 -0.0106676 -0.000447321 -0.00284325 -0.00121963 0.006025 -0.00556641 -0.00898106 -0.0113635 -0.0197228 0.00231547 0.0263151 0.012783 0.0154433 0.011204 -0.00346753 -0.00694717 -0.00349108 0.00993502 -0.0122806 -0.00780822 -0.0118171
internal_weight=0 242 87 130 112 91 80 30 50 116 81 28 23 24 63 46 30 35 53 31 21 27 22 22
internal_count=329 242 87 130 112 91 80 30 50 116 81 28 23 24 63 46 30 35 53 31 21 27 22 22
is_linear=0
shrinkage=0.05


Tree=26
num_leaves=26
num_cat=0
split_feature=1 0 1 0 0 0 1 0 2 9 1 1 3 1 8 2 7 4 4 2 2 1 9 4 1
split_gain=11.7626 3.24986 2.37513 1.91034 1.8201 1.57104 1.45812 1.10712 1.08962 0.727486 0.71493 2.87496 0.606568 0.507157 0.312443 0.296649 0.294406 0.195429 0.143302 0.23262 0.192835 0.113639 0.149369 0.098272 0.0908049
threshold=1994.5000000000002 41972.000000000007 2004.5000000000002 41901.000000000007 41931.000000000007 41948.500000000007 1995.5000000000002 41963.000000000007 35.025000000000006 27.000000000000004 1986.5000000000002 1988.5000000000002 25.475000000000005 1984.5000000000002 4.2750000000000012 34.32500000000001 6.3250000000000002 287.75000000000006 344.00000000000006 34.725000000000009 34.125000000000007 1974.5000000000002 5.0000000000000009 358.75000000000006 1977.5000000000002
decision_type=2 2 2 2 2 2 2 2 2 2 2 2 2 2 2 2 2 2 2 2 2 2 2 2 2
left_child=7 2 6 16 -5 -6 -2 10 15 23 13 -12 -13 14 21 -8 -4 -14 20 24 -16 -1 -23 -10 -20
right_child=1 -3 3 4 5 -7 8 -9 9 -11 11 12 17 -15 18 -17 -18 -19 19 -21 -22 22 -24 -25 -26
leaf_value=-0.0089471271587535737 0.020122753791511058 0.036834500052712181 0.03260433723529179 -0.0071762400446459653 0.029640646868695809 0.0049861404229886832 -0.014493479793891307 0.0070426890118555595 0.013523241705619369 -0.0054970718175172814 -0.031136527866371635 0.0033210645345124329 -0.014720090372221807 0.0012415267352480443 -0.017220320233276909 -0.0038541674050257394 0.021279800683259964 -0.0067427750156425388 -0.0081205755908740681 -0.014757962822914123 -0.0090610278894503928 -0.0068912201846780402 0.0010253586304875522 0.006930331056937575 -0.0020469022635370491
leaf_weight=9.9999999999999982 9.9999999999999982 10.999999999999998 12.000000000000002 11.999999999999998 12.000000000000002 13.999999999999998 10.000000000000002 10.999999999999998 13.000000000000002 9.9999999999999982 17 10.999999999999998 14.000000000000002 15.999999999999998 14.000000000000002 19 10.999999999999998 17 16.000000000000004 9.9999999999999982 14.999999999999998 11.000000000000002 12.999999999999998 9.9999999999999982 9.9999999999999982
leaf_count=10 10 11 12 12 12 14 10 11 13 10 17 11 14 16 14 19 11 17 16 10 15 11 13 10 10
internal_value=0 0.0107159 0.00855569 0.0158149 0.00893102 0.0163651 0.00240553 -0.00834101 -0.000452085 0.00576166 -0.00931354 -0.0137881 -0.00676611 -0.0070179 -0.00835276 -0.0075229 0.0271883 -0.0103454 -0.0103843 -0.00827716 -0.013 -0.00446897 -0.00260307 0.0106568 -0.00578455
internal_weight=0 144 133 61 38 26 72 185 62 33 174 59 42 115 99 29 23 31 65 36 29 34 24 23 26
internal_count=329 144 133 61 38 26 72 185 62 33 174 59 42 115 99 29 23 31 65 36 29 34 24 23 26
is_linear=0
shrinkage=0.05


Tree=27
num_leaves=27
num_cat=0
split_feature=0 2 3 2 5 8 7 0 3 2 4 7 6 6 7 9 0 6 3 3 6 6 8 4 5 9
split_gain=6.57411 2.51865 1.33332 1.19998 1.57822 0.969947 0.710113 0.999573 1.35567 0.625272 0.656758 0.650732 0.547752 0.543948 0.474837 0.504086 0.713676 0.458243 0.449001 0.4248 0.377108 0.376908 0.368771 0.301161 0.191083 0.106786
threshold=41972.000000000007 35.175000000000004 26.475000000000005 35.425000000000004 85.750000000000014 4.4250000000000016 6.6750000000000016 41908.000000000007 26.375000000000004 33.925000000000004 390.25000000000006 5.9750000000000005 1.7250000000000003 1.4750000000000003 6.7750000000000012 9.5000000000000018 41931.000000000007 2.0750000000000006 26.025000000000002 26.075000000000006 1.3250000000000004 1.3750000000000002 4.1750000000000016 336.75000000000006 87.750000000000014 6.5000000000000009
decision_type=2 2 2 2 2 2 2 2 2 2 2 2 2 2 2 2 2 2 2 2 2 2 2 2 2 2
left_child=1 2 9 4 -3 -4 7 8 -5 10 17 12 21 -12 15 20 19 22 -6 -17 -13 -11 -1 -24 -15 -22
right_child=-2 3 5 6 18 -7 -8 -9 -10 11 13 14 -14 24 -16 16 -18 -19 -20 -21 25 -23 23 -25 -26 -27
leaf_value=-0.0025397642748430363 0.032337734947601955 0.026254366101840367 0.018528336547315113 -0.01540473137835139 0.011423624222251499 -0.002556230430491269 0.012586513263258069 0.0079484223020508098 0.0040308420053299741 -0.0091986082742611542 -0.013018712754869322 0.0033844803967936462 -0.016033329488709568 0.0057111712545156457 -0.010629170135044578 -0.0077941605634987325 0.015992956226691606 -0.021940411658336722 -0.0028624374419450762 0.0055099710791061329 -0.0044878313771914676 0.0033331536408513791 -0.020434961691498749 -0.0081638464145362393 -0.004063369818031788 -0.011794879166409374
leaf_weight=10.000000000000002 14.999999999999998 12.999999999999998 10.000000000000002 19 11.000000000000002 11.999999999999998 10.999999999999998 19 17 15.000000000000002 11.000000000000002 11.000000000000002 15.999999999999998 10.000000000000002 10.999999999999998 10.000000000000002 9.9999999999999982 11.999999999999998 10.999999999999998 14.999999999999998 10.000000000000002 9.9999999999999982 10.000000000000002 9.9999999999999982 9.9999999999999982 9.9999999999999982
leaf_count=10 15 13 10 19 11 12 11 19 17 15 11 11 16 10 11 10 10 12 11 15 10 10 10 10 10 10
internal_value=0 -0.0015448 -0.00462841 0.00495828 0.0124423 0.00702766 0.000989486 -0.00132992 -0.00622682 -0.005971 -0.0096082 -0.00372086 -0.00880929 -0.00408799 -0.00101144 0.000591511 0.00470393 -0.0136826 0.00428059 0.000188318 -0.00405154 -0.0041859 -0.0103795 -0.0142994 0.000823901 -0.00814136
internal_weight=0 314 213 101 35 22 66 55 36 191 73 118 41 31 77 66 35 42 22 25 31 25 30 20 20 20
internal_count=329 314 213 101 35 22 66 55 36 191 73 118 41 31 77 66 35 42 22 25 31 25 30 20 20 20
is_linear=0
shrinkage=0.05


Tree=28
num_leaves=27
num_cat=0
split_feature=1 1 1 1 4 8 0 0 0 8 3 3 9 8 3 3 6 1 9 3 7 0 4 1 9 0
split_gain=10.0477 1.97613 1.12446 1.07542 0.918463 0.634422 0.823912 1.14864 0.876414 0.507934 0.454515 0.901003 1.23706 0.500911 0.430734 0.229266 0.223605 0.318171 0.21092 0.204837 0.142813 0.276481 0.113733 0.182953 0.0917361 0.0204581
threshold=2001.5000000000002 1987.5000000000002 1985.5000000000002 2010.5000000000002 579.00000000000011 3.3870689655000006 41931.000000000007 41948.500000000007 41901.000000000007 4.5250000000000012 25.525000000000002 25.825000000000006 19.500000000000004 4.4250000000000016 26.325000000000006 25.625000000000004 1.4750000000000003 1973.5000000000002 19.500000000000004 26.075000000000006 5.3750000000000009 41901.000000000007 384.50000000000006 1979.5000000000002 34.500000000000007 41941.500000000007
decision_type=2 2 2 2 2 2 2 2 2 2 2 2 2 2 2 2 2 2 2 2 2 2 2 2 2 2
left_child=1 2 16 10 5 -3 8 -8 9 -7 -2 -12 13 -13 -5 -6 20 -18 22 -10 -1 24 23 -19 -22 -24
right_child=3 4 -4 14 15 6 7 -9 19 -11 11 12 -14 -15 -16 -17 17 18 -20 -21 21 -23 25 -25 -26 -27
leaf_value=-0.0048906513489782814 0.0013648942112922668 -0.013805084463886239 -0.020672623095053591 0.031505437791347492 0.014035360261120575 0.010004254142669112 0.014107935699832841 -0.005635634693317116 -0.0057861256328496057 -0.0048705222861220449 0.026505308784544469 0.0099678880690286537 0.02347371258462469 -0.0029123243900427884 0.017918662394263915 0.003574846696574241 -0.013371886617758059 -0.00029313494239679782 -0.0098883565670500207 -0.014649521280080081 -0.012395680831237269 -0.018710379227995871 -0.0012422179477289315 -0.0094123660586774363 -0.006384153024603924 0.0019560679374262691
leaf_weight=9.9999999999999982 9.9999999999999982 10.999999999999998 19 10.000000000000002 11.000000000000002 11.000000000000002 17.000000000000004 12.999999999999998 11.000000000000002 11.999999999999998 9.9999999999999982 18.000000000000004 11.999999999999998 12.999999999999998 13.999999999999998 9.9999999999999982 10.999999999999998 11.000000000000002 11.999999999999998 15.999999999999998 11.000000000000002 9.9999999999999982 10.000000000000002 10.999999999999998 14.999999999999998 9.9999999999999982
leaf_count=10 10 11 19 10 11 11 17 13 11 12 10 18 12 13 14 10 11 11 12 16 11 10 10 11 15 10
internal_value=0 -0.00523911 -0.00943291 0.0145731 -0.000371304 -0.00254641 -0.000998344 0.00555239 -0.00492878 0.0022435 0.011142 0.0129868 0.00984294 0.00456651 0.0235798 0.00905416 -0.00750899 -0.00562112 -0.00404226 -0.0110385 -0.0101766 -0.011645 -0.00237195 -0.00485275 -0.00892749 0.000356925
internal_weight=0 242 130 87 112 91 80 30 50 23 63 53 43 31 24 21 111 65 54 27 46 36 42 22 26 20
internal_count=329 242 130 87 112 91 80 30 50 23 63 53 43 31 24 21 111 65 54 27 46 36 42 22 26 20
is_linear=0
shrinkage=0.05


Tree=29
num_leaves=24
num_cat=0
split_feature=1 0 6 0 0 0 0 3 1 9 0 1 1 3 1 8 7 6 8 2 1 9 1
split_gain=9.08517 2.54485 1.97283 1.90759 1.26649 0.909472 0.879851 0.79874 1.35479 1.22033 0.731739 0.695504 2.45768 0.483653 0.449526 0.240006 0.192448 0.149478 0.141194 0.0914496 0.0888255 0.129519 0.0666385
threshold=1994.5000000000002 41972.000000000007 1.6250000000000002 41901.000000000007 41931.000000000007 41948.500000000007 41963.000000000007 26.225000000000005 2006.5000000000002 16.500000000000004 41873.000000000007 1986.5000000000002 1988.5000000000002 25.475000000000005 1984.5000000000002 4.2750000000000012 6.3750000000000009 2.0750000000000006 4.6974137930000008 34.925000000000004 1974.5000000000002 5.0000000000000009 1974.5000000000002
decision_type=2 2 2 2 2 2 2 2 2 2 2 2 2 2 2 2 2 2 2 2 2 2 2
left_child=6 2 3 10 -5 -6 11 8 -4 -9 -2 14 -13 -14 15 20 -12 18 -17 -15 -1 -22 -20
right_child=1 -3 7 4 5 -7 -8 9 -10 -11 16 12 13 19 -16 17 -18 -19 22 -21 21 -23 -24
leaf_value=-0.0077452243352308867 0.00035301448253449052 0.032530308040705599 0.011665993707720188 -0.014456841552681808 0.014632466351613397 -0.0041740120967410296 0.00638358003713868 -2.3137385869631541e-05 0.034460548294538804 0.021610688892277807 0.020932927913963791 -0.028650942638941003 0.002888929725370624 -0.011472778590886214 0.001842741493601352 -0.014094877171823207 0.011776971207423645 -0.0050960014522489581 -0.011277517785007752 -0.005897400572818394 -0.0061294591551731246 0.0012423614434038219 -0.0064672815251267616
leaf_weight=9.9999999999999982 9.9999999999999982 10.999999999999998 16.000000000000004 18 10.000000000000002 18 10.999999999999998 16.000000000000004 10.999999999999998 10.999999999999998 12.000000000000002 17 10.999999999999998 19.000000000000004 15.999999999999998 17 10.999999999999998 18 12.000000000000002 11.999999999999998 11.000000000000002 12.999999999999998 18
leaf_count=10 10 11 16 18 10 18 11 16 11 11 12 17 11 19 16 17 11 18 12 12 11 13 18
internal_value=0 0.00941767 0.00750609 0.00247141 -0.00410936 0.00254259 -0.00733051 0.0148717 0.0209527 0.00879064 0.0116446 -0.00819749 -0.0126108 -0.00611841 -0.00593325 -0.00718998 0.016554 -0.0089705 -0.0104543 -0.00931457 -0.00378605 -0.00213639 -0.00839138
internal_weight=0 144 133 79 46 28 185 54 27 27 33 174 59 42 115 99 23 65 47 31 34 24 30
internal_count=329 144 133 79 46 28 185 54 27 27 33 174 59 42 115 99 23 65 47 31 34 24 30
is_linear=0
shrinkage=0.05


Tree=30
num_leaves=27
num_cat=0
split_feature=1 1 3 9 8 1 5 6 1 1 1 8 3 9 2 3 7 8 5 3 7 8 4 6 2 4
split_gain=8.3101 2.22052 1.29048 1.43968 1.41831 1.12856 1.12753 0.845365 0.6006 2.39441 1.17669 0.536652 0.692104 0.6853 0.466059 0.653034 0.323376 0.222052 0.17359 0.159377 0.355271 0.146932 0.172065 0.119727 0.124502 0.0921498
threshold=2004.5000000000002 1994.5000000000002 26.225000000000005 16.500000000000004 4.5250000000000012 1995.5000000000002 86.250000000000014 3.4750000000000001 1986.5000000000002 1988.5000000000002 1985.5000000000002 3.3870689655000006 26.425000000000001 8.0000000000000018 34.925000000000004 25.975000000000005 6.1750000000000016 4.2231481480000008 87.250000000000014 25.925000000000001 5.9250000000000016 4.6413793105000005 377.75000000000006 1.4750000000000003 33.875000000000007 308.00000000000006
decision_type=2 2 2 2 2 2 2 2 2 2 2 2 2 2 2 2 2 2 2 2 2 2 2 2 2 2
left_child=1 7 4 6 -2 -3 -4 8 10 -10 17 -7 13 -13 18 -16 -15 23 -11 21 25 -19 -23 -1 -25 -21
right_child=2 5 3 -5 -6 11 -8 -9 9 14 -12 12 -14 16 15 -17 -18 19 -20 20 -22 22 -24 24 -26 -27
leaf_value=-0.0073861417298515643 0.015620114310230644 0.018778114281594756 -0.011046320956666019 0.020678063591613491 0.039105550050735474 -0.0079352300616197437 0.012151503148065373 0.006478656862269748 -0.027748969843720689 -0.014604412252083416 0.01071950275450945 0.0075432799181298308 0.013102634537678499 -0.011381756141781805 0.0090174629352986792 -0.0090523184556514022 0.00022599456521371999 -0.016503650397062305 -0.0060997563724716512 -0.01308300432283431 0.00085945480386726567 -0.013230661004490683 -0.0043501807563006882 0.002468183237942866 -0.0054217606876045474 -0.0070069056577407394
leaf_weight=14.999999999999998 18.000000000000004 9.9999999999999982 10.000000000000002 17 9.9999999999999982 13.999999999999998 10.999999999999998 10.999999999999998 17 12.000000000000002 9.9999999999999982 17 12.999999999999998 12.000000000000002 10.000000000000002 9.9999999999999982 11.999999999999998 9.9999999999999982 11.999999999999998 12.000000000000002 10.999999999999998 12.000000000000002 9.9999999999999982 10.000000000000002 9.9999999999999982 12.999999999999998
leaf_count=15 18 10 10 17 10 14 11 11 17 12 10 17 13 12 10 10 12 10 12 12 11 12 10 10 10 13
internal_value=0 -0.00398079 0.0158628 0.00986133 0.0240078 0.00309473 0.00110492 -0.00696398 -0.0078138 -0.011812 -0.0056555 0.000788348 0.00305002 -0.0001374 -0.00565451 -1.74278e-05 -0.00557788 -0.0072453 -0.0103521 -0.00891085 -0.00662866 -0.0114783 -0.00919408 -0.00400937 -0.00147679 -0.00992343
internal_weight=0 263 66 38 28 78 21 185 174 61 113 68 54 41 44 20 24 103 24 68 36 32 22 35 20 25
internal_count=329 263 66 38 28 78 21 185 174 61 113 68 54 41 44 20 24 103 24 68 36 32 22 35 20 25
is_linear=0
shrinkage=0.05


Tree=31
num_leaves=25
num_cat=0
split_feature=1 1 1 6 4 8 5 3 3 5 8 1 1 7 4 2 6 1 2 7 8 7 7 1
split_gain=7.5464 1.58177 0.95409 0.918995 0.803541 0.537393 0.660746 0.507267 0.603665 1.12931 0.636689 0.454281 0.316764 0.304536 0.260352 0.214933 0.170125 0.256134 0.185892 0.131361 0.144926 0.107704 0.10589 0.0533585
threshold=2001.5000000000002 1987.5000000000002 1985.5000000000002 2.8250000000000006 568.25000000000011 3.3870689655000006 84.750000000000014 25.525000000000002 26.225000000000005 86.750000000000014 4.1750000000000016 1994.5000000000002 1997.5000000000002 6.4750000000000005 381.25000000000006 34.475000000000009 1.4750000000000003 1973.5000000000002 34.625000000000007 5.3750000000000009 4.6974137930000008 5.7750000000000012 6.3250000000000002 1979.5000000000002
decision_type=2 2 2 2 2 2 2 2 2 2 2 2 2 2 2 2 2 2 2 2 2 2 2 2
left_child=1 2 16 7 5 -3 -7 -2 9 -9 14 15 -13 -6 -10 -8 19 -18 21 -1 22 -19 -21 -23
right_child=3 4 -4 -5 13 6 11 8 10 -11 -12 12 -14 -15 -16 -17 17 18 -20 20 -22 23 -24 -25
leaf_value=-0.003777513117529452 9.0382499620318414e-05 -0.012633302701975813 -0.018645739528399551 0.025476768286898734 0.0019364300742745395 -0.0099112009396776571 -0.0065612118061193648 0.027757092565298076 0.019969969559460871 0.0072915819545204819 0.0013031662619646847 0.011728008592931121 0.0014853923478060299 0.013750780296201507 0.0085605030041187996 0.0016503723555554948 -0.011827796375886962 -0.0055055682843720378 -0.0076057512416607799 -0.016731051118258615 -0.0067084912094287578 -0.0023976006929296995 -0.0094547134172171358 0.002317555299960077
leaf_weight=9.9999999999999982 9.9999999999999982 10.999999999999998 19 11.999999999999998 10.000000000000002 15.999999999999998 17 14.000000000000002 10.000000000000002 12.999999999999998 18 13.000000000000002 18 11.999999999999998 9.9999999999999982 14.999999999999998 10.999999999999998 10.999999999999998 18 10.000000000000002 15.999999999999998 10.000000000000002 9.9999999999999982 14.999999999999998
leaf_count=10 10 11 19 12 10 16 17 14 10 13 18 13 18 12 10 15 11 11 18 10 16 10 10 15
internal_value=0 -0.0045404 -0.00829247 0.0126296 -0.000185319 -0.00227922 -0.000837507 0.0105741 0.0121869 0.0179033 0.00812531 0.00146692 0.00578068 0.00838062 0.0142652 -0.00271203 -0.00652029 -0.00487359 -0.00345699 -0.00884714 -0.0102554 -0.00138261 -0.0130929 0.000431493
internal_weight=0 242 130 87 112 90 79 75 65 27 38 63 31 22 20 32 111 65 54 46 36 36 20 25
internal_count=329 242 130 87 112 90 79 75 65 27 38 63 31 22 20 32 111 65 54 46 36 36 20 25
is_linear=0
shrinkage=0.05


Tree=32
num_leaves=27
num_cat=0
split_feature=1 0 1 1 3 0 8 0 4 1 1 1 2 3 2 3 1 8 5 3 7 8 1 7 5 4
split_gain=6.8426 2.18799 1.47164 1.1863 1.11916 1.29954 1.20363 0.977597 0.766389 0.496155 1.71068 1.13905 0.445766 0.400091 0.392009 0.560271 0.322761 0.192494 0.155678 0.121148 0.309007 0.188248 0.15074 0.0972893 0.127904 0.0802761
threshold=2004.5000000000002 41972.000000000007 1994.5000000000002 1995.5000000000002 26.225000000000005 41901.000000000007 4.5250000000000012 41941.500000000007 313.50000000000006 1986.5000000000002 1988.5000000000002 1985.5000000000002 35.175000000000004 26.425000000000001 34.925000000000004 25.975000000000005 1998.5000000000002 4.2231481480000008 87.250000000000014 25.925000000000001 5.9250000000000016 4.6413793105000005 1973.5000000000002 5.9250000000000016 86.250000000000014 308.00000000000006
decision_type=2 2 2 2 2 2 2 2 2 2 2 2 2 2 2 2 2 2 2 2 2 2 2 2 2 2
left_child=1 2 9 -4 6 -6 -2 -7 13 11 -11 17 16 -5 18 -16 -10 23 -12 21 25 -19 -23 -1 -25 -21
right_child=4 -3 3 8 5 7 -8 -9 12 10 14 -13 -14 -15 15 -17 -18 19 -20 20 -22 22 -24 24 -26 -27
leaf_value=0.00011561767508586247 0.014252457175300352 0.019326814860105516 0.017508043795824053 -0.00094079129397869074 0.019082060735672715 -0.010828587829601017 0.035887549556791784 0.010771888286531479 -0.016103835281153969 -0.023536005949911974 -0.013573877870415644 0.011115814568474889 0.00037620540043510696 0.01260080710053444 0.0082998711243271791 -0.008437379277311266 -0.0036923397704958917 -0.015186673247565827 -0.0055199439637362959 -0.011993201744432247 0.0010121111525222659 -0.011479343163470424 -0.0035541816692178452 -0.000981248361058533 -0.0082814702717587362 -0.0063220557120915221
leaf_weight=11.999999999999998 18.000000000000004 9.9999999999999982 9.9999999999999982 10.000000000000002 17 10.000000000000002 9.9999999999999982 10.999999999999998 11.000000000000002 18 12.000000000000002 9.9999999999999982 19 11.999999999999998 10.000000000000002 9.9999999999999982 9.9999999999999982 11.999999999999998 11.999999999999998 12.000000000000002 10.999999999999998 12.000000000000002 11.999999999999998 10.000000000000002 14.999999999999998 12.999999999999998
leaf_count=12 18 10 10 10 17 10 10 11 11 18 12 10 19 12 10 10 10 12 12 12 11 12 12 10 15 13
internal_value=0 -0.00361224 -0.00451892 0.00152729 0.0143942 0.00880526 0.0219793 0.000485947 -0.00105026 -0.00692405 -0.0105508 -0.00503448 -0.00517294 0.00644554 -0.00523866 -6.87541e-05 -0.0101936 -0.00651616 -0.00954691 -0.00802242 -0.00597144 -0.0100734 -0.00751676 -0.00358506 -0.00536138 -0.00904421
internal_weight=0 263 253 72 66 38 28 21 62 181 62 119 40 22 44 20 21 109 24 72 36 36 24 37 25 25
internal_count=329 263 253 72 66 38 28 21 62 181 62 119 40 22 44 20 21 109 24 72 36 36 24 37 25 25
is_linear=0
shrinkage=0.05


Tree=33
num_leaves=26
num_cat=0
split_feature=1 0 1 1 3 9 8 3 4 1 1 1 1 3 3 8 8 4 3 7 8 1 7 5 4
split_gain=6.17545 1.97467 1.32815 1.07064 1.01005 1.17501 1.08627 0.750639 0.691666 0.44778 1.54389 1.02799 0.403765 0.361082 0.330072 0.251335 0.173726 0.114004 0.109336 0.278879 0.169894 0.136043 0.0878036 0.115433 0.0724492
threshold=2004.5000000000002 41972.000000000007 1994.5000000000002 1995.5000000000002 26.225000000000005 19.500000000000004 4.5250000000000012 26.475000000000005 313.50000000000006 1986.5000000000002 1988.5000000000002 1985.5000000000002 1999.5000000000002 26.425000000000001 25.475000000000005 4.6974137930000008 4.2231481480000008 287.75000000000006 25.925000000000001 5.9250000000000016 4.6413793105000005 1973.5000000000002 5.9250000000000016 86.250000000000014 308.00000000000006
decision_type=2 2 2 2 2 2 2 2 2 2 2 2 2 2 2 2 2 2 2 2 2 2 2 2 2
left_child=1 2 9 -4 6 7 -2 -6 13 11 -11 16 -10 -5 -12 -14 22 -16 20 24 -18 -22 -1 -24 -20
right_child=4 -3 3 8 5 -7 -8 -9 12 10 14 -13 15 -15 17 -17 18 -19 19 -21 21 -23 23 -25 -26
leaf_value=0.00010983664930487673 0.013539834377964627 0.018360473811626435 0.016632642000913619 -0.00089375160634517646 -0.0061038300600977455 0.02130678746228417 0.03409317117184401 0.010887559421378402 -0.010195548584880799 -0.022359205787587499 0.0017106774764565323 0.01056002383120358 0.0050794115374711412 0.011970766820013523 -0.011122376571542449 -0.0058729904320898646 -0.014427339161435763 -0.0050294957178480485 -0.01139354175441743 0.00096150564072145666 -0.010905376061176258 -0.0033764726792772613 -0.00093218580354005067 -0.0078673968235185993 -0.0060059529245616158
leaf_weight=11.999999999999998 18.000000000000004 9.9999999999999982 9.9999999999999982 10.000000000000002 13.000000000000002 11.999999999999998 9.9999999999999982 12.999999999999998 19 18 12.999999999999998 9.9999999999999982 11.000000000000002 11.999999999999998 14.000000000000002 9.9999999999999982 11.999999999999998 17 12.000000000000002 10.999999999999998 12.000000000000002 11.999999999999998 10.000000000000002 14.999999999999998 12.999999999999998
leaf_count=12 18 10 10 10 13 12 10 13 19 18 13 10 11 12 14 10 12 17 12 11 12 12 10 15 13
internal_value=0 -0.00343163 -0.00429298 0.00145092 0.0136745 0.008365 0.0208803 0.00239186 -0.000997744 -0.00657784 -0.0100233 -0.00478276 -0.0049143 0.00612326 -0.00497672 -0.000136018 -0.00619035 -0.00778112 -0.0076213 -0.00567287 -0.00956973 -0.00714092 -0.0034058 -0.00509331 -0.008592
internal_weight=0 263 253 72 66 38 28 26 62 181 62 119 40 22 44 21 109 31 72 36 36 24 37 25 25
internal_count=329 263 253 72 66 38 28 26 62 181 62 119 40 22 44 21 109 31 72 36 36 24 37 25 25
is_linear=0
shrinkage=0.05


Tree=34
num_leaves=26
num_cat=0
split_feature=1 0 1 3 0 8 5 1 0 0 0 8 7 1 0 8 3 7 8 1 6 6 6 4 4
split_gain=5.57334 1.78214 1.2566 0.911567 1.0801 0.980362 0.906405 0.828742 0.476928 1.49267 1.26519 0.511943 0.472451 0.276976 0.256352 0.156788 0.0986755 0.251688 0.153329 0.122778 0.087903 0.122665 0.079127 0.0653854 0.0194994
threshold=2004.5000000000002 41972.000000000007 1987.5000000000002 26.225000000000005 41901.000000000007 4.5250000000000012 86.250000000000014 1985.5000000000002 41948.500000000007 41931.000000000007 41901.000000000007 4.9750000000000005 6.1250000000000009 1994.5000000000002 41956.500000000007 4.2231481480000008 25.925000000000001 5.9250000000000016 4.6413793105000005 1973.5000000000002 1.4750000000000003 2.1750000000000003 2.0750000000000006 308.00000000000006 458.50000000000006
decision_type=2 2 2 2 2 2 2 2 2 2 2 2 2 2 2 2 2 2 2 2 2 2 2 2 2
left_child=1 2 7 5 -5 -2 -6 15 9 10 11 13 -12 -4 -10 20 18 23 -17 -20 -1 -22 -11 -18 -15
right_child=3 -3 8 4 6 -7 -8 -9 14 22 12 -13 -14 24 -16 16 17 -19 19 -21 21 -23 -24 -25 -26
leaf_value=-0.0061869735519091288 0.012862842408988702 0.017442450113594531 0.00025601541115479029 0.017315791903392358 -0.010532480273395775 0.032388513442128897 0.010266616195440293 -0.017196877661014073 -0.010081389743615598 0.014864538824902128 -0.0039998657099204133 -0.0059265369464727964 -0.016351470795149606 0.01169504569843411 -0.00053647205738040313 -0.013705972442403437 -0.010823864548001437 0.00091343035032464713 -0.010360106973287958 -0.0032076490422089897 0.0021850694747020793 -0.0053130262345075611 0.0089485879428684717 -0.0057056552157379115 0.0085725973173975938
leaf_weight=14.999999999999998 18.000000000000004 9.9999999999999982 11.000000000000002 17 10.000000000000002 9.9999999999999982 10.999999999999998 19 17.000000000000004 13.000000000000002 16.000000000000004 10.999999999999998 14.999999999999998 10.000000000000002 11.999999999999998 11.999999999999998 12.000000000000002 10.999999999999998 12.000000000000002 11.999999999999998 12.000000000000002 9.9999999999999982 9.9999999999999982 12.999999999999998 9.9999999999999982
leaf_count=15 18 10 11 17 10 10 11 19 17 13 16 11 15 10 12 12 12 11 12 12 12 10 10 13 10
internal_value=0 -0.00326005 -0.00407833 0.0129908 0.00794675 0.0198363 0.000362285 -0.00756056 -0.000512525 0.00118495 -0.00231465 0.00334049 -0.00997645 0.00662879 -0.00613177 -0.00588083 -0.00724023 -0.00538923 -0.00909124 -0.00678388 -0.00323551 -0.00122316 0.0122924 -0.0081624 0.0101338
internal_weight=0 263 253 66 38 28 21 128 125 96 73 42 31 31 29 109 72 36 36 24 37 22 23 25 20
internal_count=329 263 253 66 38 28 21 128 125 96 73 42 31 31 29 109 72 36 36 24 37 22 23 25 20
is_linear=0
shrinkage=0.05


Tree=35
num_leaves=25
num_cat=0
split_feature=1 0 1 3 9 6 1 3 0 0 0 0 7 1 0 8 3 7 8 1 7 5 6 4
split_gain=5.02994 1.60838 1.13408 0.822689 0.981173 0.917857 0.74794 0.688651 0.430427 1.34713 1.14184 0.50816 0.426387 0.256087 0.231358 0.141501 0.0890546 0.227148 0.13838 0.110807 0.0824482 0.0980663 0.0714121 0.0590103
threshold=2004.5000000000002 41972.000000000007 1987.5000000000002 26.225000000000005 19.500000000000004 1.675 1985.5000000000002 26.475000000000005 41948.500000000007 41931.000000000007 41901.000000000007 41873.000000000007 6.1250000000000009 1994.5000000000002 41956.500000000007 4.2231481480000008 25.925000000000001 5.9250000000000016 4.6413793105000005 1973.5000000000002 5.9250000000000016 86.250000000000014 2.0750000000000006 308.00000000000006
decision_type=2 2 2 2 2 2 2 2 2 2 2 2 2 2 2 2 2 2 2 2 2 2 2 2
left_child=1 2 6 5 7 -2 15 -5 9 10 11 -4 -12 -13 -10 20 18 23 -17 -20 -1 -22 -11 -18
right_child=3 -3 8 4 -6 -7 -8 -9 14 22 12 13 -14 -15 -16 16 17 -19 19 -21 21 -23 -24 -25
leaf_value=0.00033300225622951985 0.0083913136040791852 0.016570327542722224 -0.0050408763667711852 -0.0060462076127385852 0.019375658594071865 0.026684357563499364 -0.016337033427369439 0.010228493568809846 -0.0095773199901861283 0.014121311630767124 -0.0037998725485522294 0.00037924513220787036 -0.015533897425436106 0.010264452595851924 -0.00050964859159042435 -0.01302067393747469 -0.010282671148888764 0.00086775872941044236 -0.0098421018803492161 -0.0030472664550567669 -0.00087361917598172991 -0.0072658776538446551 0.0085011589294299496 -0.0054203724846816981
leaf_weight=11.999999999999998 12.000000000000002 9.9999999999999982 12.999999999999998 13.000000000000002 11.999999999999998 15.999999999999998 19 12.999999999999998 17.000000000000004 13.000000000000002 16.000000000000004 10.000000000000002 14.999999999999998 19 11.999999999999998 11.999999999999998 12.000000000000002 10.999999999999998 12.000000000000002 11.999999999999998 10.000000000000002 14.999999999999998 9.9999999999999982 12.999999999999998
leaf_count=12 12 10 13 13 12 16 19 13 17 13 16 10 15 19 12 12 12 11 12 12 10 15 10 13
internal_value=0 -0.00309705 -0.00387441 0.0123413 0.00754941 0.0188445 -0.00718253 0.00209114 -0.000486899 0.00112571 -0.00219891 0.00317347 -0.00947763 0.00685576 -0.00582518 -0.00558679 -0.00687822 -0.00511977 -0.00863668 -0.00644468 -0.00307374 -0.00470897 0.0116778 -0.00775428
internal_weight=0 263 253 66 38 28 128 26 125 96 73 42 31 29 29 109 72 36 36 24 37 25 23 25
internal_count=329 263 253 66 38 28 128 26 125 96 73 42 31 29 29 109 72 36 36 24 37 25 23 25
is_linear=0
shrinkage=0.05


Tree=36
num_leaves=28
num_cat=0
split_feature=1 0 1 3 0 8 5 8 0 0 0 8 1 6 1 1 9 1 4 3 9 0 6 9 0 4 4
split_gain=4.53952 1.45156 1.0235 0.742477 0.897307 0.880903 0.834034 0.709787 0.388461 1.21579 1.03051 0.463188 0.392204 0.279054 1.01568 0.85674 0.275557 0.230994 0.212839 0.138383 0.0971747 0.188199 0.0926283 0.087443 0.0769718 0.0654877 0.0175982
threshold=2004.5000000000002 41972.000000000007 1987.5000000000002 26.225000000000005 41901.000000000007 4.5250000000000012 86.250000000000014 3.6250000000000004 41948.500000000007 41931.000000000007 41901.000000000007 4.9750000000000005 1997.5000000000002 1.8250000000000004 1983.5000000000002 1984.5000000000002 9.5000000000000018 1994.5000000000002 568.25000000000011 25.725000000000005 8.0000000000000018 41926.000000000007 1.2250000000000003 34.500000000000007 41888.500000000007 323.75000000000006 458.50000000000006
decision_type=2 2 2 2 2 2 2 2 2 2 2 2 2 2 2 2 2 2 2 2 2 2 2 2 2 2 2
left_child=1 2 7 5 -5 -2 -6 -1 9 10 11 17 16 15 19 20 -12 -4 -10 -15 -9 22 23 -22 -24 -11 -19
right_child=3 -3 8 4 6 -7 -8 13 18 25 12 -13 -14 14 -16 -17 -18 26 -20 -21 21 -23 24 -25 -26 -27 -28
leaf_value=-0.017448127033588078 0.01129199461494055 0.015741811078041793 0.00032280010425231667 0.015711469985955559 -0.010191787038929758 0.029800730855786241 0.0097596921069039548 -0.0014271091483533385 -0.0086414855096097042 0.013880514048717235 0.001036078250035643 -0.0057999257167631931 -0.016587145254015924 -0.0087372301891446083 -0.021819931708953598 0.0091753053986890747 -0.010701828179880976 0.010826650541275736 0.00037045124918222427 -0.0014705945296507135 -0.011043171072378751 -0.012979266326874496 -0.0059772829525172695 -0.0048241102208311749 0.00022641616873443128 0.0085394631644400473 0.0078603245783597231
leaf_weight=13.999999999999998 18.000000000000004 9.9999999999999982 11.000000000000002 17 10.000000000000002 9.9999999999999982 10.999999999999998 9.9999999999999982 19.000000000000004 11.000000000000002 10.000000000000005 10.999999999999998 10.999999999999998 10.000000000000002 10.999999999999998 10.999999999999998 9.9999999999999982 10.000000000000002 9.9999999999999982 19 10.000000000000002 9.9999999999999982 10.000000000000002 12.999999999999998 9.9999999999999982 11.999999999999998 9.9999999999999982
leaf_count=14 18 10 11 17 10 10 11 10 19 11 10 11 11 10 11 11 10 10 10 19 10 10 10 13 10 12 10
internal_value=0 -0.00294219 -0.00368069 0.0117242 0.00717194 0.0179023 0.000258988 -0.0068234 -0.000462554 0.00106942 -0.00208897 0.00301479 -0.00900375 -0.00551861 -0.00888332 -0.00369985 -0.00483287 0.0061426 -0.00553392 -0.00397633 -0.0059479 -0.00680088 -0.00536404 -0.00752805 -0.00287543 0.0110939 0.00934349
internal_weight=0 263 253 66 38 28 21 128 125 96 73 42 31 114 40 74 20 31 29 29 63 53 43 23 20 23 20
internal_count=329 263 253 66 38 28 21 128 125 96 73 42 31 114 40 74 20 31 29 29 63 53 43 23 20 23 20
is_linear=0
shrinkage=0.05


Tree=37
num_leaves=25
num_cat=0
split_feature=1 1 5 1 6 4 8 0 0 8 9 1 9 5 0 2 7 6 1 9 0 5 0 6
split_gain=4.10286 1.07887 0.708674 2.26776 0.648581 0.601616 0.559181 0.575448 0.707997 0.632284 0.552247 0.397331 0.350038 0.975397 1.04265 0.597745 0.253088 0.198252 0.130203 0.137793 0.142481 0.0936578 0.0899244 0.0838493
